<?xml version="1.0"?>
<opencv_storage>
<opencv_ml_ann_mlp>
  <format>3</format>
  <layer_sizes>
    108 128 128 34</layer_sizes>
  <activation_function>SIGMOID_SYM</activation_function>
  <f_param1>1.</f_param1>
  <f_param2>1.</f_param2>
  <min_val>-9.4999999999999996e-01</min_val>
  <max_val>9.4999999999999996e-01</max_val>
  <min_val1>-9.7999999999999998e-01</min_val1>
  <max_val1>9.7999999999999998e-01</max_val1>
  <training_params>
    <train_method>BACKPROP</train_method>
    <dw_scale>1.0000000000000001e-01</dw_scale>
    <moment_scale>0.</moment_scale>
    <term_criteria>
      <iterations>100000</iterations></term_criteria></training_params>
  <input_scale>
    8.1082482364201596e+00 -1.9902613445865740e+00
    8.6363533056885835e+00 -6.6722906978982799e-01
    7.9756221653284669e+00 -1.8464213832064438e+00
    7.1464111298300201e+00 -1.7322077983634860e+00
    1.9624513469171845e+01 -7.4837618126799066e-01
    7.4370959891820938e+00 -1.7500592999196722e+00
    1.2194051376864776e+01 -4.4893201708907293e+00
    7.5578355898905363e+00 -1.6775408298987002e+00
    1.0814012636639539e+01 -3.7777290756282769e+00
    1.0213242018210009e+01 -3.6618584916068957e+00
    8.0969209714836179e+00 -1.5495719804204096e+00
    9.7751504957561632e+00 -3.4449609910926036e+00
    7.5257402594916369e+00 -1.6484451367467046e+00
    1.6493186430769935e+01 -6.8695352411726407e-01
    7.0124732197275845e+00 -1.6026070113093580e+00
    6.8825569764353141e+00 -1.5545153231340754e+00
    1.0626316307777575e+01 -6.6060703486555772e-01
    7.6306480230484892e+00 -1.7073824378442182e+00
    1.1845571316676793e+01 -4.4114548809957030e+00
    7.2779253822767824e+00 -1.4118267350432723e+00
    1.1103881534753274e+01 -3.9756042318148324e+00
    8.1263852610508991e+00 -2.8246099891805887e+00
    6.4862573359256013e+00 -1.4498097602922095e+00
    1.3846808244638439e+01 -5.2783116074287220e+00
    7.5149905755546804e+00 -1.7314148832084240e+00
    1.4206414202597101e+01 -6.8180105047985862e-01
    7.3972253744020833e+00 -1.5526672273195141e+00
    8.2411771169181929e+00 -2.0204056718459289e+00
    1.2354056058679795e+01 -8.8369439574407438e-01
    7.8964496513957405e+00 -2.0595672981008808e+00
    1.2712270118957951e+01 -4.6083454193361550e+00
    7.2434271943857480e+00 -1.2461929304232966e+00
    1.3244471387449870e+01 -4.7461502083139324e+00
    1.2786639007017973e+01 -4.7028734132753058e+00
    7.5558236403370991e+00 -1.8611686495479238e+00
    1.6282630068187355e+01 -6.1104373604861433e+00
    1.5941006987679739e+01 -4.9206285201211841e+00
    8.7969113334775315e+00 -2.1246276514593103e+00
    1.1147225796217935e+01 -2.8828929611239089e+00
    1.8399876327441344e+01 -5.7530408938014164e+00
    8.8597069658641310e+00 -1.8410388898995851e+00
    1.3586642150758452e+01 -4.0149047603067682e+00
    1.1374187845206649e+01 -3.2172817972063195e+00
    9.0661493846816175e+00 -2.2348091799074528e+00
    1.0670801750236279e+01 -3.0125457758585208e+00
    1.0521802447408254e+01 -3.0285625636412612e+00
    9.0886787296210105e+00 -2.0519783117420114e+00
    1.5359215106229151e+01 -4.6970120681651508e+00
    1.0687395142214886e+01 -3.0260550376861532e+00
    7.6022540462148553e+00 -1.5583758338603491e+00
    1.2157499857866521e+01 -3.4436436896559157e+00
    1.0109822315821338e+01 -2.9755931343509570e+00
    7.7122239650420514e+00 -1.6543273859784093e+00
    1.2282628635369623e+01 -3.5564800232453937e+00
    9.8234358354728144e+00 -2.7449960175445387e+00
    7.9647990912906783e+00 -1.7491334661311599e+00
    1.2452743118143033e+01 -3.6622102889505639e+00
    1.3547726098438275e+01 -4.1778350302793843e+00
    7.9907890520057752e+00 -1.7983607324425379e+00
    1.2618365532761951e+01 -3.8470266760188419e+00
    1.2448627634415216e+01 -3.7207591859761520e+00
    9.1982781214902047e+00 -1.6783881655899981e+00
    1.5010159733088301e+01 -4.4374126638181144e+00
    1.3724058045009802e+01 -4.0789501732257394e+00
    8.1632565352688502e+00 -1.9955507814738898e+00
    1.4889904912162937e+01 -4.5408303323722894e+00
    1.5696629290194172e+01 -4.9336894061330145e+00
    9.4138098448702827e+00 -1.7336087564762590e+00
    1.2025441775127362e+01 -3.5026200230497553e+00
    1.3700837421099504e+01 -4.2048074361750807e+00
    8.4061205761891511e+00 -2.1097299974535453e+00
    1.1659427472153883e+01 -3.1753507569741473e+00
    1.1534677259426912e+01 -4.1626624469202813e+00
    7.7804230822824128e+00 -1.7829690530281086e+00
    1.0532035436655107e+01 -3.6895025361270051e+00
    9.0156353029114449e+00 -3.0577416323299267e+00
    7.2924210346057770e+00 -1.5053991265361024e+00
    1.2440062458374195e+01 -4.5960594342226084e+00
    8.3666403260259194e+00 -2.0539378174720571e+00
    1.0609456501094822e+01 -8.5600840568836267e-01
    7.9463562801679464e+00 -1.8603107483917478e+00
    7.2399727478943934e+00 -1.6193621271749661e+00
    1.3897793543487957e+01 -8.4970756463244923e-01
    7.9422839312746119e+00 -1.8289218989962630e+00
    7.9181270763445237e+00 -2.6107796435694106e+00
    7.5586920268619480e+00 -1.5589685046482129e+00
    1.1210572994954505e+01 -4.1072567519229590e+00
    1.2662404249851525e+01 -4.7423237608418676e+00
    8.2275932952648478e+00 -1.5507393135851115e+00
    1.0626278749134721e+01 -3.8029493835706738e+00
    7.3739799900880802e+00 -1.6102044870670285e+00
    1.5363454889694113e+01 -8.8355373688195893e-01
    8.4829074503827684e+00 -1.9784281592011426e+00
    8.4016943369443080e+00 -2.1301825176982967e+00
    1.3311396597122076e+01 -7.9900174936014368e-01
    7.2058710977090428e+00 -1.8643463197727288e+00
    1.0291747403629060e+01 -3.8470772468466050e+00
    7.3524699292470928e+00 -1.1813471673020155e+00
    8.9890878164367720e+00 -3.1100706326598484e+00
    1.0576876131146250e+01 -3.8231441259854284e+00
    8.1501516965159659e+00 -1.8730851651298752e+00
    9.6622865857522022e+00 -3.3092264999901966e+00
    7.3705199442134761e+00 -1.8340783456531142e+00
    1.5050790674462219e+01 -7.3912490102357520e-01
    7.4009056879644382e+00 -1.7502710985694843e+00
    7.7265655949581626e+00 -1.9767474545730064e+00
    9.3888055314381518e+00 -8.1305128351008915e-01
    7.3633478199788227e+00 -1.7127830026033768e+00</input_scale>
  <output_scale>
    5.2631578947368418e-01 4.9999999999999994e-01 5.2631578947368418e-01
    4.9999999999999994e-01 5.2631578947368418e-01 4.9999999999999994e-01
    5.2631578947368418e-01 4.9999999999999994e-01 5.2631578947368418e-01
    4.9999999999999994e-01 5.2631578947368418e-01 4.9999999999999994e-01
    5.2631578947368418e-01 4.9999999999999994e-01 5.2631578947368418e-01
    4.9999999999999994e-01 5.2631578947368418e-01 4.9999999999999994e-01
    5.2631578947368418e-01 4.9999999999999994e-01 5.2631578947368418e-01
    4.9999999999999994e-01 5.2631578947368418e-01 4.9999999999999994e-01
    5.2631578947368418e-01 4.9999999999999994e-01 5.2631578947368418e-01
    4.9999999999999994e-01 5.2631578947368418e-01 4.9999999999999994e-01
    5.2631578947368418e-01 4.9999999999999994e-01 5.2631578947368418e-01
    4.9999999999999994e-01 5.2631578947368418e-01 4.9999999999999994e-01
    5.2631578947368418e-01 4.9999999999999994e-01 5.2631578947368418e-01
    4.9999999999999994e-01 5.2631578947368418e-01 4.9999999999999994e-01
    5.2631578947368418e-01 4.9999999999999994e-01 5.2631578947368418e-01
    4.9999999999999994e-01 5.2631578947368418e-01 4.9999999999999994e-01
    5.2631578947368418e-01 4.9999999999999994e-01 5.2631578947368418e-01
    4.9999999999999994e-01 5.2631578947368418e-01 4.9999999999999994e-01
    5.2631578947368418e-01 4.9999999999999994e-01 5.2631578947368418e-01
    4.9999999999999994e-01 5.2631578947368418e-01 4.9999999999999994e-01
    5.2631578947368418e-01 4.9999999999999994e-01 5.2631578947368418e-01
    4.9999999999999994e-01 5.2631578947368418e-01 4.9999999999999994e-01
    5.2631578947368418e-01 4.9999999999999994e-01</output_scale>
  <inv_output_scale>
    1.8999999999999999e+00 -9.4999999999999996e-01
    1.8999999999999999e+00 -9.4999999999999996e-01
    1.8999999999999999e+00 -9.4999999999999996e-01
    1.8999999999999999e+00 -9.4999999999999996e-01
    1.8999999999999999e+00 -9.4999999999999996e-01
    1.8999999999999999e+00 -9.4999999999999996e-01
    1.8999999999999999e+00 -9.4999999999999996e-01
    1.8999999999999999e+00 -9.4999999999999996e-01
    1.8999999999999999e+00 -9.4999999999999996e-01
    1.8999999999999999e+00 -9.4999999999999996e-01
    1.8999999999999999e+00 -9.4999999999999996e-01
    1.8999999999999999e+00 -9.4999999999999996e-01
    1.8999999999999999e+00 -9.4999999999999996e-01
    1.8999999999999999e+00 -9.4999999999999996e-01
    1.8999999999999999e+00 -9.4999999999999996e-01
    1.8999999999999999e+00 -9.4999999999999996e-01
    1.8999999999999999e+00 -9.4999999999999996e-01
    1.8999999999999999e+00 -9.4999999999999996e-01
    1.8999999999999999e+00 -9.4999999999999996e-01
    1.8999999999999999e+00 -9.4999999999999996e-01
    1.8999999999999999e+00 -9.4999999999999996e-01
    1.8999999999999999e+00 -9.4999999999999996e-01
    1.8999999999999999e+00 -9.4999999999999996e-01
    1.8999999999999999e+00 -9.4999999999999996e-01
    1.8999999999999999e+00 -9.4999999999999996e-01
    1.8999999999999999e+00 -9.4999999999999996e-01
    1.8999999999999999e+00 -9.4999999999999996e-01
    1.8999999999999999e+00 -9.4999999999999996e-01
    1.8999999999999999e+00 -9.4999999999999996e-01
    1.8999999999999999e+00 -9.4999999999999996e-01
    1.8999999999999999e+00 -9.4999999999999996e-01
    1.8999999999999999e+00 -9.4999999999999996e-01
    1.8999999999999999e+00 -9.4999999999999996e-01
    1.8999999999999999e+00 -9.4999999999999996e-01</inv_output_scale>
  <weights>
    <_>
      3.6929235762781505e+00 6.4713599173544312e-01
      1.0318592889116649e+00 2.2220565845415203e+00
      2.6946268010547247e+00 1.1183701019907118e-01
      9.9945261064163926e-01 -2.8410318681225166e+00
      -1.6505561107071931e+00 -8.6196625146432848e-01
      -2.2232356312364567e+00 -7.3474032605682957e+00
      4.7112219030523752e+00 -3.0871821802479698e+00
      -2.0834971469498282e+00 2.1326667373002106e+00
      5.6272580671923835e+00 1.3599881143405474e+00
      -7.2179262057272361e-02 -4.3175758556839181e+00
      -5.2142879924129448e-01 -1.1550455045733194e+00
      6.9900316774470339e-01 2.8281201531110671e+00
      5.1383794692266802e+00 -9.3942138983656664e-01
      2.3292883139735272e+00 -8.2069005677948539e+00
      7.7206899198690970e-01 -3.6162505362496722e-01
      3.2659007365721662e+00 3.2525162318826420e-02
      4.0820930449067677e-01 -2.3112214542449792e+00
      8.4085210974492863e-01 3.5152883446394534e+00
      -1.4800016408491194e+00 -1.5334462959857129e+00
      -8.5249731264366346e-01 1.6731905681194199e+00
      1.8657401179464514e+00 8.3773927023084358e+00
      2.7044391118963866e+00 -4.4168761521652957e+00
      -9.3709304157120443e-01 1.1776202763391785e+00
      6.8649043921206232e+00 -5.1631513477867959e+00
      3.4895538319280326e+00 -5.5317462254601424e-01
      2.9567281374644554e+00 2.2269908720027209e+00
      7.7186276183382585e-01 -4.6764856491019628e+00
      -1.5493702051714078e+00 -3.4071777912381846e+00
      4.4823274000777156e+00 1.0357953343075030e+00
      1.2555328331923856e+00 8.1017556482430049e+00
      2.4073099084674441e+00 -2.2988533557631081e+00
      -2.7491316807470939e-01 8.2571772930129272e-01
      4.0178125305947215e-01 2.3914831926507847e+00
      -5.3584752915161649e-01 -1.7564762822092721e+00
      -4.7896558590503757e-01 2.1489098271738619e-01
      6.4977745498481640e+00 5.2399384688298101e+00
      2.9758955258909245e+00 -1.4743015977763194e+00
      3.7580866677866114e+00 3.6074127971218410e+00
      2.8861986204101131e-01 -2.4353819514495223e-01
      1.3685676661916928e+00 -1.0557453955763820e+00
      -4.9169962298766717e-01 -1.1446635288242013e+00
      -4.3714067212673363e-01 2.8898786215089567e+00
      -2.0262600990106411e-01 -1.4619895513270333e+00
      -8.4509909195855426e-01 -3.6453605707756054e-01
      -2.5032535901464654e+00 6.9959243049988151e-01
      9.0186363689250412e-02 -2.1099540470579270e+00
      -7.1202813552390554e+00 -2.7736208500088195e+00
      -6.1214465191053191e-01 9.5033149419185892e-01
      -1.3020112234099086e+00 -4.7259400700237419e-01
      -1.5936918375253766e+00 -3.9841668952862630e-01
      4.5729054224395496e+00 -9.9730179748031720e+00
      4.1893760536208697e+00 -5.6192662048633784e+00
      9.3877891097888599e-01 -3.8132444956482447e+00
      2.0425995218264115e+00 3.7203724098314601e+00
      -3.7690855481671219e+00 4.7842972733366311e+00
      -8.7447194677116369e-01 2.5621149855527081e-01
      1.8378339211979775e+00 4.4406524741905891e+00
      -2.8531889069090508e+00 -3.1010889679273590e-01
      -1.1777019605197152e+00 5.2520940454228500e+00
      -8.8403458860016371e-01 4.5657350318634755e+00
      -5.9242553855419811e-01 -2.2187075676189787e+00
      1.2218771827960657e+00 -1.6417435621656267e+00
      2.3343613246875896e+00 -3.5510709090054555e+00
      -2.5732560807956153e+00 1.6685217685547817e+00
      3.0774154523650323e+00 2.5818779888913923e+00
      9.8865785193645095e-01 2.8837327694685948e+00
      5.9967234486331069e+00 -4.2272151863057443e+00
      4.6452539924597316e+00 -1.9736010060885514e+00
      -3.9123133882493111e+00 -3.4869760611936550e-02
      -6.8873378260640621e+00 -3.3228679660674851e+00
      5.9276106869698868e+00 -2.8929494874138522e+00
      -1.1105942988874047e+00 1.2480331185497378e+00
      5.2667394271539525e+00 3.1077858116839669e+00
      -5.5537964254764494e-01 -3.8457368629550550e+00
      -4.5904103564064229e+00 -2.2435173269820115e+00
      6.6625855632490005e-01 4.9461703615250681e+00
      4.1890263758556685e+00 -4.1208126266110581e+00
      -2.2641220610577717e-01 -1.2179992420977698e+01
      9.8146786620237003e-01 -3.3670171956457051e-02
      -3.1997148236102307e-01 4.6760816673790426e+00
      -1.4548282794795129e+00 -1.5850248970636813e-01
      -1.2627542652210415e+00 2.6051071289198577e+00
      -2.8408939099810784e+00 7.3607744288532784e-02
      -7.1221734273067355e-02 -2.0797962844413687e+00
      6.7625438811279537e+00 3.0630600411204711e+00
      6.1035507476109876e+00 -2.2450473979496683e+00
      1.4996587878418346e+00 1.9717445945796856e+00
      6.7557731564781980e+00 -3.3397386918282490e+00
      8.4650427474566641e+00 -6.5166144243400437e-01
      3.5992184988617573e+00 1.8280739033739624e+00
      -1.2667580289301490e+00 -3.3686075475901216e+00
      -4.1924062002027833e+00 -3.2021570845082605e+00
      1.5822140513744514e+00 2.1107157000997674e+00
      2.9080319305478413e+00 1.4524284209908940e+01
      5.2766914982418234e+00 -2.9095173185100931e+00
      -9.3962273703037369e-01 5.8065122875608708e+00
      8.3358704803013650e-01 -6.9806184526260595e-01
      -8.3144616657028977e-02 -4.5700844706370622e+00
      -1.6434480630685901e+00 -1.6502719978863469e+00
      5.7743332437817649e+00 3.1500822670534099e+00
      3.6306162095910999e+00 7.5679765693759815e-01
      4.4072258046735433e+00 5.1168861435697819e+00
      -6.8019484639963645e-01 -6.5470183013841987e-01
      2.2729589691532692e+00 -6.0876373726530220e-01
      2.4933570866827517e-01 4.1653887098400622e-01
      -3.7878424357810427e+00 3.4603926732073154e+00
      -8.5006432573618396e-01 -3.5842041718367419e+00
      1.2464283527454232e+00 -1.1445243601186637e+00
      -3.9014599000989514e+00 -8.0050641442302184e-01
      7.0679332173716181e-01 -2.0313092391004153e+00
      -1.1601028456786620e+01 -5.1685389823587640e+00
      3.9508273212613004e-01 -3.3068866404256276e+00
      -8.5226881387997733e-01 -4.7400194659418010e-01
      -7.8498043176992969e+00 -5.0839052622378345e-01
      2.3879972813225301e+00 -7.5330756671113983e+00
      2.3876779648533306e+00 -7.4394468719660818e+00
      6.3467057668194213e+00 -2.2632622537778104e+00
      -9.0209822209236468e-01 9.1707960740569161e-01
      -6.9462092319364031e+00 6.9022843378858922e-01
      1.9272280055187396e+00 2.6479779899207014e+00
      7.0982145910980554e-01 8.8496612618370341e-01
      1.8131548995813567e+00 -1.1783337939824493e-01
      -1.8422004118216837e+00 6.5782110482519984e+00
      -2.2505471951439301e-01 4.3733087708837592e+00
      1.2905211471401385e+00 -1.2572843181899009e+00
      -5.3330145687035568e-01 -5.6347974803099754e-01
      4.5596293304639506e+00 -1.0960552958551433e+00
      -3.5979114140359356e+00 3.4461895373728360e+00
      -9.4703817810973732e+00 -3.3648375960740684e+00
      1.1518731803340954e+00 -5.4864969705535431e+00
      -1.7251539430166414e+01 8.2143107238114776e+00
      -9.9442364609324034e+00 3.2129666458378110e+00
      1.0190008055116238e+01 4.0071005130396403e-01
      6.6445027186846168e+00 9.9259573858900119e+00
      -9.5576458081997284e+00 1.1217104033699053e+01
      -4.2399520550338504e-01 -7.2549993411529963e+00
      -1.3487931090437485e+01 -3.1238776465703553e+00
      -6.2491956714759345e-01 7.2442753236712836e+00
      1.0519670106198852e+01 4.6992172374238814e+00
      -5.4517591350130195e+00 -9.6370452746363799e+00
      -8.7793415658069272e+00 9.5899609099311327e+00
      -3.3121818746949447e+00 2.3540659917338107e+01
      -1.4158611004369831e-01 -4.4646403471240864e-01
      -1.5183930335905271e+00 -8.5794584381962160e+00
      9.4869852324103565e+00 7.2660927987877810e-01
      7.4896055632020553e-01 -6.6090848039676615e+00
      5.7716123186414290e+00 -6.2044173995821195e-01
      -1.1574922452796992e-02 -1.9675489160684942e+00
      -1.4101428146401894e+01 -1.0735506941049305e+01
      -1.1441664471670656e+01 1.0787775912156587e+01
      2.2914084025327099e+00 -1.1697594145242225e+00
      -1.8846358664440771e+01 1.1542396438060230e+01
      -1.3077489323120432e+01 5.4771919036639904e-01
      -6.6880304244724842e+00 -5.5219828426748840e+00
      4.8701293867783146e-01 1.0033865409809264e+01
      1.0049471605223694e+01 6.1290292699256099e+00
      -8.5670280913327712e+00 -8.1521627340603935e+00
      -6.8671617627854138e+00 -3.2794901224921155e+01
      -8.9533172114611101e+00 2.1796326867790847e-01
      -2.0477245027547570e+00 -6.6709291661868839e+00
      6.2058626646395654e-01 -7.9804401382951129e-01
      9.0047362670010767e-01 8.5132537265853063e+00
      8.2556428282157022e+00 -1.9417054190595031e+00
      -1.4328073431872296e+01 -1.2464499136423386e+01
      -1.5741001633098580e+01 -2.1289875462211350e+00
      -1.5018406050083843e+01 -8.0473905100521925e+00
      1.7226771622107135e+00 -1.4783941407571337e+00
      -1.5766323470074637e+00 6.0223942945166709e-01
      5.5243863744655852e-01 -2.3994014328455129e+00
      5.1942339002980686e+00 -1.1715714173531458e+01
      3.0439146254619398e-01 4.3664118013165387e+00
      -4.0719998631299109e-01 -5.5307872503844557e-01
      1.0003080314730603e+01 -1.1327875005961512e+00
      1.9463860002003954e+00 7.3415204496679101e+00
      2.5887779815295648e+01 6.5354983741275170e+00
      1.9938876377412789e+00 4.2901305240126160e+00
      2.3332301861747440e+00 -1.0012770600852869e+00
      1.8008312559100027e+01 1.8975732383044670e+00
      -8.5720022141081476e+00 1.6399799505020006e+01
      -7.2673852820181848e+00 1.2406936208945559e+01
      -1.1426633462587597e+01 7.1911714791791139e+00
      1.5091608578338660e+00 -4.7869294293623952e+00
      1.2273990616856720e+01 -7.3856852909322219e+00
      9.6850365076073930e-01 -7.3311701343080680e+00
      -8.1740894724546695e+00 -1.4012410282767223e+00
      1.3396279056241245e+00 4.1267277201740713e+00
      6.0436269154198188e+00 -2.2809770811126935e+01
      1.8087355188009686e+00 -1.2072084650429348e+01
      6.9162415306295810e-01 5.1650879213097847e+00
      5.3376444720891969e-01 -1.4099436451603882e+00
      -1.0977700338900009e+01 1.0586138754726566e+00
      1.1622660808439761e+01 -3.1967281868556503e+00
      2.9828738697924191e+00 -6.8969277527343986e-01
      -2.4421190687622465e-01 5.2837534765750083e-01
      2.2879548086597201e+00 1.5634950011319233e+00
      -1.7417831320107161e-01 -2.9504556399397317e+00
      4.9941345758015598e-01 -2.4548884761280468e-01
      -1.2475340036261096e+00 -2.3932036577352691e+00
      3.0875237165913494e+00 -2.2145543484898700e+00
      1.1449876441934117e+00 1.6459923730237718e+00
      8.7310491883546604e-01 -3.5341659379454976e-01
      3.5911239570632886e-01 -1.8706159251719998e+00
      -1.6020514156287213e+00 -3.4307812509849989e-01
      6.9517931938815192e-01 5.4444831371437047e-02
      2.3460254616154166e+00 -6.7933670251880962e-01
      2.8409275627914035e+00 -5.0848165553674898e+00
      -5.6459000756049382e-01 -7.7255008416805535e-02
      1.9613121205869548e+00 8.6361642359357282e-01
      -6.2545380817922780e-01 -5.7968855951220255e-01
      5.3298134339311687e-01 1.8493735289760627e+00
      -4.3914772197012009e-02 -4.9615591544656730e-02
      -7.1289644034314914e-01 2.2396799223498145e+00
      -1.6284605847165043e+00 5.2374670382775879e+00
      2.1232062493763117e+00 -2.0310231163681891e+00
      1.8582417733706189e+00 -4.2545149375380081e-01
      4.8026082265417633e+00 -3.7540781159125873e+00
      1.0814868998734748e+00 -1.9735306328575375e-01
      3.5219663558504394e-01 2.9413933141185622e-01
      1.7949875382818536e+00 -1.9318238995502541e+00
      -6.1439487973662654e-01 -2.4679700514220162e+00
      1.5121823304555613e+00 2.6512718503442934e-01
      1.9040936061162796e+00 2.7482591654970272e+00
      2.7938422129968926e-01 1.3384665041928077e+00
      5.6080155961873901e-01 -1.7181644564637908e+00
      5.3346948870554245e-01 4.7991332395649322e-01
      -9.1567303549681556e-01 2.3382163072235462e-01
      -9.7552782223937839e-01 -8.5119501695956112e-01
      2.5819952501838923e+00 1.4347279628672418e+00
      3.0288562720475123e+00 -3.3258423954445715e-01
      2.3589150508938608e+00 6.5909106296279540e-01
      -1.0051501363076862e+00 -4.3130229051597813e-01
      9.8145965309537384e-02 -8.2197647956882913e-01
      4.5446717825400362e-01 5.5585164825578148e-01
      7.1748394636341162e-01 1.7284663417968420e+00
      1.5419082328639286e-01 -8.0517511456227819e-01
      -2.5839351289568174e-01 2.9725783202900202e-01
      -1.4584692388457219e+00 -1.6142448104082502e-01
      2.5475756831615298e-01 3.9722892110303593e-01
      -4.2605008360480010e+00 3.3846381768332723e-01
      -6.8281313826819223e-01 7.6446610968470358e-02
      1.9827434325211696e-01 3.4011247525751309e-01
      -1.8193092099628796e-01 3.7495912016857447e-01
      3.0820345046496161e-01 -4.6391697574525175e+00
      3.3563455616475180e+00 -2.1093615542581858e+00
      7.0402209436992502e-01 -1.8469681387311321e+00
      3.2393884501098974e-01 1.9467762500672003e+00
      -1.4832078931373165e+00 2.2497717862423317e+00
      -1.4746566362479094e+00 5.2381737912420190e-01
      1.4985078382463415e+00 1.1599551302061355e+00
      -1.0094152750941610e+00 1.2511628934471062e+00
      -1.3847431799025023e+00 4.2219904713565244e+00
      -9.7229057248267714e-01 5.3496355680907104e-01
      -6.2433898984668346e-01 -8.8979117153670850e-01
      -2.6814643536269162e-01 8.7629974716677672e-01
      1.4439232909935871e+00 -1.5989146927959448e+00
      -1.8925131932634038e+00 -2.3840962392206461e-01
      -9.3281816018698661e-03 -1.3209236066301309e+00
      -3.9027096145007434e-01 1.8360238970700142e+00
      3.2875387485832595e+00 -3.7242391505878042e-01
      3.3205249912452448e+00 4.3339764480426923e-01
      8.8407831980587007e-02 2.2652149259940763e-01
      -1.5731589351696642e+00 7.5967425805737177e-01
      1.0317331367837927e+00 -1.5271573955042894e+00
      6.7489483341938816e-01 -4.3888901971010430e-01
      -3.6177977348768786e-01 1.2690853832478499e+00
      -5.2368572529319268e-01 7.6318608586865466e-01
      -2.7704139366914888e+00 -1.6964900108364596e+00
      7.9632738048613083e-01 9.2751499793745928e-01
      8.9351832110561225e-01 5.4221920990999428e-01
      -3.0471567148653217e-01 -3.5736504163899512e+00
      -4.4304357762133834e-01 -4.6852020347571516e-01
      1.5899582672366994e-01 2.3866205933934695e-01
      1.7673270678376909e+00 1.0353334893818609e+00
      7.1987499844714670e-02 -6.3514098311460965e-01
      6.5640304191425214e-01 -6.2152021468528207e-01
      1.4335660919443138e-02 5.1198031177773204e-02
      2.6749933591187021e+00 -1.1412685248023466e+00
      -1.5363083695461719e+00 -7.2455985380120025e-01
      9.8214928415687430e-01 -1.0942644809762622e-01
      -1.6655622152222944e+00 3.7632630815052431e-01
      3.7935825680228041e-01 -5.8991882629210712e-01
      -5.3665769208522418e-01 -7.8387262908412836e-01
      -1.3389298910805465e+00 -2.6626284594040652e+00
      -1.4529491786443283e+00 2.5380388054679720e-01
      -3.0546751767547003e-01 -2.0987289802860426e-01
      -2.7499855097381781e-01 1.2544453359265908e+00
      -1.5900485040597905e+00 -6.0679318664282589e-01
      5.4901019584968613e-01 -7.2739802011722154e-01
      -3.7432503583728460e-01 -2.1824057793618987e-01
      8.3279431216546085e-01 -4.9290067096815451e-02
      -8.8515040100744014e-01 -6.6732683252864622e-01
      -1.8139799038914148e-01 -1.6759499981751833e-01
      1.9140993409796750e-01 1.0654180379247891e+00
      -3.3068226263586548e-01 -3.8680645630899468e-01
      -3.9089613033445481e-01 4.7081736411972575e-01
      -1.0546938708480786e+00 -6.0318082814249085e-01
      6.8805917960264995e-01 1.0732331766471825e+00
      -7.2709392501117920e-01 -1.8662519137605140e+00
      1.3157565471699875e+00 5.1642200392645388e-01
      -1.0650095438129280e-01 2.8892772711739140e-01
      1.2382578943909947e-01 5.6390434340848539e-01
      4.9581026085363689e-01 6.7782229574094674e-02
      -1.3987356893908336e+00 8.4286882562701795e-02
      -2.7913404042787265e-01 -2.0533974083638946e+00
      -3.4647208011248820e-01 4.9242042030788152e-01
      -1.9195290987020257e+00 1.0832195642086733e+00
      -8.1894013912616570e-01 -1.5972103908067563e+00
      1.2838964652703098e+00 8.4363283565155078e-01
      1.4424415827255961e+00 6.5063298499766098e-01
      -8.1604637033907734e-01 3.1347830588884529e-01
      -1.7110786995537517e+00 -4.2211442855988457e-01
      9.6780647035123502e-01 4.0490676929052632e-01
      2.2522989341529733e+00 -9.1204612820395381e-01
      -2.6491126430112537e+00 -2.2018848667506466e-01
      3.8949125022533715e-01 1.3792629263425571e+00
      8.7358691591213578e-01 8.4758431300289816e-01
      -6.7284063860240761e-01 -8.3255843597076640e-01
      3.3225952167151196e-01 -7.8198319491521007e-01
      8.3042162811895581e-01 -7.2741098486094197e-02
      -8.6973425449382014e-01 2.1809156984470350e+00
      2.4545167675033621e+00 4.2638557927622017e-01
      3.4316954021006235e-01 7.7319289095163501e-01
      3.1252816809499464e+00 9.5526917625074159e-01
      4.0317975090147046e-01 -3.1855083190414182e+00
      -2.0231176903461159e+00 -1.5773557787919303e+00
      -3.6352682788311635e-01 -6.8288111110840548e+00
      3.7022478227028648e+00 -4.3066002129842964e+00
      8.3641292872680351e-02 2.6170739593169761e+00
      4.3932268692283474e+00 1.3373555356528941e+00
      1.0274289611837795e-01 -4.0858422773166367e+00
      -3.6849634323211905e-01 -1.0025971376385199e+00
      1.0656791149173961e+00 1.2350661804877003e+00
      4.1099894176291194e+00 -1.5236841657851514e+00
      2.8570810299985649e+00 -8.4991014402897473e+00
      -1.0579858529618855e+00 -6.1123713341877739e-01
      3.2059793550849300e+00 1.6356347316739059e+00
      1.1962282626807024e+00 -2.8936839711559985e+00
      9.8881690588332294e-01 3.0915595690148545e+00
      -7.7325256279560839e-01 -1.2357890774554596e+00
      -1.1639770079913359e+00 4.8575449496240273e+00
      4.6798626577788233e-01 7.0743268199315281e+00
      3.3241289624104664e+00 -4.0680873941637259e+00
      1.0943070931541612e+00 -1.9603932032984202e+00
      7.6913918508847212e+00 -4.9813289447451599e+00
      3.9131556824211966e+00 -5.1376329283729638e-01
      2.6573661255154559e+00 1.8362614015427150e+00
      1.0763519948792817e+00 -5.6734014613388242e+00
      -1.1632296019131609e+00 -3.4412958330562153e+00
      3.7143722696351138e+00 8.9710106331761197e-01
      9.9619412505733729e-01 8.0452001351629008e+00
      2.1915290120194779e+00 -6.4470863245273402e-01
      4.7287614199031236e-01 -1.8118789581229851e+00
      1.4739910487075217e-01 1.5669618039192981e+00
      -5.9642478870777538e-01 -9.4692948822176037e-01
      -3.7688412901477952e-01 2.4249018902805913e-01
      6.5116720433212478e+00 4.8043536962864106e+00
      3.2188792416779517e+00 -2.4629204219284491e+00
      5.7870982738236263e+00 1.7626750391401809e+00
      -6.2063767776429990e-01 -9.7408957727286236e-04
      -1.3642410274952899e+00 -1.4495824726771775e+00
      2.0973303883719485e-01 -8.3414302540721597e-01
      2.0971071090374940e-01 4.5168376972801161e+00
      -2.2124681868588345e-01 -6.8137363413486574e-01
      -2.2285843854227808e-01 -3.8292858609850622e-01
      -1.6119256165714566e+00 6.0701313087005715e-01
      -3.7812945526623176e-01 -9.0923245332916147e-01
      -7.5362872830673506e+00 -2.4317192303807382e+00
      -7.4221565798573497e-01 -6.4252836775973232e-01
      -2.1826587827803987e+00 2.5941400314210543e-02
      -1.1728121457882674e+00 5.3477347801998110e-01
      2.7646935152828807e+00 -9.2058280792694998e+00
      6.1204053156506699e+00 -3.0480078549543261e+00
      -1.0867699197102578e+00 -3.9770087928639049e+00
      3.9639846649739097e+00 3.5721904574404131e+00
      -9.3988791615827272e-01 5.0386310765876781e+00
      -1.2394580560238158e+00 3.5480745834862365e-01
      2.2764320485673397e+00 3.7703331889004255e+00
      -1.7184848889980227e+00 1.7717601304828759e-01
      -1.6076423354374454e+00 5.6293288350502628e+00
      -9.8595893291747883e-01 3.7343863965145050e+00
      -4.5204674847433644e-02 -2.6351969564892412e+00
      1.1115963415481134e+00 3.8512121100952390e-01
      1.8065096552225586e+00 -3.1797087424771404e+00
      -2.8488383944743214e+00 2.4769737078745946e-01
      3.0890991292441456e+00 4.2688786616249375e-01
      -2.3571222734058966e-02 1.0216727662596600e-01
      3.7202167984544303e+00 -2.7123933436848748e-02
      2.4812660648462259e+00 -1.4522043788998471e+00
      -2.6672604443147629e+00 -1.1423874368022271e+00
      6.6834052758533213e-01 -5.6366072439022263e-01
      8.9813043267344939e-01 -8.7369868199301726e-01
      -1.6865987065271737e-01 9.3716542510328782e-01
      6.1409843573286504e-01 -9.9033410961840221e-02
      5.1800589995724167e-01 1.5869698144966965e-01
      -2.0457473611326908e+00 -9.7377553157238916e-01
      2.7004330439897286e+00 3.7491521441499986e-01
      1.0543810056909640e-01 -1.2029120408798428e+00
      4.5454886091646268e-01 -3.3556525951858438e+00
      -6.4049406295781186e-01 -7.7416443097444854e-01
      -4.3557784114590208e-02 1.6784423469334925e-01
      -8.9836041906321762e-01 -7.4508959448605827e-01
      1.4900549758882281e-01 1.6332410451230988e+00
      4.3132268305574428e-01 -6.2218494135275715e-01
      4.2778346694826797e-01 6.5697952862996301e-01
      2.7246915539827499e-01 1.0746873311716558e+00
      4.3908457742971979e-01 -9.0888968106546064e-01
      -1.1108972079017334e+00 5.1542219624988284e-01
      2.4104020627568192e+00 -1.9843218328918071e+00
      6.4953357168519710e-01 -1.2311838123576582e+00
      -2.8761868181008438e-01 7.2005966164535384e-01
      -3.1710999459031736e-01 -1.8759850458379990e+00
      -1.1152897231465688e+00 -1.5180124353496434e+00
      1.1799405609845988e+00 2.1091397687549014e+00
      6.0259741062635652e-01 5.1959992579341669e+00
      -7.7454995929972154e-02 1.5113017778299129e+00
      1.2618460161650780e+00 -6.9399930722513692e-01
      -7.1263324009786488e-01 5.3085959779556735e-01
      1.9241198628439200e+00 9.9275669500545849e-01
      -1.4496903080691810e+00 6.6587864268909558e-01
      2.4419192352582959e+00 1.7262117880974990e+00
      1.2977608539018115e+00 -6.3878970474136831e-01
      2.2772249030024536e+00 6.2242200178864182e-01
      -2.3503075195114270e-01 1.7290339341703562e+00
      -1.2646759893818813e+00 -1.5123835345095453e+00
      5.0055291295826099e-01 4.9781002235922239e-01
      1.6098772415733781e-01 2.8423199740188312e+00
      2.2021549887532532e+00 -5.8666947109880452e-01
      -8.2626143554863141e-01 5.7706128384178423e-01
      3.9257806819533830e-01 7.0018168618073162e-01
      -7.2541629498628291e-01 -1.3634336421284412e+00
      -2.4926835019562734e+00 3.4069012662148462e-01
      -5.9482105803133001e-01 -6.4831940726226403e-02
      -1.0101295874895293e+00 6.5987169204906015e-01
      -2.6729149058707997e+00 -1.5170850878923503e-01
      1.7701840904005468e+00 2.4036382287745526e+00
      1.6613517628208700e+00 -5.9731271509321360e-01
      1.3496200282835136e+00 -5.9282824980332693e-01
      1.4742960077013305e+00 1.1260271988839523e+00
      -4.0974597693807163e-01 1.3572764408733149e+00
      -5.5733829623949616e-01 1.6533957563128419e+00
      3.4244742446515222e+00 -8.6745845358136703e-02
      -1.5749421198743156e+00 -4.9529203185011417e-02
      -1.9403633760706636e+00 1.2290542991494833e+00
      -8.1147503928484621e-01 2.1303275769192380e+00
      -7.4132024958716825e-01 -1.0289440044207416e+00
      2.1485589917950469e+00 -1.4789877217600023e+00
      1.1925770528755404e+00 2.3864264323198017e-02
      -1.9773555077772433e+00 3.4897496185832716e-01
      1.5549027041768535e+00 6.5019016574232880e-01
      3.1564107618201415e-01 1.3748710612743755e+00
      1.3129152127719124e+00 -3.5733796292326203e-01
      1.7655018506146432e+00 -1.2072753169479293e+00
      -2.4989590140560178e+00 -1.9281332007869847e+00
      -2.3508672493902236e+00 -3.6117504098509126e+00
      2.9423244204806078e+00 -1.9712703443169688e-01
      -2.4016121075555339e+00 1.9997954658225285e+00
      2.6361375323828402e+00 -8.0938069626837351e-03
      5.9333397155027934e-01 -8.7224478384284920e-01
      1.7978041121616093e+00 -1.1602341929784492e+00
      5.8887509750319622e-01 2.0841933055974216e+00
      5.6774531010921425e+00 -4.4376239688462986e+00
      -4.6066676051210442e-01 -8.4668816878637596e+00
      -1.0618111378832701e-01 -4.7023761544023274e-01
      -7.6691266627732912e-01 5.7706697029419569e+00
      -1.5285419511623868e+00 -1.9868577069910311e+00
      1.9181428749252636e+00 1.3179309339521716e+00
      -7.2850210761386769e-01 8.6821850763340469e-01
      9.5756753054695531e-01 -2.6192978152459649e+00
      1.0787265605810816e+00 5.1440639075148376e+00
      5.0475375581235085e+00 -2.4118050093437264e+00
      -1.8978067615541452e-01 2.0444880128255627e-02
      3.8780527396814968e+00 3.3698948975229537e-01
      7.2487825147733043e+00 -6.3710046678318732e-01
      2.9830407098652487e+00 1.6357918961928422e+00
      -1.7444785989311121e-01 -3.3882174779228427e+00
      -3.6105261821178085e+00 -1.0251850745340958e+00
      1.0615908139408904e-01 3.3064915741674605e+00
      2.4871941182876576e+00 1.0086196891610800e+01
      4.4402531401388003e+00 -5.4494063482219834e+00
      -9.9074745505468609e-01 6.3507199288142866e+00
      -9.4966928595429989e-01 1.1180831579001589e+00
      -7.5919877360714594e-01 -1.9809453171887434e+00
      3.0982099209291597e-01 1.3409998993622112e+00
      2.6546578881776313e+00 3.4841680490780118e+00
      2.2682014067875795e+00 3.6815344477488410e-02
      1.4065495291968726e+00 4.3359168914574999e+00
      7.4319526397445124e-01 -2.2095123889556958e+00
      1.2532022252579853e-02 -6.3844879212543060e-01
      1.0072371553212647e+00 4.9939087982049868e-01
      -3.9596858445909811e-01 5.5482316784773378e+00
      -1.5607903092460116e+00 -4.7172749537207048e+00
      -7.4554345771183339e-01 -3.6739359847721687e-01
      -4.3163370242192292e+00 5.7533521066377336e-01
      8.5598977699473822e-01 -2.8061481184025010e+00
      -8.0101651030858534e+00 -3.3708443821245311e+00
      1.1774446434047550e+00 -1.9770996060067783e-02
      -2.4380280301770014e+00 5.2403716289819358e-01
      -1.0675331561074279e+00 -2.1962361240673953e+00
      3.3545556657121534e+00 -3.9605400885311322e+00
      2.3912871717019359e+00 -5.1394334816083340e+00
      3.9300878968229971e+00 -2.4356247834745881e+00
      -8.4413916774303960e-02 4.9629913830974787e-02
      -3.5821775286143054e+00 -3.2642718819277100e-01
      4.3916255944804578e-01 2.0530418585001193e+00
      2.0450478382083128e+00 7.4564619931415710e-01
      -2.8824751243434878e+00 -3.2604908928972263e+00
      -1.6111554291578587e+00 4.6759715938794582e+00
      -3.1680535252557845e-02 6.3165351668374878e+00
      7.0944836125403432e-01 -4.1859222453872691e-01
      -7.5965962759109418e-01 -1.3604019163057472e+00
      2.5559086719081545e+00 -1.9271531145317233e+00
      -3.9396167072333799e+00 2.2502755726062031e+00
      -1.6394150471827114e+00 -1.7137262940595346e+00
      1.5454808493397556e+00 1.0040746146835003e-04
      1.0834251689252967e+00 -1.6734258934698157e-01
      -1.4774653301062604e-01 5.7845321391086696e-02
      -2.2482057726340288e+00 7.1656686510525913e-01
      2.8401052638830668e+00 -8.6675292059012241e-02
      9.1040965529289530e-01 2.2125954033084900e+00
      -3.2293035027277611e-01 1.8496212128692013e-01
      1.1218521002081416e+00 1.4832537319440249e+00
      -4.8941759570745891e-01 3.8663929242669717e-02
      1.6588689889648776e+00 4.8692626627311303e-01
      -6.8528115491438579e-01 3.5728039507914133e-01
      -1.4126063816619499e+00 2.1223967892908107e+00
      -5.2161672641058598e-01 -3.6325356201946346e-01
      -1.0277932313488964e+00 -3.7783092039152527e-01
      5.6101523073299422e-02 4.2582029183053545e-02
      -2.5411728577863463e-01 -1.1161768165056620e+00
      1.5568662506738398e+00 -8.1004159382058216e-01
      -9.7372540577713029e-01 -2.4735710111545289e-01
      -2.5892210034524027e-01 1.5768992642257154e+00
      3.0120667068694640e-01 -2.2154129703020078e+00
      -2.6729164604079445e+00 -1.3423429191025349e+00
      -3.8767298222962228e+00 -3.0623732082234695e-01
      1.1715102135770183e+00 4.8037686386956285e-01
      -1.7376294575270681e+00 -6.9114339797953994e-01
      9.1234035844133488e-01 -9.8867231388891130e-01
      -5.2233187487778943e-01 -3.3199368063873985e-01
      2.5346899119703492e-01 3.2162273830709504e-01
      -3.2878339821842273e-01 4.2261452304413988e-01
      -7.6079986029172741e-01 2.8929141266624279e+00
      -1.1081154651295717e+00 -5.8128437850983206e-01
      2.5546271982821445e-01 -2.2079223899854248e+00
      -8.4446823082153277e-01 6.6952071657753409e-01
      -8.1105837032845218e-01 1.8114413970905912e+00
      -4.3651608412962223e-01 1.9726293397289334e+00
      -1.8144449112847635e-01 7.3395891817179948e-01
      -1.4280624789116307e+00 -5.2591012717935426e-01
      6.0482788568379142e-01 9.4487521777144090e-02
      1.8415075596581234e+00 1.3470725156198984e+00
      -1.4481314645385281e+00 6.9265696100935958e-01
      -2.2757398838692536e-01 -5.1114050519664256e-01
      7.8446723942583763e-01 1.4108486167656634e-01
      1.1267892580178909e+00 9.1026387060991421e-01
      -4.4831725744290868e-01 -6.1481221814826992e-01
      -2.3613272665208487e-01 1.5764442220872807e+00
      2.3521238319692986e-01 -8.1890696501725646e-01
      2.2710480191251530e+00 7.2996206189392332e-01
      2.2656638046917421e-01 -1.0460911265831609e+00
      2.0011193172906719e-01 -4.9069686855512107e-01
      -2.0439548665815810e+00 -1.0683078342273891e-01
      1.9627935559574325e+00 2.9091342890326977e-01
      -9.0354407942603776e-01 2.5558089787144653e+00
      -1.1195866578172997e+00 -1.4433433773881754e+00
      7.9610483339048377e-01 -1.4630123836540991e+00
      1.7511345287614608e+00 -3.3978414196657936e-01
      -2.3795284311589715e-01 1.8760927942807790e+00
      -6.5586527778064407e-01 -1.1245755128605872e+00
      -1.8328492143932886e+00 -8.5321385670057392e-01
      4.4795589038395911e-01 4.6035811932013176e-01
      -6.0522475352373384e-01 -2.7691620611440093e-01
      2.9821395026670205e-01 -6.3211537008323576e-02
      7.7648013811062644e-01 -1.1838175219132387e+00
      -7.2990682066588741e-01 -7.8377065688816705e-01
      1.5552241032982661e-01 1.2358116253718394e+00
      1.4913822306502955e+00 7.3261845286459382e-01
      -1.0776589319690670e+00 -9.4328357585781242e-01
      3.6138074279226315e+00 -2.2420819689992967e-02
      1.2082305898017398e+00 -1.7447139625501598e+00
      -2.3499649772902744e+00 -1.2965471975941505e+00
      5.4894965903091231e-01 -3.9890240831401852e-01
      1.3015257070813429e+00 -1.5157321082770359e+00
      8.8030631776095869e-01 1.6620681684463945e+00
      8.2440363561182339e-01 -5.9274576762999120e-01
      5.2165305581595911e-01 -4.6214446567163692e-01
      -1.3823295984144619e+00 -8.2631221752870507e-02
      6.1883381551202876e-01 -1.6399192630226764e-01
      8.0395997578264089e-01 -1.3886921441152245e+00
      6.6289941654970352e-01 -4.4340367506911820e+00
      -1.1372467617274129e+00 -9.9898022209153148e-01
      1.5775300203686976e-01 1.9121111709861502e+00
      -1.6703789423645752e+00 -1.2471565228507377e+00
      2.1907211600499374e-01 1.3283944890983947e+00
      6.7211346524834226e-01 1.6591713498652158e-01
      -3.2794174408589005e-01 1.0519747264555639e+00
      -3.1631467389827822e-01 -5.8713573667148376e-02
      5.5052903643951379e-01 -1.1385630747476083e+00
      -1.6677863276513838e+00 -5.7860687875005745e-01
      2.6470791574832773e+00 -2.1868221908555086e+00
      1.0452776214631938e+00 -8.1699636404596432e-01
      1.6944939511577314e-01 2.7687150124707094e-01
      3.1185384845369440e-01 -2.2906918132639533e+00
      -1.8430222794541642e+00 -1.9498893309255221e+00
      5.4536849966444301e-01 1.2847626143655648e+00
      8.1399259117859146e-01 4.8343837574508006e+00
      3.6901067620356715e-01 -8.2624057008340884e-02
      1.3319766511662623e+00 -2.2378847356615950e+00
      -1.7716391740407730e-01 3.1828366241580269e-01
      6.2779382977106946e-01 8.9468942203838187e-01
      -1.5052818906365639e+00 1.2085032805186200e+00
      1.9968865561140172e+00 1.1973001197931472e+00
      8.2285835834077592e-01 -1.2421887257680582e+00
      2.4125004604131610e+00 3.8596924276650091e-01
      -3.5196825072831039e-01 9.8259408108090884e-01
      -1.4248144284191693e+00 -1.3921939781222621e+00
      2.6275175650642063e-01 8.7659071258553312e-01
      6.4543872454362528e-01 3.0782899569014606e+00
      1.0541931173680526e-01 7.0238194243794860e-01
      1.0255040661761992e+00 1.7239566708758305e-01
      -3.7815598950711293e-02 5.9518733871908336e-01
      -1.1930723086099155e+00 -1.2617025076990276e+00
      -3.0414707776837151e+00 -7.0787721912326546e-02
      -1.1427344154329915e+00 2.3926404631613349e-01
      -1.2459978067352822e+00 2.3808147524581064e-01
      -2.3523981199150756e+00 -2.2325092628009252e-01
      1.0530305451027671e+00 9.0832246252665938e-01
      1.9984082863167787e+00 -8.2483326840522131e-01
      4.3552984695708064e-01 -1.4984288252044551e+00
      -9.0383929407486518e-02 1.5445052560217198e+00
      6.3397605232995580e-01 1.4972655762671555e-01
      -1.0221950419476393e+00 9.5099207652917928e-01
      1.9570790331367136e+00 1.7304288364360942e-01
      -1.2641662694756683e+00 -4.0647767486465819e-01
      -1.7779026494420418e+00 2.6011062999255623e+00
      -5.5721201728294301e-01 1.5067211187907583e+00
      -2.3838615843301422e-01 -5.0658408794130305e-01
      5.2282542955164130e-02 -1.6485010762165814e-01
      1.2232001328845112e+00 6.1201371945138035e-02
      -2.2115782553338788e+00 2.0283414871272074e-01
      1.1608684416022595e-01 9.5196129867196033e-01
      -7.4110815888446424e-01 1.4589649937513856e+00
      4.3479720603278871e+00 -1.3341930474985857e+00
      3.4123259164886055e+00 1.1408869497575513e+00
      1.0991363911858887e+00 4.6419908894719153e-01
      -4.8266853971320889e-01 1.5148106484325672e+00
      -2.4711995372992606e+00 -4.5309584915520834e-01
      -1.2291096667115184e-03 5.6516141474691584e-01
      2.7847394504565337e-01 -1.7615988415442346e-01
      -4.5667972869342599e-01 9.8163748319544608e-01
      -3.1680504590626196e-01 1.4731967520704543e+00
      1.3982042269540040e+00 6.0604038818691475e-01
      -2.4138148759753761e-01 -2.8361372774668507e+00
      -2.2640605435313677e+00 9.0770399347768882e-01
      6.0721703595087850e-01 -6.4697384526091750e-01
      -2.3767450377406769e+00 -1.6806367699243823e+00
      8.5095891607719840e-02 2.0427275940019878e+00
      7.5226696915264846e-01 -1.0491834592147320e+00
      -2.0523046827030149e+00 7.3025578028605354e-01
      1.6448676716047212e+00 -1.0542702227798424e+00
      3.7333686176442140e+00 -2.2693428032946596e+00
      -3.0054962489543741e-01 1.9566582643358915e-01
      -5.0376432832912543e-01 2.5981823350732808e-01
      5.1793410955124852e-01 9.5737316288263752e-01
      9.7368217988806138e-01 1.9109543457049860e+00
      -1.1738910238543639e-01 1.2023577845329633e-01
      -2.2250260937395980e+00 1.4098363259489914e+00
      -1.9880093540563024e+00 1.5228791215795099e+00
      -1.8189386659580644e+00 1.0500511386515541e+00
      6.2712664907007865e-01 -3.3836424977920281e+00
      2.0469119618906761e-01 3.4764190154683910e-01
      -3.0596858371362601e-02 2.4564555568153961e+00
      9.0031679234189732e-01 -9.9445093210841407e-01
      1.6675382604798306e+00 -1.9386938836889933e+00
      -8.1801577485842561e-02 4.5656809398601705e-01
      -1.3344612452696931e+00 -4.2374534931551838e-01
      7.5907027600691324e-01 1.5803057102855389e+00
      5.7440116836937427e-01 8.1592992507311257e-01
      7.6360067971900414e-01 7.7627919763841136e-01
      2.2800520785585934e+00 1.9928099255131981e+00
      6.7783724573326831e-01 8.7396784956793719e-02
      -2.5676049895167363e+00 -7.3791997345651017e-01
      2.0031669373315273e+00 2.8061162946265567e-01
      -3.0828475633758756e-01 6.5616942703076531e-01
      -1.0808373975114562e+00 -9.0386513968799564e-01
      -9.4476640839412473e-01 -5.9905833808490361e-01
      2.5046762663792244e+00 -7.5098101584752897e-01
      5.3035057728977475e-01 2.1452414325036959e+00
      1.2308826592124597e-01 2.3658385978882357e-01
      -2.9370352978526539e+00 3.9590825978736310e-01
      -1.0263961538183256e-01 -4.4423854356917335e-02
      -8.9306496998224827e-01 1.3051306857066094e+00
      3.3709488120579174e-02 1.2772934873406869e+00
      -2.4430335132210823e-02 -2.2597823078747398e-01
      -1.1923364744176301e+00 -3.3193735881782289e+00
      3.8457776405623884e-01 -1.1690491651041692e+00
      1.2040586635120467e+00 -1.6277760983103449e+00
      -3.6364005026977848e+00 -1.1434884950872872e+00
      1.2589030052746284e+00 5.3445506488229655e-01
      1.1722375918440240e+00 2.0622597765890931e+00
      4.9850848964360828e-01 7.1434454460615393e-01
      -2.4522514398716441e-02 8.8631937479993550e-01
      8.0610973559957311e-01 9.7729790909203840e-01
      1.7766549289409847e-01 -3.2089808940770265e-01
      2.1484186211950536e+00 8.4706086955088455e-01
      -5.8479749817610849e-01 -8.2884140970236928e-02
      3.3683662269302110e+00 1.1989830043306043e-01
      1.1674478310494083e+00 -1.8558183130832517e+00
      -2.5404988398962614e+00 1.4700103771561324e-01
      2.0866019618508536e+00 -7.9851323013223430e-01
      1.4031711174750487e+00 -2.6800339330286680e+00
      3.3408290231112998e+00 1.5824588238985118e+00
      1.1126264264674595e+00 1.6810868990359612e-01
      4.0221470760084943e-01 -7.8781064788333277e-01
      6.0222411350095451e-01 -4.7986088578378133e-01
      1.9114295466936677e+00 1.1574127635306324e-01
      8.4261747425345057e-01 -1.6046557715285035e+00
      7.8378663647462421e-01 -4.9512764395440012e+00
      -1.4877255140509527e+00 -5.3766174554922108e-01
      4.4983443483573499e-01 1.5057920376509324e+00
      -7.8490038725132005e-01 -6.8707869036882008e-01
      -3.6847659458851240e-01 8.7357263269486862e-01
      -2.1382339584209950e-01 -3.4279484104313312e-01
      4.9659133032935393e-01 3.1301152956217133e+00
      4.3365714454548954e-02 2.4248414423602677e-01
      9.7162362038102268e-01 -1.1124699255525887e+00
      -9.1106415534019491e-01 -2.6462344565254656e+00
      2.6410314273891968e+00 -1.9777381710533046e+00
      1.3861834543407920e+00 -3.9661232312912037e-01
      -3.5263834058687445e-02 6.1119831490900378e-01
      8.2370495234465671e-02 -2.6043340196865388e+00
      -1.4118861305783761e+00 -1.9189860618208716e+00
      7.6666059257091201e-01 1.1926663918326208e+00
      1.1514847720315584e+00 5.3663612853714699e+00
      7.7182674925012817e-01 4.1462648288869741e-01
      5.4372351939955121e-01 -2.2664801682542723e+00
      -5.8362030854936175e-01 6.6862812056866938e-01
      9.1779846980751800e-01 4.9263660861937952e-01
      -6.3355257949499610e-01 9.6791911340225012e-01
      2.2855301697378794e+00 1.3222823624872362e+00
      1.2368805011381649e+00 -3.4597661668384805e+00
      3.8620669671303789e+00 -8.9577186930473851e-01
      -1.4462358986068653e+00 5.1366531903670309e-01
      -1.8264791687132733e+00 -2.9927388691473183e-01
      -2.3352151931558610e-02 -7.6833895462508919e-02
      1.5812167375851410e-01 3.9595097890869209e+00
      5.3716714451049130e-01 1.3123071779268776e+00
      -5.2575234004128035e-01 -3.2094773960918969e-02
      1.8764808791985512e+00 6.1107865188122612e-01
      -1.3318088252870666e+00 -8.3474020857675890e-01
      -3.0861028865689977e+00 -1.6528199011405073e-01
      -1.1177001889751073e+00 -1.3891846434584596e+00
      -1.0755405370902134e+00 9.7245581166093761e-02
      -2.4833738227289688e+00 -3.6523230571863990e-02
      1.3897986313795319e+00 1.8181298154921943e+00
      3.0225092877410416e+00 -2.0924808482959206e-01
      -8.9060211660515798e-01 -1.4005999176964361e+00
      2.2313872026682415e+00 1.9114258454708031e+00
      1.3738781986818012e+00 1.1045878166774474e+00
      -1.0453272789713628e+00 1.2965899953387947e+00
      3.0728472457703302e+00 2.8533703495368257e-01
      -1.0781659545108258e+00 -4.1708380451135618e-01
      -2.1307145590000940e+00 2.6093191744453699e+00
      -9.3725946010342331e-01 1.3877047449646556e+00
      -1.8728897283633295e-01 -1.0708626617324541e+00
      3.8066042431465008e-01 1.5905643746686089e+00
      1.1948394041216506e+00 -1.0371256046513151e+00
      -2.1615611770486449e+00 -7.0375024296300015e-01
      1.9088376004929308e+00 -2.2742397624281057e+00
      -9.8269029559066157e-01 -2.2072183230834555e-01
      -4.6250866110663447e-01 2.4733495830267875e+00
      -2.1659080174840670e+00 -2.1151599111819492e+00
      2.3100697746912862e+00 2.0089483791874869e+00
      -1.0986044088614886e+00 -4.0711935635106500e-01
      2.2409742205123662e+00 -5.5913392969829105e-02
      1.2242106957976600e+00 5.7811649796819620e-01
      -1.1502484230790677e+00 -6.7810979943694250e-01
      -1.9896679097643102e-01 -9.3439583962253403e-01
      1.0099703323516816e-02 6.8204113199537286e-01
      -1.6290398999162101e-01 -1.9986589686760874e+00
      8.9320992533616372e-01 2.6479932337144352e-01
      2.0521775672317406e+00 -3.0739622152112474e+00
      3.5743805200181955e-01 -2.6730388826038148e-01
      1.9801964023646861e+00 -1.4315110015203485e+00
      -1.1149573142083669e+00 6.1024384318082847e-01
      -1.5198175062247519e+00 9.3052947262737284e-01
      2.7467635201713535e-02 4.5720513541415780e-01
      -1.4990407120898241e+00 1.2994619281244599e+00
      -3.4557968969753734e+00 4.3038990880780297e+00
      1.5155239070705770e+00 -1.0622941056375210e+00
      1.4848791534989558e+00 -1.1960589226573318e-01
      2.8091201222376649e+00 -1.7059006625161788e+00
      2.8455829472553368e-01 8.3741220142056438e-01
      -3.2608230640810643e-01 -1.1618816466879542e+00
      1.3821084175926990e+00 9.5203331321460938e-01
      -2.4923387441500489e-01 -1.5583022517088350e+00
      -1.6093956328562034e-01 -4.2283490753486802e-01
      1.9489788150532805e+00 -6.9384738900985898e-01
      -1.4683103474261514e-01 2.2882413657545291e+00
      3.0239877560001649e-01 -1.5228173444217608e+00
      9.3277822992283488e-01 1.0358652737517157e-01
      8.7784617585882130e-02 8.3584186213095668e-01
      -6.6636640078838194e-01 -1.6681759897596207e+00
      7.5001260085121224e-01 -3.4110648468101351e-01
      1.8987856524036169e+00 -5.2260734072194237e-01
      -9.0953058161749500e-01 3.7174804034449332e-01
      -3.9915016808823039e-01 3.7723022457387967e-01
      1.5544174688174386e-01 8.7877372302248014e-01
      1.2489195734710332e+00 7.7128429252457442e-01
      1.2712952807849975e+00 4.3747978956770028e-01
      4.9103300768287705e-01 -2.6809535379783628e-01
      1.1889885280851737e+00 6.7467976888055825e-01
      -1.0407690455234246e+00 -1.3287157792806026e+00
      -2.7263178609759470e-01 4.2285408637107058e-01
      -1.3329759327572213e+00 9.2974202146926410e-01
      -3.9827751796967858e-01 1.2400714951824656e+00
      1.7805963905735362e+00 -3.6640253055789679e-01
      2.0773188397043723e+00 -3.6546054175646914e-01
      -6.2865660658707612e-01 -2.3297237598029961e+00
      1.5962384642169516e+00 -1.5272272096587298e+00
      5.6586168026515260e-01 -1.9645683655149742e+00
      -4.2849836439983641e-01 1.3521259388685880e+00
      5.8107406598956513e-01 1.4757936285290656e+00
      -1.3467649275106510e+00 7.3089013655290830e-02
      -1.6091724038644348e-01 2.5368902592577791e-01
      -1.0701337915544726e+00 4.2577176146612461e-01
      2.5599809030642495e-01 2.4269747900465171e+00
      -8.9504278402997506e-01 -2.2883578848393613e+00
      -2.7842696910087456e-01 -1.6265846246834217e-03
      -1.5397032570790596e+00 5.4628128063476007e-03
      2.8142593017822898e-01 -3.7935372818440172e-01
      -1.9330801796235583e-01 -1.9546059576521593e+00
      8.4204370482868951e-01 3.0841492437389245e-01
      7.0792690092965760e-01 1.3044900038316041e+00
      4.6042564984279988e+00 1.3490821124271021e-01
      1.1929003499563589e+00 -8.7980312388167370e-01
      1.5298428778822868e+00 -8.2614816959724557e-01
      1.5690010011511646e+00 -2.0887473975724462e+00
      -1.2698080946196946e+00 -9.3144226520309426e-01
      -8.5243117421439385e-01 1.1726192005555056e+00
      2.0702921712126305e+00 6.1298668641753140e-01
      -5.5806410520920546e-01 -6.9654041568567818e-02
      2.8306680871221085e-01 -5.9992332442456253e-01
      -4.1674172659145681e-01 8.3723334596478138e-03
      1.7205214578618195e+00 -7.8934048721312899e-01
      2.3146490122960786e-01 -1.2472126281098990e+00
      -4.1809907122544016e-01 1.2063076970766919e+00
      1.1285852178497924e+00 -1.3919182252996480e+00
      3.7052764729554954e-01 1.2821588201543652e-01
      7.3370168434987204e-01 -3.0042762072383078e-01
      -2.1337021512409921e-01 -7.3490851419833880e-01
      2.5543601801365812e-01 -4.7158374271289155e-01
      6.9364941678032599e-01 -1.2990291463280299e+00
      -1.1607202142503710e+00 -2.6120546184552320e+00
      2.9630450400481445e+00 3.0754784638375982e-01
      -1.2845141389379873e+00 1.1450760585087953e+00
      -4.8162661591344424e-01 5.1961683703636807e-01
      8.9268361707120814e-01 -1.8870112654721446e-01
      -3.8256081040191997e-01 -2.9099801237451266e+00
      -5.6123612314866145e-01 3.5919467126899735e-01
      2.1851469518611930e+00 1.0035865796597980e-01
      4.9123014045029040e-01 2.4129630050099964e+00
      -9.3242344502715102e-01 1.5824888805879873e+00
      8.0316737805484761e-01 -1.2565781535727509e+00
      -7.6447069960802783e-01 -1.7968364712267608e+00
      -2.8546960041224902e-02 6.2180500505027869e-01
      2.6192047435212668e-01 -6.4072421456135331e-01
      1.1385330468923569e+00 1.4813963783862727e+00
      -6.7843951851191242e-01 -3.8212073781493550e-01
      3.4388610774557251e+00 -5.3159956838231504e-01
      -4.3272221685243764e-02 6.4028986992633652e-01
      -1.3246661488030704e+00 1.6145698196728189e-01
      -6.0725971908196619e-01 -3.9585903519241938e-01
      6.3868277400191609e-01 2.2317064587494093e-01
      1.1884945388049240e+00 8.3421322059230740e-01
      3.6791996095454343e-01 3.7328021149409929e-01
      -9.0602544307149102e-01 3.7588202567450940e-01
      -8.5435111934920416e-01 -1.2182277573978466e-01
      -2.0286401862866534e+00 1.1016997156406041e+00
      -1.2540851495223038e+00 -3.5559831796783364e-01
      -7.1209038711466333e-01 -3.0112656330630572e-01
      -1.2779774679692477e+00 2.3045774394317391e+00
      1.1293294117065298e+00 -1.5475533011013518e+00
      8.9524413829991312e-01 2.0382037183044033e+00
      -3.0144581578936891e+00 1.2874614429126179e+00
      3.0675581264141738e-01 1.9154044191898461e+00
      -1.0877672880270033e+00 3.4511456197458097e+00
      1.1757609324314133e+00 -3.7563934446184810e-01
      3.0977978277356257e+00 2.7672301628463853e+00
      -1.9935646149815628e-01 -3.0356214339394380e-02
      1.2690339833099298e+00 2.6730133410389834e-01
      8.7787091020260288e-01 1.7010765054972901e+00
      -8.9398156101660564e-01 -2.0393966143137066e+00
      -4.4512466593706301e-01 2.2685921091557926e-01
      1.3652991588728032e+00 -8.0283187642026488e-01
      -2.7798628291033580e+00 1.2715364949727770e+00
      2.1950616444470308e+00 -7.7440880725020012e-01
      -3.3248980133564460e-01 -3.0493891799882789e-01
      1.5117544902672380e+00 1.9868376191584514e+00
      -1.6443457510236545e+00 -2.7602592173493683e+00
      9.5835074107311136e-01 -8.5377273558010880e-01
      4.9021100011381291e-01 -3.0998750963296207e+00
      2.2441038065117009e+00 -2.8263547526487547e+00
      1.2634953957386026e+00 1.6393484703686658e+00
      7.8178515938029525e-01 -9.9547702080466516e-01
      6.7877762538061670e-01 -1.9648008091416005e+00
      7.8744835065356900e-01 -4.7607631964586852e-02
      3.5787682916524083e-01 7.6761696717395911e-02
      1.5237413964909856e+00 -6.0406028019138314e-01
      2.2174416663558461e+00 -4.0696706100287985e+00
      -5.0005111412259240e-01 1.8032269114147079e-01
      3.2232039753119941e+00 3.9984318137855823e-01
      3.4338443309729094e-01 -1.7395169261117753e+00
      -9.6436929723548215e-01 1.5673086813174184e+00
      1.1995786172356040e+00 -1.7394240881956964e+00
      -1.5576329540107672e+00 2.5894785608249404e+00
      -2.5400912109599578e+00 5.2313791907796148e+00
      2.1641727620450197e+00 -2.3030984488462578e+00
      2.6099165313841834e+00 8.1843461427282119e-02
      3.9871329015291663e+00 -2.0446507265872786e+00
      2.0159976367953205e+00 5.3152758581614556e-01
      3.6335154546478038e-01 1.1838540874247310e+00
      1.4393324958045228e+00 -1.8603464380598704e+00
      4.1669909185001008e-01 -1.7822024120122733e+00
      1.0002498460882832e+00 -5.6483673034687221e-01
      3.4073535306055509e-02 1.2138974244211684e+00
      6.0427048460437960e-01 -4.4577367682186025e-01
      1.0813876430246498e-01 -1.7393042942202435e+00
      6.1174710778793362e-01 9.2343229038919694e-01
      8.3495682000241445e-01 1.9049873159310116e-01
      -3.5886288494454976e-01 -9.4696585552773038e-01
      3.1044746727008148e+00 1.7860540217591110e+00
      1.4324551273778108e+00 -3.1010427195199819e+00
      2.4253156715236606e+00 1.3629087475146642e-01
      -1.4917787554430106e+00 4.2733003284813459e-01
      -7.0845172511061161e-01 -3.8552464199931574e-01
      -7.2166170362537319e-01 -1.0123835644366348e+00
      1.3332305209346624e+00 1.8646007055709770e+00
      5.2848813489885538e-01 -5.0781003765753430e-01
      9.0522712596739968e-02 3.0056501916079881e-01
      -1.4940422352923047e-01 8.0071254984739593e-01
      -6.4913238315074306e-01 9.3897034280198688e-01
      -3.8493230918070571e+00 -4.4671463905000769e-01
      -1.2046111605203835e+00 3.2099109274675436e-01
      -9.0270362401405901e-01 -3.9800334952552452e-01
      1.2025826264686155e+00 5.6683568117920458e-01
      9.8888861866631417e-01 -5.0539916246727259e+00
      3.8892142373151692e+00 -8.4552311562507743e-01
      -2.0588312486706850e+00 -3.0880248868992339e+00
      1.2926437572763618e+00 2.1320452719735026e+00
      -5.4136029893826287e-01 2.6945848955617224e+00
      -1.5330150785337031e+00 -7.7559730122467752e-01
      1.0176290145507396e+00 2.4506366928336747e+00
      -1.2297349949333032e+00 4.8542507170768434e-01
      -1.0041638451016124e+00 3.0329805034514057e+00
      -3.2506392981443155e-01 1.0954882712311469e+00
      4.1701141700452704e-01 -3.5993941171851107e-01
      1.9505736531950768e+00 3.8676724498659110e-01
      9.2417604591192137e-01 -2.0536280618895049e+00
      -1.1859572858842251e+00 -4.9326621519897351e-01
      1.6904671360343043e-01 -2.2880045464317977e-01
      -9.7952430059410378e-01 -9.4380514213525002e-01
      -1.9786493652019135e-01 1.0435235076910119e+00
      -7.0034683098525097e-01 -1.4379703908408719e+00
      1.2515325656208234e-01 -4.1789585303364096e-01
      -1.7172435597268390e+00 -2.0809309983903401e+00
      1.6515753508286475e+00 -1.5069252396806652e+00
      -1.1816648250861601e+00 1.3785850533736512e+00
      5.4186730812515016e-01 1.1409284060718816e+00
      -8.7295872077966929e-01 -1.5618487394646152e+00
      -1.0252937963865720e+00 6.5980526548155571e-01
      -2.2120451733902735e-01 -2.4168493881315700e+00
      2.2437296021288664e+00 6.8250220118835775e-02
      1.4531426998760322e+00 -2.7924271076949689e+00
      -2.7529647567618259e-01 -1.1457287683235793e+00
      4.5936003476805327e-02 -9.7819351472639293e-01
      -5.4750695584488396e-01 -7.0945582119226591e-01
      -1.1197287551854439e-01 2.6340512108816609e+00
      -7.3530196502276379e-01 1.8957441119541896e+00
      -6.7460111972530279e-01 1.2890323010936104e+00
      -1.2511541820348240e+00 2.4377633694615177e+00
      2.0496194363834315e+00 -3.3315203008097010e+00
      -3.9059870318901019e-01 -3.6736145008484605e-01
      5.1368075520669452e+00 -2.6218291572185843e+00
      7.8130092695010855e-01 3.2938555074481896e-01
      1.4954042952504873e+00 -1.1151427258258575e+00
      7.4735109070945868e-02 -1.8131554706928230e+00
      -1.0004305736684163e+00 -2.1839465062348595e+00
      1.7506225462522045e+00 8.1115996991302675e-01
      5.1487304460454886e-01 2.4742591420582336e+00
      9.3209155077595063e-01 -1.4782643258926513e+00
      8.9050989295431338e-01 -1.4743937117699851e-01
      7.2201115436139485e-01 8.8319962110464623e-01
      -1.0333402550930038e-01 5.4498234584106653e-01
      -7.5061980694058894e-01 -5.2809680836666462e-01
      3.1182100979468790e+00 1.7813873057884857e+00
      2.1703658638801504e+00 -1.0252964470631547e+00
      -1.1974527027372590e+00 2.5616902923228873e+00
      9.2465871425632318e-01 2.2628150192534471e+00
      3.5572571845834611e-01 3.8610032912448006e-01
      1.3425817714060733e+00 1.9395154128214303e+00
      1.1381951152636069e+00 -1.6119577687825098e-01
      1.1997875294217863e+00 5.8393467044067204e-01
      1.9026442660347154e+00 7.6151430304315815e-01
      -1.7364297507348652e+00 6.8794076037528162e-01
      2.5726217736787199e-01 -1.2481919719409729e+00
      -2.7200135445461200e+00 2.0973073206063630e-01
      -3.5465909529245276e-02 2.0879115674449840e+00
      -1.8619348942984976e-01 -3.6970964902242315e-01
      1.5162628115556156e+00 -2.5797199352417138e-01
      -4.5047146815266742e-01 -3.9674694945750035e+00
      1.3843010868138221e+00 -2.3469246925358194e+00
      9.7154194928379101e-01 -1.6314590503379380e+00
      -1.0114764678305026e+00 1.1105191899624642e+00
      1.0061451837384703e+00 2.7568468593146642e+00
      -1.0929075164149820e+00 1.5631302781317385e-01
      2.0254386496132482e-01 2.3130208100730845e+00
      -3.1068774859597053e+00 -2.2507355888854752e+00
      2.6634311027452684e-01 1.2326150911523304e+00
      -1.0134187459570494e+00 -1.2780054918872641e+00
      -7.6104946283348152e-01 -1.5790796778109508e+00
      6.9730121085339603e-01 -1.0025664459026429e+00
      -3.0041230112909789e-01 7.7616508472905976e-01
      2.3343072391054387e-01 -1.3244386041070755e+00
      -7.4545305127519179e-01 2.0377783208941942e+00
      5.7489599780424316e-01 -8.7246618942760951e-02
      2.2782361928076225e+00 -1.1457958985683656e+00
      -2.1783485456226864e-01 1.1074857859722045e+00
      1.0000966808841130e+00 -8.3088288707646396e-01
      5.0653287796645208e-01 -7.4416194610548381e-01
      -7.4944680999695934e-01 -3.1303047986295485e-01
      -2.1714456879207947e-01 -5.4762389826901903e-01
      7.0147955486703950e-01 5.8881374811607545e-01
      2.5460777953196351e-03 2.8227957693653810e-01
      1.3151729964291998e+00 4.3868233816124025e-01
      2.1340642961537859e-01 1.4265426426391838e+00
      -6.6173278873431496e-01 -1.3392679025728123e+00
      -2.1757316824789021e+00 2.5373232292357843e+00
      -7.8347165301577260e-01 9.2607185336066278e-01
      1.0738503376047513e-02 -1.2153014892565872e+00
      -2.8689149234370670e-01 9.4175913149938228e-01
      9.9810441465699429e-01 -9.6000385783137021e-01
      -2.1768253771031806e-01 9.2357830417666223e-02
      1.0653223004728035e-01 -5.3186368229690062e-01
      9.4677656967289892e-01 -5.7459599019822027e-01
      -1.2230456291471328e-01 3.9507886051244606e-01
      1.8533889822365250e+00 7.8572126409119494e-02
      -3.1603228735892297e+00 1.6905938764399266e+00
      -4.9280668392545685e-01 6.9717367306643852e-01
      4.6173393656468076e-01 1.6293616808444884e+00
      -1.1502659945064390e-01 -5.5896794694619591e-02
      1.1455538134343670e+00 1.0730024922970975e+00
      1.6954692653281266e-02 1.2184773386117620e-01
      3.7903029226941509e-01 5.2113270589940008e-01
      3.9216000000654033e-01 1.0988842790779463e+00
      -2.8418150376121765e-01 3.2124867876819413e-01
      -2.2259856455429000e-01 -2.2923148016648822e+00
      -7.6083872366184235e-01 2.4635481059108466e-01
      3.6140785671093217e-01 -8.8158169093155381e-02
      8.4688565914113678e-01 7.8144475799231117e-01
      5.9069876840356916e-01 -9.9857844901930426e-01
      7.1960599904936595e-01 -2.1040343346125714e+00
      1.2603241132615578e-01 -1.7319197376224666e+00
      -1.2263305586412583e+00 6.6882630304648139e-01
      -1.5594859743902127e+00 -1.1738075363879590e+00
      2.1329219656406972e-01 -1.4354597119972019e+00
      -2.5924482290017586e-01 5.5755100773142874e-01
      3.9197416530176332e-01 -6.1706509287525538e-02
      -3.8912592922765704e-01 -5.6318327265328649e-01
      -1.7001211292866329e+00 1.8160962860246439e-02
      -1.5259422131975526e+00 9.5895200863004637e-01
      -5.6454434809674360e-02 -1.6396925609846345e+00
      -1.5992111501409134e-01 6.1038673844842607e-02
      -1.3345608646059315e+00 9.6058860264628121e-01
      1.9810125687959537e+00 -6.4014046622881918e-02
      -1.5639529807907762e+00 1.3752180058464114e+00
      -1.4207500105887994e+00 5.7013860104301262e-01
      -1.2751420734503810e-01 8.7290629703208256e-01
      -9.3802719605849005e-01 2.2629293606097574e+00
      1.0416660780553311e+00 1.9645753417368866e-01
      1.4910653391581272e+00 6.6157434256026537e-01
      2.6887160350071942e-01 4.9881366730502852e-01
      6.5330117293075884e-01 -2.5616118171835258e+00
      -3.7652984054231514e-01 4.7104170430139142e-01
      5.7167905995189938e-01 -2.7356918213570830e-01
      -2.2085102966476006e-01 1.8835629628246253e+00
      1.2977010132338056e+00 1.3250518859944549e-01
      -8.4127501473845656e-01 2.2759857233072900e+00
      3.3303195491800937e+00 -1.8615310109620875e+00
      1.2837624512340095e-03 -7.0186544709894394e-01
      -4.7925251845323237e-02 1.8555806067526164e+00
      -8.1851336270151676e-01 -2.7290138731783116e+00
      9.7427008929074654e-01 -4.5847806519477791e-01
      -1.1363862203747577e+00 -4.0608160190258480e-01
      2.7163656227758475e+00 -1.8809077561112595e+00
      1.8187818863336036e+00 1.6021074758749998e+00
      -6.5740989115842341e-01 -1.4880348452632233e+00
      5.1843412771877184e-01 -7.5987438641922589e-01
      -9.7173259979468551e-01 -4.5834853764123928e-01
      1.5339716018975536e-02 -1.8266458547202580e+00
      8.3427380681689822e-01 1.4619032091867723e-01
      1.5069366688784194e+00 -2.7604290001122251e+00
      -7.4542132612524503e-01 1.8621126354383066e-01
      2.2115877438081237e+00 2.7113469242333194e-01
      -1.0187429927218203e+00 2.0203775002552640e-01
      -1.5784180378058101e+00 8.1571864286338402e-01
      2.7153564654695400e-01 -3.0857903551729676e-01
      -1.3468653507458905e+00 1.3181724960181276e+00
      -3.3974791462639833e+00 4.1954200443144272e+00
      1.9271976995968423e+00 -1.1733815139119634e+00
      1.2975376503487557e+00 3.1584918937116102e-01
      2.1022313283278997e+00 -2.1158001692968336e+00
      9.5268460430047197e-01 -3.1424046293589558e-01
      -6.3777625360840295e-01 7.2688440233562579e-01
      1.8685300662802014e+00 3.6547824824387530e-02
      3.9606236000582123e-01 -2.1523417713489361e+00
      -3.8315154760250386e-01 8.5212748891513881e-02
      1.7136605296459502e+00 -5.3466652316503389e-02
      1.8763881238150262e-01 2.0843348699151929e+00
      8.2030002875512986e-01 -1.4147148613732135e+00
      8.1954524398411521e-01 -2.6913782922196028e-01
      -2.5462788206985643e-01 4.4161462989681888e-01
      4.4035157156729721e-01 -1.2849117414266231e+00
      1.4597697355493937e+00 4.0304550861536398e-01
      2.1266832364310999e+00 -1.2223629808797221e+00
      -1.0215212374407195e-01 -1.1859984149608281e-01
      -1.0026253693146752e+00 2.1349592270406573e-01
      -5.0839599145268854e-01 3.2615004616127469e-01
      -4.1620755491398381e-01 -3.7532731341986419e-01
      1.7605151795857823e+00 4.8640011115847448e-01
      1.7660006641346032e-01 -7.0072502455589869e-01
      -2.3659830967350950e-01 1.9508902686101917e-01
      -1.4399266394953425e+00 -9.6296456449102508e-02
      -1.5094662817474547e-01 1.3407268017649026e+00
      -2.1928893436481842e+00 7.4346121451083635e-01
      3.5440209415201229e-01 2.7726458191445708e-01
      6.7214729973922627e-01 -1.1277587106586585e-01
      1.9275201288539869e+00 4.6663312850492888e-01
      -8.4297687056354587e-01 -3.1824444397049514e+00
      2.4878383835391764e+00 -1.3598001753634079e+00
      3.6212587308311023e-01 -2.4381619878766467e+00
      -6.5428081322558629e-01 1.5024649465044653e+00
      -1.0540384561488413e-01 1.8529497556914138e+00
      -1.1741615172006570e+00 7.5769981203325912e-02
      -1.0235216095625219e+00 8.2487929953834482e-01
      -1.1930552980450500e+00 9.1021725594884340e-01
      -6.6637197279466343e-01 3.2569935822629010e+00
      -1.1120962749315377e+00 -1.1741616023327477e+00
      5.8094433730659489e-01 6.5790221562118356e-01
      1.3701227567432156e-01 5.7562527886249604e-01
      6.7144683481897516e-01 -9.0655183687269081e-01
      -1.0084085480644984e+00 -1.4101163757035944e+00
      -1.4525598918586646e+00 5.3662995224235499e-01
      6.5778948819864436e-01 3.6890078088290790e-01
      4.5997423295697276e-01 2.0038990105548488e-01
      1.5801402904261515e+00 7.5394804950152805e-01
      -2.9668559800373506e+00 -3.2603738162878299e-01
      -6.7071368234707252e-01 8.2816353047132596e-01
      -9.1291281902808874e-01 6.3695402425398273e-01
      -7.6753749427262385e-01 -5.7662407174404284e-01
      1.4566847911751871e-01 6.9340624065024503e-01
      -2.4166437614032657e-01 2.0349857329066512e-01
      -2.0907524439068542e-04 -1.2513140543551180e+00
      -1.0507969466537354e-01 -3.0312138011899659e-01
      -2.1990637678242161e-01 -7.1357655965562899e-02
      -6.8044669703015104e-01 -1.2310354218125297e+00
      -4.3677939587194586e-01 -5.5329253267704503e-01
      -1.1189139806821171e+00 1.3901745938710832e+00
      -1.1193020519738204e+00 2.5864165566205377e-01
      4.4392046861434598e-01 -6.7402033771309400e-01
      -7.4261252154324786e-01 -4.5196012888030690e-03
      1.4571024342289880e+00 6.5273587879050554e-01
      -3.4533047300670111e-01 -2.1457512013127227e+00
      4.0931925255307899e-01 1.5883014127808773e-01
      -1.1306317704484656e+00 -8.4254558308400240e-01
      1.8895491737042258e-01 -1.0069089873283284e-01
      1.4094437935564508e+00 -4.0287006953232080e-01
      7.6084488791231542e-01 -3.6848698423307208e-01
      -7.6809822053613253e-01 -6.3906052300428218e-01
      -4.9020592122689283e-01 -1.0587366632199344e+00
      9.8950457571861339e-01 8.9184699324418348e-01
      1.0095897100138602e+00 2.7656688421348403e+00
      5.7385152670104489e-01 4.6923593218098569e-01
      -6.0946482353357567e-01 -6.7450517186870588e-03
      -1.1769472360562581e+00 4.6132284658265277e-01
      -3.7573795877448618e-01 9.1572712450700289e-01
      -8.5065681575011853e-01 1.1902253869782495e+00
      2.2920057591948795e-01 -7.1051617046932714e-01
      -5.7303874408918409e-01 1.8905079313660722e-01
      -1.2419674017927302e+00 -1.0928374599254929e+00
      1.1120343069279526e+00 -5.6928143344183901e-01
      1.1969429963197242e+00 3.3348154462396490e-01
      5.3620038610107179e-01 -1.2037503666343219e+00
      4.2907471950700132e-01 1.6935934167299764e+00
      -6.9758827309769433e-01 9.2026082584847135e-01
      7.0385081255385429e-01 7.7360384256030812e-02
      1.0712303172630111e-01 -9.2609119595337586e-01
      -2.6427589028048726e-01 -4.6552657085778332e-01
      6.5874303323128869e-01 -2.8649693437601054e-01
      9.0652165429550557e-01 3.5022918550735710e-01
      4.6277035212115653e-02 -3.9602356176975317e-01
      -9.0301362980985722e-01 -3.1301567628476251e-01
      -9.2185723094812211e-01 1.9293972461400783e+00
      -3.8696197570560131e-01 -5.3393610185918094e-01
      1.0930268463676647e+00 8.9216127382459753e-01
      6.0958090841038060e-01 -1.1640388474013184e+00
      1.5755779983085827e+00 -5.2634551179222211e-01
      -2.8128881616276796e-01 1.3906601742302624e+00
      5.0786492607965272e-01 -3.0175240686696758e-01
      -1.2609329872664903e+00 2.4181750615716718e-01
      -4.7812153803385737e-01 1.9620383235442743e-01
      -6.6381063599969381e-01 -4.4879557705493095e-02
      2.8180162556894508e-02 -6.6787634905351323e-01
      -8.5767234460156916e-01 -1.4981595152427090e+00
      -2.3055881270788897e-01 1.3703579546663355e-01
      4.9307717114030841e-01 -4.9134299139349008e-01
      -5.0647691968931319e-01 1.5013422587968412e+00
      6.8978257679616384e-01 5.0156022447565196e-01
      2.8612632946871872e+00 7.6422033849119983e-02
      1.9758008573947630e+00 4.8191712029231809e-01
      2.8720053521650755e+00 2.4129619578041508e-01
      3.4938474965823905e+00 2.6538811312696318e+00
      -1.9310285149605839e+00 3.2201967773116018e+00
      1.4372677217677072e+00 -4.2380429481433635e-01
      -2.0222496756572692e+00 -1.3582309188408588e+00
      -1.3423302557264899e-02 1.9965529279855678e+00
      2.6146971597489781e+00 2.1809581425043865e+00
      3.4265422736130230e-01 2.1576542518183701e+00
      -9.4978947115055978e-01 -6.1566021074808719e-01
      -2.8202083652857013e+00 4.7566165428237186e+00
      -5.4022474400301268e-01 2.4758438843301170e-01
      -3.0962761940404357e+00 -1.5235375862580289e+00
      2.0379375448989472e+00 4.5776379851040394e-01
      3.0588839558537599e+00 -1.5186978889943266e+00
      -1.7232622373625314e-01 9.9692197272075983e-02
      6.6612613185558278e-01 7.8065473147895248e-01
      2.0418133579169431e+00 -3.4689688390779962e+00
      -2.2620508718608825e+00 2.5093989670678649e+00
      6.9473274094084303e-01 -1.8885937259485763e+00
      -2.6456441281200620e+00 7.8552126838878067e-01
      -1.8453854445228832e+00 4.8333953219188114e-01
      -2.9729120181764923e+00 -4.9817471862828938e-01
      -9.7128910262480661e-01 1.2844897649647249e+00
      3.6326466641113409e-01 2.3679574735246209e+00
      -3.3205755378316120e+00 -1.1929889379265444e+00
      -1.8484791428596705e+00 -3.6017341741317548e+00
      -1.9057871426477078e+00 -5.4435349681066925e-01
      -9.0471812482908343e-01 1.3170789565960075e-01
      1.0920151299143723e+00 -1.1774515087495685e+00
      -2.0160987191632229e-01 -1.0591334004294262e+00
      9.9890696956957314e-01 1.1279771106106746e+00
      -3.6312642223316565e+00 -1.5479508187495690e+00
      -2.4609928971318613e+00 4.1516874574289209e-01
      3.4193268195408222e+00 7.2508713116008774e-02
      6.0098040301202538e-01 -9.5926780196456884e-01
      -1.8836812529100402e+00 -1.3787744263979188e-01
      -8.3274155720240051e-01 5.1246069426404672e-01
      -1.0963065522490891e+00 -1.7569453285808243e+00
      8.1013620991650082e-01 5.3196554445289779e-01
      -9.3045445830195839e-01 -7.2255175941388999e-02
      4.1092735343789061e-01 -1.6224081585241071e-01
      5.1738045044911418e-01 2.5553378287501975e+00
      5.0013097711605985e+00 1.6734046805585145e+00
      8.4250038999374638e-02 -2.4922552682219562e-01
      -2.1730646121506925e-01 5.9773064651851815e-01
      -2.5469940027499849e+00 2.1389361334687877e+00
      1.1678145741803858e+00 4.4706338796833451e+00
      7.3150777363854080e-01 4.2302809275227409e+00
      -3.6437904658910756e+00 1.4607732080373054e-01
      2.7045481966268228e+00 -1.3798747770140748e-01
      -6.2080909177247623e-01 -4.0578633314689805e+00
      8.7698445413623349e-01 -2.3508784292995180e+00
      1.1024098825927646e-01 -4.5220891252304645e+00
      3.0876455371521294e-01 -1.7372912945072452e-02
      1.1675822146172314e+00 -1.0685945907896397e+00
      2.1795619374930038e+00 1.2051207303426299e+00
      7.1140716808512605e-01 3.5177488204318301e+00
      5.5577760427621102e-03 2.9111386911673803e-01
      3.1685687874963425e-01 -5.0469657710080507e-01
      -1.4494820697986782e-01 1.6725079540020054e+00
      3.9869131178825151e-01 2.9029770874530830e-01
      -1.9951947401024159e-01 -1.2885584162968136e+00
      8.5868038589347484e-01 6.6911059977476661e-01
      -2.3357137239810968e-01 -1.4434191896918853e+00
      -2.6534547172774507e+00 -1.7508484890670819e+00
      6.6528327608968318e-01 -3.1760857056477293e-01
      -6.5238772730690189e-02 -1.7240510732621035e+00
      1.4333135819466418e+00 -2.5713872169358404e-01
      9.5210732138495191e-01 -2.0339462184734305e-01
      1.0183264047681915e+00 -5.1942575874762120e-01
      4.3593031678119498e-01 -8.3554203550336492e-01
      -2.1002233941578133e-01 -5.9318331392308743e-01
      -3.1893164477266689e-01 -9.5884975611386014e-01
      1.3315428264669738e-01 -2.7422314779579304e+00
      -1.3310665756774454e+00 -1.3546424362355466e-01
      6.7184983452689651e-01 2.9819592728875586e+00
      -3.2969390834498929e-02 1.4719680820620415e-01
      9.6634776233897757e-01 -2.6774233006395703e-01
      1.2386709395566078e+00 1.0637464479370371e+00
      3.9035672228668705e-01 1.3317215713866548e+00
      -9.8513711568330298e-01 -2.8373854487483787e+00
      -9.4561877602526614e-02 -4.5625509286912075e-01
      1.9739080849126533e-01 -4.6965656146213963e-01
      1.1758667148473059e+00 -2.0686796483421907e-01
      1.8298783650809944e+00 -1.0711811069474775e+00
      6.6027568244829660e-01 5.3600877018444038e-01
      3.2537577508332893e-01 -1.1372137892218319e+00
      1.2937433273903032e+00 -1.2944449157459050e+00
      -1.1534456670868189e+00 1.1676903471178541e+00
      1.3902841365079204e+00 3.9307115646157111e+00
      1.0396929478464305e+00 -2.5086309662391941e+00
      2.1946055665227343e-01 -2.7496649849536152e+00
      -1.5474311442399704e+00 4.3706213908450703e-01
      -1.8928746814713027e+00 5.0590071859495434e-01
      1.2735928575714586e+00 1.3229076852540620e+00
      8.9589751782195759e-01 2.5480872308972147e-01
      -1.6473054090603451e-01 -2.5958408569621338e-01
      5.0344123933601548e-01 3.2766300157547523e-01
      -2.0568133461896315e-01 -1.3013969354377777e+00
      -4.1692862022503485e-01 -1.9617862926931249e+00
      -1.0111246831414324e+00 2.5722474097969877e-01
      5.7606178314546619e-01 3.9745663673127414e+00
      -1.0292938103220177e+00 8.9562270917413744e-01
      1.2704342524596599e+00 -7.8815151052797627e-02
      1.6240972475600275e+00 -6.0474885522231758e-01
      -1.2649012132419810e+00 -8.0207686511962042e-02
      -1.0124388070748185e+00 -1.9375811618775099e-01
      1.6507894275146359e-01 -1.4702947399713244e+00
      -1.9361359580750406e+00 8.2517189191810628e-02
      -1.2114215361705811e+00 4.2609496613766018e-01
      5.2240174046828647e-01 2.4916682304675848e+00
      8.6832343046705107e-01 2.7255294373057359e-02
      -3.2857416278117152e-01 -1.1898162242315180e+00
      5.7288209273797597e-01 -1.7669479441107275e-01
      2.0910412526434414e+00 -7.1707330465060626e-01
      -1.1304232584368272e+00 1.0549887975100196e+00
      1.1945935559185714e+00 -2.7575335377633131e-01
      -4.3950485533552097e-01 -1.8655711543294493e-01
      -1.5053665685138495e+00 1.1087915720169010e+00
      -1.0177320437213526e+00 1.5710664484827976e+00
      1.5010222070896966e+00 4.2926460870749628e-01
      -5.0978678104624653e-01 4.7883603527592167e-01
      1.5623500366189391e-01 -1.5609607293706464e+00
      -2.2658403475666793e+00 6.9726963492469862e-01
      -7.9196143171201561e-01 -8.9673819062864901e-01
      -6.5711098934474454e-01 1.3197612632315334e+00
      -1.1000486779734564e+00 -4.6300823236027955e-01
      1.7389177422757158e+00 1.4659180983579516e+00
      -3.0484221435256531e+00 1.3958996662104852e+00
      -7.3599663277447502e-01 4.7710132944187117e-01
      -9.4474860716761422e-01 5.3633935482685302e-01
      -1.7686391719548658e+00 -5.8414705968468983e-01
      5.0726618444267979e-01 3.0585752023397990e+00
      -2.0713893888278312e+00 -5.6284484106742827e-01
      -2.5129126289480186e+00 -9.5289651377502194e-01
      -1.3655004066057710e-01 -3.2628651081275367e-01
      -2.1564956695613979e-01 5.0531340699345084e-01
      4.4186026878976842e-01 -1.8725951230617428e+00
      9.7848272129584080e-01 -4.5916117546285179e-01
      -1.9894744121146160e+00 -8.9711878412084545e-01
      2.1420725386325198e-01 9.7073615279924752e-01
      -2.5402100398744548e-01 -4.2071867930140194e-01
      -2.1613332510666812e+00 1.0078789954153655e+00
      1.7081361346704784e+00 1.0845731438936703e+00
      8.8500211537818663e-01 -9.5660647555577583e-01
      6.4641775690407166e-01 -1.7963473696692461e-01
      -1.6962763211551906e+00 -4.6521184492233020e-01
      9.7411296690909321e-01 -7.5707883997040681e-01
      1.9038635474378651e+00 -4.8947930072647111e-02
      1.5795141428802810e+00 -6.8495190024892938e-01
      -7.4908129129358070e-01 -4.7067546673909944e-01
      -3.0002735439268613e+00 -1.3195471630411273e+00
      1.5464829385323537e+00 9.9637149809326842e-01
      1.4489292210230520e+00 2.8772351794938031e+00
      1.5520182263025297e+00 1.0982477471530911e+00
      1.3426504255831989e-01 1.2021178542323330e+00
      -6.6954448916777920e-01 1.9508239470640445e+00
      -3.8861853289494186e-01 -1.9936656793816723e-01
      -1.7779867407609848e+00 -6.0815525342877413e-03
      1.0209644513113796e+00 -2.1777388530594574e-01
      7.1947067813372467e-01 -9.8200422060587444e-01
      -1.0883827784147839e+00 -8.0128405866274499e-01
      2.1201951400820453e+00 1.0183338340593671e+00
      5.7134516680457115e-01 1.4254941828115999e+00
      1.7564852668581132e+00 -1.3249933237189990e+00
      -1.1420056256493529e+00 9.5015391683057204e-01
      -4.1142291953590387e-01 8.0925654673734781e-01
      6.1604719672195496e-01 -1.5361811104429399e-01
      -1.3746425605943773e+00 -6.2767258131770787e-01
      7.8484661167157310e-01 -1.1054239613799450e+00
      6.4962752064834683e-01 -2.0712419551918702e+00
      7.6341770284119936e-01 1.5201723041710951e+00
      1.5292080327701776e+00 -2.7493898498316505e-01
      -6.7365954304119990e-01 -1.4264658465091629e+00
      -1.4944620922528031e+00 -5.6906114916196537e-01
      -2.4432799461644225e-01 -1.0090599419839645e+00
      1.1439485352948817e+00 1.3807764939727689e+00
      2.5830163877874783e+00 -1.9500180020718119e-01
      1.0606124726771855e+00 1.7148041208743443e+00
      3.2367583158452456e-01 1.8315582764481659e+00
      -6.6650271700634450e-02 -7.3634116582204323e-01
      -2.8943498992842791e+00 -1.0393784496699316e+00
      6.5198406401231879e-01 1.0071208144615635e+00
      -8.5373092094628311e-01 -1.2021262692468480e+00
      -1.6261104652347464e+00 -1.7915028288896493e+00
      -5.6194348287473628e-01 -2.0168261450974834e+00
      -1.4543220007830837e+00 9.6275779587430377e-01
      6.5537712388892055e-01 -2.2451239454255272e+00
      -3.2532359975958620e+00 3.2744587993327090e+00
      6.7911560957369876e-01 8.0953383679334245e-01
      2.1495298274057437e+00 -7.3373950689557754e-01
      1.4475572461249455e+00 9.7691555535998964e-01
      2.6555808474103970e+00 -4.8159544504509838e-01
      -7.8904420606965231e-02 3.2618418364663887e-01
      -3.9692652959726891e+00 2.7380214785102992e+00
      -1.9884251308189935e+00 1.1059573649844814e+00
      -7.7748122701531641e-01 5.5121363757560549e-01
      -3.0881831873689691e-01 1.1983126631398295e+00
      1.1399875994663515e+00 1.5480381994573895e+00
      1.8771915843419917e+00 2.1286199665867125e+00
      -1.2298679862016919e+00 -3.2351977362908291e+00
      -1.9571959614966759e+00 3.3786924934367102e+00
      -5.5489003632136802e-01 2.6519977056253269e-01
      -1.8003615923963432e+00 -2.3298424595235860e+00
      -2.3900627568747534e-01 -1.2089498881497518e+00
      1.4162395920037456e+00 -2.5445809618110040e+00
      -1.3486778200823613e-01 9.6585300558626330e-01
      7.2024737555334595e-01 -2.3663434990625301e+00
      2.4268269947556038e+00 -2.0045376678393598e+00
      -2.8929350540688969e+00 1.7131855795590556e+00
      -8.6427703361037411e-01 9.3922959139755702e-01
      -3.1403488987926091e+00 2.1486112924972764e+00
      -1.9120138733991430e+00 -1.7405898039942334e+00
      -8.0344354646097293e-01 8.6468462207632457e-01
      -1.1877278903047563e+00 1.0252027723668999e+00
      1.0057237602988269e+00 3.2311072529595228e+00
      3.8357753313017867e-01 -5.7077959457601690e-01
      -2.7703092592955039e+00 -4.3892965218214259e+00
      -1.5321603737675891e+00 1.2141210682056096e+00
      1.8598666900767635e+00 2.2458146192938231e+00
      1.9033966025238869e-01 -1.9621494005024003e+00
      -4.5261211550138507e-02 -6.4717599068827614e-01
      -3.2439784382656150e-01 -4.0963235637093720e-01
      -2.0713019837700308e+00 -4.4042330756895309e-01
      -3.9961030042480755e-01 2.1491198670016995e+00
      6.1908008643661472e-01 -1.0688692499796002e+00
      6.0832151927869738e-01 -1.9894081085749935e+00
      2.7483659638425180e+00 -1.1169936578561424e+00
      -5.8618810819782186e-01 -6.5884362369704841e-01
      -1.0864509284455650e+00 -3.8495809644919055e+00
      3.6170807333656041e-01 4.1956180914706404e-01
      -1.6734912002088712e-01 -7.5039318379851017e-01
      4.4904789315963400e-01 9.8786354684382061e-01
      7.2303375029259520e-01 -7.8587984220495410e-01
      2.8136680938328356e+00 1.2794924799895537e+00
      -2.6800750851654831e-01 -1.7946373481009911e-01
      -4.4804228111309435e-01 1.2152487798624665e+00
      -1.4990375433245602e+00 1.8264589466885366e+00
      1.7161146950174364e+00 1.1194942031590025e+00
      -3.0427362491517216e+00 2.1794089001855119e+00
      -5.9829666959398753e-01 1.8694309768043293e+00
      3.6095713692089484e-02 -2.3125687983318460e-01
      -2.7616506275280290e+00 -4.8633263980379643e-01
      3.7409878204155800e-01 -1.5170290325345883e+00
      9.0284549674470238e-01 -7.2170435455893889e-01
      -9.3679439760288241e-01 1.7820003840868456e-01
      1.6680977600931222e+00 -4.5810300505465431e+00
      2.5643269301647833e+00 1.6459581166938535e+00
      -1.9783346690072098e-01 4.8350021972887974e-01
      -5.9807517925126796e-01 1.7240591083358356e+00
      6.0149053922830920e-01 1.2839262148641324e+00
      -7.3181150771085068e-01 1.9025277326568018e+00
      -8.4837675899754831e-03 5.6000442335822331e-01
      1.6623120811048989e-01 8.1482632526223758e-02
      3.8687392796824216e-01 -5.4047336157340109e-01
      1.2759286170362740e+00 8.2519241151087330e-01
      -2.7911866600229200e+00 -1.7867189657321825e+00
      -9.7439347466123594e-02 3.5263119743861032e-01
      -9.9867075220473644e-01 -5.2535982362653455e-01
      9.6016167759796200e-01 -5.2622404557148894e-01
      -4.5707721162907533e-01 -3.5020810462174828e-01
      2.3885348613176899e-01 8.4312983727172197e-01
      -8.3919006443482880e-01 -1.7849335064763130e+00
      -8.5672571748829834e-02 4.1858286497845260e-01
      -8.7196684077346742e-01 -2.4288798175524490e-01
      -6.8186145817197319e-01 -2.1828035306479759e-01
      -5.7198481906873144e-01 2.5707711924545790e-01
      -6.5184072927013015e-01 3.1958700227928802e+00
      -5.4367654811211474e-01 6.4842922843134199e-01
      -2.8590758572027558e-01 -1.3227264579727767e+00
      9.4789034486857993e-01 1.1616164298152248e-01
      6.6117110070109320e-01 3.5978296936829024e-02
      1.0852334287543333e+00 -2.1151117708980629e+00
      -6.2018358587744826e-01 7.7197604320222568e-01
      -5.2958079602702957e-01 1.8095150157259676e-01
      -1.9640370907124174e-01 6.0532311914483961e-01
      7.8000565270337674e-01 -3.4057268901343413e-01
      -6.7899239712623016e-01 5.0297726785731822e-01
      -2.8807084604489130e-01 -7.0192680218004877e-01
      4.9133553494208471e-01 1.7485402826343019e-01
      -2.5464240951669609e-01 9.8221402987521456e-01
      4.0551796670935315e-02 2.5940881237014644e+00
      3.3601091218613427e-01 -1.5650715345872455e+00
      3.6646822437424481e-01 1.8032180507309811e-01
      -1.1009379684955529e+00 1.1447768163187084e+00
      -4.6611892205255784e-01 -3.7089015985007018e-01
      6.4893377012972664e-01 1.0675794392109312e+00
      -3.4646728368245350e-01 3.3877571469290457e-01
      -2.2905312570277384e-01 2.4157857977585291e+00
      -6.8877444115757192e-01 9.9993780190747991e-02
      -2.9896106708212961e-01 -5.1767203039483933e-01
      -1.1414660640307353e+00 -1.6248050526264465e-01
      -1.6243579010629265e+00 3.5407317206260097e-01
      -2.4157043316205201e-01 1.8586298126327285e+00
      1.6562769174997458e-01 8.2654588162107234e-01
      -6.7833964878809583e-01 -9.9094414026637723e-01
      5.2227179036391735e-01 -6.1156886475514684e-02
      2.4735326617343775e-01 5.4253933310629465e-01
      1.3266088180663704e-01 -4.5064592454990376e-01
      -3.3049674684160135e-01 -6.8062484217869035e-01
      -1.0226153180923954e+00 3.8364214662072704e-01
      -3.2218962262637524e-01 -5.3300480410001523e-02
      -5.2150702591954534e-02 2.5153883373531540e+00
      -5.7087213516821500e-01 6.6647006100920991e-01
      5.3585032269079047e-01 1.0233841281778580e+00
      -4.9391003137854972e-01 2.6140875788563733e-01
      -3.2656984044158816e-01 -1.1167363167573188e+00
      -3.0843324185874299e-01 8.8344036278833427e-01
      1.6658002532093139e+00 -1.0665352263480347e-01
      -1.1823464948949214e+00 1.2115999787351914e+00
      -1.2567260769897348e+00 -1.0153206520399041e+00
      -6.6177329998276302e-01 6.3328253807241097e-01
      1.6678972820027410e-01 6.0765994605622953e-01
      -1.1209719864011079e-01 1.5889690232555413e+00
      -1.8417722137481221e-01 -1.4382252830262806e-03
      -1.0048070966709368e-02 -1.2638678581960555e-01
      9.7291314025073483e-01 6.3914181573659828e-02
      -1.8379361725486967e-01 1.3563046172143978e-01
      1.0640907468109984e+00 5.1469572121031405e-02
      -2.7676236665924348e-01 -1.3886142461524968e+00
      2.8042750614012096e-01 2.8122721902902964e-02
      -2.4706118698905795e+00 -3.2824789698492580e+00
      6.9174418308362484e-01 -1.4202079593534727e+00
      -2.2313152463153445e+00 6.1078001390223802e-01
      6.8336952591993272e-01 1.3395262905431036e+00
      -6.7971016002448004e-01 -2.2409474378286163e+00
      -1.3200744132220654e+00 7.9507524799635831e-01
      -5.3112982415512788e-01 -1.3318796125588670e+00
      2.6903746777711532e+00 -1.0608190774522421e+00
      1.9595576737276532e+00 -3.6807234212143913e+00
      1.5644437073958736e-01 -1.2729758258137744e+00
      -4.0573228205007322e-01 -8.3036450916021187e-01
      -1.3978104096722843e+00 4.5193126984233679e-03
      -2.7880719740656579e-01 2.9648963578540637e+00
      -4.1267951552195548e-01 1.0807552055759979e+00
      -9.6817280978997514e-02 1.4195548100982134e+00
      9.7252729259143939e-02 2.6028805511249469e+00
      2.0003448304682183e+00 -4.6953728263630969e+00
      -1.6409786967799842e+00 -6.1861054381125391e-01
      6.1470438869107138e+00 -2.9524779397527032e+00
      1.0793893284788967e+00 -6.8845229471438874e-01
      2.1304393077053425e+00 -6.9320694606597777e-01
      -7.4314805877636136e-01 -2.1104160193931643e+00
      -4.2066881551536095e-01 -2.1028138823317328e+00
      2.6556702872088684e+00 7.3951453483015439e-01
      9.3037418611704603e-01 3.9623805101903926e+00
      1.4483353884888852e+00 -2.5283456251658460e+00
      4.7971183908134846e-01 3.9321441246598982e-01
      1.2903905744984550e+00 1.5600043874427798e+00
      -9.8399158262509123e-01 3.3974449455975081e-02
      -7.4167051002962037e-01 -9.1761774230746662e-02
      4.2621211446211067e+00 1.7165664091713260e+00
      2.5533545677425842e+00 3.5298684848358886e-01
      -1.0460103429296435e+00 3.4873069729486539e+00
      1.3194281548742579e+00 1.1462938059653076e+00
      1.0677674058261164e+00 -2.9308644067502992e-01
      1.1993746762143380e+00 7.5580814177702005e-01
      4.9103800926422786e-01 2.6674002110796219e-01
      4.5211240735627073e-01 4.5015032215094986e-01
      9.0961281686495987e-01 4.6193324880158138e-01
      -1.8566270355918506e+00 3.6298930741399238e-01
      1.3150279260422226e+00 -2.8361643228799234e+00
      -4.1429929656599738e+00 -1.2042021807215715e-01
      -1.5496172180913872e-01 2.6750782194458167e+00
      5.0490684203327907e-01 -6.2312692383414159e-01
      1.8362048519838106e-01 -7.3780716289229764e-01
      2.4391360418280764e-01 -5.7420053906417294e+00
      1.1580425692920158e+00 -2.9833219549181740e+00
      1.4826535383616462e+00 -1.8562438196052304e+00
      -1.2674503854571673e+00 5.7024844127019136e-01
      7.4961257713944474e-01 2.3876761126192041e+00
      -9.8169505305202176e-01 7.6761116259963513e-01
      -3.2606874838575323e-01 2.3113380893195337e+00
      -3.3797059012096544e+00 -3.1455971612313456e+00
      -1.0171527836304988e-02 2.2855140839896855e+00
      -1.1662056654948691e+00 -1.3578889090546347e+00
      -7.1191031017886364e-01 -2.1666732714814909e+00
      5.3865288980432413e-01 -7.0578668559670898e-01
      3.0036295258154244e-01 1.2500819197012195e-01
      7.0200021373202182e-01 -6.7369189975769939e-01
      -1.8319801567190031e+00 3.7436263473471804e-01
      8.2202896233491030e-01 -4.1640423469761401e-01
      -1.1842540068978578e+00 1.8515038197970669e-02
      -3.8551657799967848e-01 2.4040085380243528e+00
      2.1335895210159026e+00 -3.5395437598224044e-01
      4.7546569156968804e-01 2.9037955640042390e+00
      -1.3928805753651423e+00 2.7655456752553205e+00
      3.4727073536353648e-01 -1.6821864811133689e+00
      -4.2567548127987536e+00 -2.5311138460923938e-01
      -7.6222162831449847e-01 2.1552450140824155e+00
      -8.7651547655273141e-03 6.1565489102519533e-01
      3.5466811494305311e-01 1.6775228404983666e+00
      -2.5169424224192696e+00 -2.3439884773104699e-01
      -1.2907095559807376e+00 5.8943398351707508e+00
      3.8603985422931475e-01 7.9290708721267500e-01
      -6.9386471826877794e-01 -1.4701122180087386e-01
      -1.7836253019519718e-01 -5.4349558026789724e-01
      8.2674158478627480e-01 -1.6031944675634602e+00
      5.1426744130662250e-01 -5.8556945569334329e-01
      1.0385624754988947e-01 -5.1718376800120158e-01
      -1.3308552686628667e+00 -4.0341950628566875e-01
      -3.6771264801854642e-01 4.0275252222056324e+00
      2.8921939993847450e+00 -1.1217042318148946e+00
      -4.8042544521425885e+00 1.8136686442099497e+00
      -2.5655818435135580e+00 4.2185898222119372e-01
      -1.3684489870344494e+00 4.8799127769909784e-01
      5.9222345999645643e-01 1.8039735327807265e+00
      1.2268731953613459e+00 1.2224754961772104e+00
      -2.6212387624609810e+00 -9.1279953718783269e-01
      -4.4300558036000842e-01 -6.2514399527178766e+00
      -1.4277324970954891e-01 1.3510106719273061e+00
      -4.4490468150927592e-01 -7.9378127308265545e-03
      -3.3808402686151512e-01 -3.8832795521716801e-01
      6.8567417457550883e-01 2.7830057379026516e+00
      6.6907514327321504e-01 -3.1475180412199816e-01
      -2.6700371568261736e+00 -3.2048467834514727e-01
      -1.0445073329751121e-01 6.4209315999064087e-01
      -3.6458587627619687e+00 -3.0559821726606176e+00
      3.4721631181460516e-02 -9.9861501492554150e-01
      6.2783615303550788e-01 1.0411788949022942e+00
      -6.8879926536841385e-01 -1.6336512488709911e+00
      1.5059255485091727e+00 -2.4514201320316542e+00
      1.1791804913325870e+00 -6.0257546902568926e-01
      -5.1802481535805744e-01 -1.1108217185044471e+00
      9.6947013827186468e-01 -3.2848056182298424e-01
      4.6349333127415698e-01 9.2703799160560563e-01
      4.1553947531806958e+00 1.4250176384812754e+00
      1.2957605334108018e+00 -4.7227111457207649e-01
      4.3819072126129915e-01 8.9624700763137766e-01
      9.1289479112163008e-01 1.1247188137521233e+00
      2.2714376668144043e-01 2.8635119048535231e+00
      -3.0036037519065388e+00 1.0733110995306425e+00
      -3.6084558933128275e-01 7.6316602384357968e-01
      2.4855607437692023e-01 1.2756010314479347e+00
      -1.9482404027209035e-01 -2.3130098033822009e+00
      1.0105151890733981e+00 1.2929913414796584e-01
      -1.3548027529620834e+00 -2.6575235997174773e+00
      2.8242208028461740e-01 5.9909176731591107e-01
      1.1870126094128117e+00 -4.5547274379165206e+00
      -2.8705206165436586e-01 5.9280732169660455e-01
      9.5025186497088598e-01 1.6493356450390375e+00
      -4.7367540723547673e-02 6.4202308464367230e-01
      4.6666117029954080e-01 3.4781506215981067e-01
      9.2346050473166763e-01 2.2382621546788570e+00
      2.3488079092998428e+00 -1.0246907259197591e+00
      -1.0645401930518410e+00 6.8008466293295444e-01
      5.9888382218381797e-01 3.8874887268868313e-01
      3.0716821526478783e-02 -1.6492828054224729e+00
      -7.5038288644850148e-01 1.2198380108719526e+00
      -2.2392126304218745e+00 -2.5181011561792186e+00
      3.6661309515034985e+00 -1.9542127589253313e+00
      -1.7808618514207000e+00 1.0019823409246573e+00
      1.3896458388387209e+00 6.8751105302999904e-01
      -5.8553203828952616e-01 -1.8277620891607012e+00
      -1.5175803858079346e+00 5.6298631554583478e-01
      -1.5477905356680982e-01 -6.0526118342572333e-01
      2.8023185696219564e+00 6.1131217846305923e-02
      1.0720281343156997e+00 -5.0109720464204921e+00
      3.4056337758152322e-01 -1.3350197424471917e+00
      3.7176655155614186e-01 -1.8731436993425118e-01
      -1.2137501378123920e+00 3.5707791338959050e-01
      -5.0187175068960510e-01 2.4314360882275432e+00
      -1.1930612934830060e+00 1.2364951655874206e+00
      -6.5890870705979288e-01 1.5659560318294028e+00
      -5.6633796328391128e-01 4.2286480048988793e+00
      3.3354162453711380e+00 -3.4737800557596863e+00
      2.4917079571085168e-01 -9.1533101147991902e-01
      5.0727770081931478e+00 -3.9084522251733977e+00
      3.1717251807422469e+00 1.2636661208722721e+00
      1.7743340650483164e+00 -3.6531487903636684e-01
      4.3857498760283053e-01 -1.4665518880748829e+00
      -1.7552826642460140e+00 -2.8466947291748426e+00
      1.3430208211090713e+00 6.4921604618762874e-01
      2.0288557555498716e+00 4.2876744610848174e+00
      1.9658027869272294e+00 -1.6276183992808568e+00
      -5.3782386560533912e-01 5.9265424193790817e-01
      8.5094173205279955e-01 8.2205392251980292e-01
      -3.6341336971977195e-01 -1.0538121009348842e+00
      -9.5138110093075468e-01 -4.8797836411699241e-01
      3.7167743248903298e+00 1.4940626081151858e+00
      2.3150896456447470e+00 -1.1881033628247002e+00
      4.8548074364112120e-01 3.4660144377304998e+00
      6.2777773666702374e-01 1.8049443408567893e+00
      3.3199473688407843e-01 8.8754976074340231e-01
      1.6774472527477029e+00 1.1226394040881036e+00
