<?xml version="1.0"?>
<opencv_storage>
<opencv_ml_ann_mlp>
  <format>3</format>
  <layer_sizes>
    108 128 128 31</layer_sizes>
  <activation_function>SIGMOID_SYM</activation_function>
  <f_param1>1.</f_param1>
  <f_param2>1.</f_param2>
  <min_val>-9.4999999999999996e-01</min_val>
  <max_val>9.4999999999999996e-01</max_val>
  <min_val1>-9.7999999999999998e-01</min_val1>
  <max_val1>9.7999999999999998e-01</max_val1>
  <training_params>
    <train_method>BACKPROP</train_method>
    <dw_scale>1.0000000000000001e-01</dw_scale>
    <moment_scale>0.</moment_scale>
    <term_criteria>
      <iterations>100000</iterations></term_criteria></training_params>
  <input_scale>
    1.1777843299092067e+01 -2.7522417997607898e+00
    9.7322473340849101e+00 -1.5478208730378678e+00
    1.2131290109685350e+01 -2.8003035674480907e+00
    1.2153864581668241e+01 -3.1295081345171907e+00
    8.7434557768869787e+00 -1.4178508924873754e+00
    1.3243227126788886e+01 -3.4865541906670678e+00
    1.7984701046687217e+01 -5.9207932387306572e+00
    1.3772871638918657e+01 -4.3302369724836840e+00
    1.5102680392165350e+01 -4.8450877922709719e+00
    2.1476293270323325e+01 -7.2355250002325064e+00
    1.1461399345890705e+01 -3.4864384189494122e+00
    1.8124741040929219e+01 -6.0000456016096528e+00
    1.1558873401230445e+01 -2.7468515371519464e+00
    9.1251227439791229e+00 -1.2334107931162250e+00
    1.1238401078038304e+01 -2.7271895802422641e+00
    1.2828745193729958e+01 -3.5941872404085831e+00
    9.4547263138002027e+00 -1.1918742298754512e+00
    1.2274355224988227e+01 -3.1831956555128755e+00
    1.9218934091429258e+01 -6.4933397353234374e+00
    1.0129907979304173e+01 -2.8845784053001045e+00
    1.7298838707961963e+01 -5.7847817967479234e+00
    2.0591466041922509e+01 -7.0128732504031763e+00
    9.7668777832596874e+00 -2.7582878314812080e+00
    2.0910064124141222e+01 -7.1279514976111704e+00
    1.2625829408423707e+01 -3.4419250850955403e+00
    1.0469595624413092e+01 -1.0213239871243209e+00
    1.2071219736838184e+01 -3.0833700478399213e+00
    1.1233679003309573e+01 -3.1150515605638920e+00
    1.0414404291977039e+01 -1.2829049788264910e+00
    1.2428690497782007e+01 -3.3574014345872714e+00
    1.9180637762758959e+01 -6.5836382729447642e+00
    9.3846758994554040e+00 -2.2496073380395698e+00
    1.9060533948835339e+01 -6.5274343387690479e+00
    1.8885479655811292e+01 -6.4749752514080532e+00
    1.1310934566704493e+01 -3.1646461178191267e+00
    1.9832076534205196e+01 -6.8161886093140573e+00
    1.5901934815588469e+01 -4.4033083648284865e+00
    1.3618476779815479e+01 -3.8386725127927361e+00
    1.4071007055576409e+01 -3.7118796759439978e+00
    1.7981873983255074e+01 -5.1431852017396178e+00
    1.2046598061133036e+01 -3.3474195797272759e+00
    1.6821306798367807e+01 -4.7111877942253111e+00
    1.5094010401080810e+01 -4.1289684392834705e+00
    1.3792170450583292e+01 -3.9480793038106614e+00
    1.8158234676372597e+01 -5.1861448791748304e+00
    1.7481973320035856e+01 -4.9400142162884970e+00
    1.1266343592985319e+01 -3.0648684399643096e+00
    2.0647168563769796e+01 -6.1029427588874627e+00
    1.5137431883572839e+01 -4.1779188182571447e+00
    1.1020823391915814e+01 -2.9003035963625909e+00
    1.4545400131572885e+01 -4.0240570938946991e+00
    1.6993792269322437e+01 -4.9220839904886500e+00
    1.0704310373288401e+01 -2.8080582980899442e+00
    1.7154300601820960e+01 -4.9596017862026223e+00
    1.5690311773025549e+01 -4.4177478090169000e+00
    1.0518014280043616e+01 -2.7523694813305855e+00
    1.7631008419323447e+01 -5.0650840356533466e+00
    2.1490180038977766e+01 -6.4304464983313387e+00
    1.0226427736642380e+01 -2.6601534646997607e+00
    1.9899133342661987e+01 -5.8886524418559674e+00
    1.5021705708385715e+01 -4.3783411654965354e+00
    9.8870585446250185e+00 -2.1053903070008317e+00
    1.5422180089816440e+01 -4.4618849711580957e+00
    2.0108389744906116e+01 -6.1059906539113618e+00
    1.1163808489395549e+01 -2.7711876406919189e+00
    1.8973488625788359e+01 -5.6698302427613747e+00
    1.7686987794064688e+01 -5.2698236269129506e+00
    9.5473027950727971e+00 -2.0806881122995731e+00
    1.7722241503249261e+01 -5.2484857459597336e+00
    2.5603550702976761e+01 -7.9840633311515807e+00
    1.0385872951067814e+01 -2.5871927860373689e+00
    2.3971771524543438e+01 -7.3626995762246867e+00
    1.3638961504157450e+01 -4.4587396786450002e+00
    1.1113025597751941e+01 -3.3317591462976983e+00
    1.7021195758324090e+01 -5.8317679172440346e+00
    1.7614963710362805e+01 -6.0572155940237078e+00
    9.1469734707140589e+00 -2.5230082829421172e+00
    1.8198918079278858e+01 -6.2645246345630650e+00
    1.0173093394304981e+01 -2.2698133806500858e+00
    9.7284754348048939e+00 -1.2166284974736639e+00
    1.0921119765639158e+01 -2.6600407411961329e+00
    1.0758252046566302e+01 -2.8275716903269998e+00
    9.2797947950571906e+00 -1.0734049128283469e+00
    9.5695367786207015e+00 -2.4841579421458144e+00
    1.5273570734875399e+01 -5.1863651509928390e+00
    8.5491357618346075e+00 -2.1484568379519704e+00
    1.5529312093912552e+01 -5.3857695464502315e+00
    1.8839796467138690e+01 -6.6582630131418457e+00
    8.1538942779570132e+00 -2.1656946044334338e+00
    1.6740193703566320e+01 -5.8388302879520468e+00
    9.5272465236995068e+00 -2.3400423278078897e+00
    9.7458158638655146e+00 -9.5728113225415423e-01
    1.0139310032871684e+01 -2.4434425083592886e+00
    1.0929134228327600e+01 -2.8494677575140837e+00
    9.3414426081395465e+00 -1.0632401240548155e+00
    1.0378355724886523e+01 -2.6994944021434062e+00
    1.5989988221485392e+01 -5.6633227886501789e+00
    7.5893586812066607e+00 -1.8410822183036732e+00
    1.5905296264078087e+01 -5.5868693067564577e+00
    1.6331697115045227e+01 -5.6820172989139435e+00
    9.1380945912383353e+00 -2.4093256117298534e+00
    1.4351964091923804e+01 -4.8787088275337585e+00
    9.9797232468347019e+00 -2.5096602554309562e+00
    8.6605850921570440e+00 -9.7735106214485035e-01
    1.0385579169951281e+01 -2.5565713077935701e+00
    9.2624480228578037e+00 -2.2348711526526182e+00
    9.1002627058709660e+00 -1.0775681346711765e+00
    8.6069425193377480e+00 -2.0744420940345338e+00</input_scale>
  <output_scale>
    5.2631578947368418e-01 4.9999999999999994e-01 5.2631578947368418e-01
    4.9999999999999994e-01 5.2631578947368418e-01 4.9999999999999994e-01
    5.2631578947368418e-01 4.9999999999999994e-01 5.2631578947368418e-01
    4.9999999999999994e-01 5.2631578947368418e-01 4.9999999999999994e-01
    5.2631578947368418e-01 4.9999999999999994e-01 5.2631578947368418e-01
    4.9999999999999994e-01 5.2631578947368418e-01 4.9999999999999994e-01
    5.2631578947368418e-01 4.9999999999999994e-01 5.2631578947368418e-01
    4.9999999999999994e-01 5.2631578947368418e-01 4.9999999999999994e-01
    5.2631578947368418e-01 4.9999999999999994e-01 5.2631578947368418e-01
    4.9999999999999994e-01 5.2631578947368418e-01 4.9999999999999994e-01
    5.2631578947368418e-01 4.9999999999999994e-01 5.2631578947368418e-01
    4.9999999999999994e-01 5.2631578947368418e-01 4.9999999999999994e-01
    5.2631578947368418e-01 4.9999999999999994e-01 5.2631578947368418e-01
    4.9999999999999994e-01 5.2631578947368418e-01 4.9999999999999994e-01
    5.2631578947368418e-01 4.9999999999999994e-01 5.2631578947368418e-01
    4.9999999999999994e-01 5.2631578947368418e-01 4.9999999999999994e-01
    5.2631578947368418e-01 4.9999999999999994e-01 5.2631578947368418e-01
    4.9999999999999994e-01 5.2631578947368418e-01 4.9999999999999994e-01
    5.2631578947368418e-01 4.9999999999999994e-01 5.2631578947368418e-01
    4.9999999999999994e-01 5.2631578947368418e-01 4.9999999999999994e-01
    5.2631578947368418e-01 4.9999999999999994e-01</output_scale>
  <inv_output_scale>
    1.8999999999999999e+00 -9.4999999999999996e-01
    1.8999999999999999e+00 -9.4999999999999996e-01
    1.8999999999999999e+00 -9.4999999999999996e-01
    1.8999999999999999e+00 -9.4999999999999996e-01
    1.8999999999999999e+00 -9.4999999999999996e-01
    1.8999999999999999e+00 -9.4999999999999996e-01
    1.8999999999999999e+00 -9.4999999999999996e-01
    1.8999999999999999e+00 -9.4999999999999996e-01
    1.8999999999999999e+00 -9.4999999999999996e-01
    1.8999999999999999e+00 -9.4999999999999996e-01
    1.8999999999999999e+00 -9.4999999999999996e-01
    1.8999999999999999e+00 -9.4999999999999996e-01
    1.8999999999999999e+00 -9.4999999999999996e-01
    1.8999999999999999e+00 -9.4999999999999996e-01
    1.8999999999999999e+00 -9.4999999999999996e-01
    1.8999999999999999e+00 -9.4999999999999996e-01
    1.8999999999999999e+00 -9.4999999999999996e-01
    1.8999999999999999e+00 -9.4999999999999996e-01
    1.8999999999999999e+00 -9.4999999999999996e-01
    1.8999999999999999e+00 -9.4999999999999996e-01
    1.8999999999999999e+00 -9.4999999999999996e-01
    1.8999999999999999e+00 -9.4999999999999996e-01
    1.8999999999999999e+00 -9.4999999999999996e-01
    1.8999999999999999e+00 -9.4999999999999996e-01
    1.8999999999999999e+00 -9.4999999999999996e-01
    1.8999999999999999e+00 -9.4999999999999996e-01
    1.8999999999999999e+00 -9.4999999999999996e-01
    1.8999999999999999e+00 -9.4999999999999996e-01
    1.8999999999999999e+00 -9.4999999999999996e-01
    1.8999999999999999e+00 -9.4999999999999996e-01
    1.8999999999999999e+00 -9.4999999999999996e-01</inv_output_scale>
  <weights>
    <_>
      7.3336263596466528e-02 7.8880754178534251e-01
      4.3451535302496053e-01 -1.0163717365288376e+00
      3.2949686422899283e-01 -9.9829518952796681e-01
      -2.6860264940002110e-01 -6.2654990171410863e-01
      -1.4188901609125223e-01 -2.0017952258405242e-01
      -6.7946626034726143e-01 4.7371967970245782e-01
      -2.1297923898585486e-01 -1.8828067852191477e-01
      8.1324051747417910e-03 6.1254455757015003e-01
      3.6785229916971035e-01 -7.3961741789371771e-01
      4.9773257237567836e-01 -1.1239911370718066e-01
      6.4963116679446820e-02 -6.4766619599968855e-01
      -6.8866682191525405e-02 -5.0231899051432505e-01
      1.4888254864507330e-01 4.1397192362069080e-01
      6.7672973696780825e-01 -1.9350810734161294e-01
      3.1029990794712797e-01 -4.1512353054544393e-01
      8.2950043458815004e-01 7.4878855451658399e-01
      -4.2617563538253278e-01 4.3366902041270938e-01
      -6.5805057929199096e-01 -3.1336915217817701e-01
      -1.2670215873530761e+00 8.0255383067962427e-01
      8.4282454750826283e-02 4.9403548900946331e-01
      -7.0359728422545931e-01 1.6937002724280625e-01
      -1.3707850208626415e-01 -4.4345518784068705e-01
      9.8147243936402784e-01 -5.2161001049821942e-01
      1.1872065100578594e-01 5.3074006551667656e-02
      -4.9438991292240542e-01 -1.1463439828693049e+00
      4.5669837582560485e-01 2.9607747363403980e-01
      3.3901235103162330e-01 1.5006730702936717e+00
      -4.9291494819245574e-01 9.0038174646690727e-01
      -8.7920055511069661e-01 3.6911386315891154e-01
      9.8066526844656055e-01 -3.6163900395505438e-01
      1.7602056061162925e+00 -7.7026907738657546e-01
      5.5972430614435416e-02 1.0778862034362073e+00
      1.3918738475815051e+00 -1.1024358052215177e+00
      8.0868961806740858e-01 -1.8122335415274502e-03
      2.4531684682023555e-01 3.2969652652504754e-02
      4.9774599381627677e-01 1.6472118331547811e+00
      3.3727279210589772e-01 -4.8406734554399911e-01
      -9.0000551424680844e-02 -3.2994007735233827e-01
      2.9050709831295152e-01 -7.7702010303660987e-02
      6.4987362658788039e-01 5.5065227750383569e-02
      -1.5978644029924904e-01 1.0649934005677286e-01
      5.4448807690980405e-01 -8.1517049862469826e-01
      -5.0785044248485040e-02 -4.6813302242110172e-01
      -6.4395771825549974e-01 3.4752086255820330e-01
      -7.1481228466588539e-02 4.1450554287891178e-01
      -6.5418275683309479e-01 -5.4067471212434648e-01
      7.9007008455320049e-01 4.5457008672759669e-01
      1.9744448405076163e+00 -3.9699229216874893e-01
      -7.2712213594509767e-01 7.9568079429188943e-01
      8.0449586073679163e-02 -7.7459063788643967e-01
      1.1892385876129151e-01 9.7416952869489370e-01
      1.7049167191155910e+00 5.1869096270829906e-01
      -2.7771567064261427e-01 7.4320490707333708e-01
      -1.1533445796080037e+00 -1.6023480802636178e-01
      -7.6032489703918205e-01 -9.3548192610519387e-02
      -8.3331199998969918e-01 -2.0331342142358710e-01
      2.7783314574088008e-01 4.6096549649471857e-01
      -5.6864410137968606e-02 -3.8875606843824989e-01
      2.8800429107855652e-01 9.7959097619406910e-01
      -1.7435431455165795e-01 8.1134246335338678e-01
      -6.8604717241306912e-01 -5.3917281329635625e-01
      4.9761039313832944e-01 -4.1956995203858949e-01
      3.4741006738480662e-01 5.7332556143313573e-01
      9.3409603208403510e-02 2.6746315407659038e-01
      -3.1353839571514602e-01 7.3409367923684812e-02
      1.3564521655595854e-01 -6.1018674566580711e-01
      9.9158977539412413e-02 -2.1413054899234443e-01
      1.0378728790989618e-01 1.5362834588986212e+00
      1.6514998223956495e-01 -2.1200235726418534e-01
      3.2487192931943548e-01 -1.0234298782275975e+00
      1.1142130081449393e+00 2.7295252454926866e-01
      -1.9692028710413617e-01 -3.2216920346502365e-01
      2.3522788447537979e-01 -3.5562935621592096e-01
      1.1343392932547959e-01 4.1286909229811330e-01
      -8.1389981256607413e-01 3.0647420627931837e-01
      -1.5742520065776147e-01 -7.8337244678044404e-01
      7.4427694730550900e-02 -3.0990633959515168e-01
      -2.3348145062090334e-01 -6.8218045816614156e-02
      3.9877304638916683e-01 4.9905830132687901e-01
      3.2327027151212112e-01 2.5003240749625366e-01
      -6.2620601617216964e-01 5.3608148829469504e-01
      2.3532613739684102e-01 -1.6810872745231492e-01
      3.2504586703989824e-01 -8.4895798936597544e-01
      -3.6947640107616891e-02 -5.1085918376346318e-01
      -6.1549136613231741e-02 2.7782574149252798e-01
      -1.4433520164835545e-01 1.6177593020662670e-01
      -3.2802422956175953e-01 1.8140596312267721e-01
      -7.6929973831605075e-02 4.1524446793368430e-01
      3.5035568665305655e-01 1.2797530220979862e+00
      1.8032753888761605e-02 6.3724206322251764e-01
      -1.1058001614928572e+00 1.1605024808391271e+00
      -1.7413691623084593e-02 -8.8458130796919199e-01
      6.7346618372446798e-01 7.0671080732766511e-02
      8.1395322147294835e-01 4.9307961199649175e-01
      -1.1523266673988883e+00 -2.6924316029434592e-01
      -1.0452344761198800e+00 7.4681351158166442e-01
      -4.6532115628876863e-01 5.2823182955653962e-03
      -7.7464749525226043e-02 2.5996768962680794e-01
      6.0235207505998822e-01 -2.8735878424066705e-02
      4.5799443641814719e-01 -1.2647730236462749e+00
      -4.1013563292247324e-01 -8.0194691269723073e-01
      -1.2367994983854180e+00 -5.8381142321694346e-01
      -8.4955744080701015e-02 2.0208458903420579e-01
      2.3131667720274762e-01 -7.3064034979012393e-01
      -2.3222912955252284e-01 1.0368836487130060e+00
      -2.7499202723270010e-02 -4.3237013139317981e-01
      9.3097764193469115e-02 -4.5961596786819697e-01
      -6.5610391106327784e-02 -4.5512809539769167e-01
      2.6008526888925110e-01 -6.7469982227679615e-01
      1.8510469378785284e+00 3.5438950600284597e-01
      3.1594790845446202e-01 1.7261410993387194e-01
      -8.7448112561897962e-01 -6.4973505434973899e-01
      -5.8717824658445522e-02 -1.8403054567623095e-01
      3.5772491308910825e-01 -1.4732561126145499e-01
      1.1733066549958820e-01 1.5501300776539501e-01
      1.8976163612773196e+00 -2.8348545120602453e-01
      -1.0844924594009888e+00 6.9303754411388174e-01
      1.4367164418442173e+00 6.5097524898818682e-01
      -1.3924244682143413e-01 -3.8844810459591156e-01
      1.2116476563883940e+00 2.1260050612607895e-01
      1.0518904276497187e+00 5.0560142064212421e-01
      -7.6654969712235776e-01 -8.7446538028259391e-01
      -5.0622938873336798e-01 -2.4401639246814169e-02
      5.3722991523700658e-01 8.7051188863053408e-01
      8.0683735870196460e-01 -4.8235117613686601e-01
      2.1633541061314654e-01 4.1974580939933531e-01
      1.0605797489182434e+00 -2.0425326419485068e+00
      1.0778481437447132e+00 1.2093319248030736e+00
      1.4107256324372389e-01 7.8213421098348901e-01
      4.2183964809252161e-01 9.3064176425674150e-01
      -6.0802611694102660e-01 7.2229933394993273e-01
      6.0801407503194416e-01 -5.1338952032129426e-01
      2.0373358916402079e-01 -5.5985275553091274e-01
      -5.1796162778630261e-01 1.0156130272831965e+00
      -2.2326888025646263e-01 -5.0773794802577210e-02
      -6.2874081760945477e-01 -8.9113097085737658e-01
      -3.4673805344876818e-01 -3.4282883456274715e-01
      3.9208192672530624e-02 -5.6032229044498050e-01
      1.8381482895507331e-01 -2.4714399867356667e-02
      -4.7453361167229380e-01 7.2779738602406696e-01
      4.3169267918840148e-01 2.4599236008324801e-01
      3.3219032627911405e-01 1.1821394007267085e+00
      4.3876853704396968e-01 -4.7468459131923013e-01
      2.4212602018090260e-01 1.2167244389250094e+00
      -7.7825787245496192e-01 3.4441886287294865e-01
      -2.5167322742588377e-01 -8.6740403022130277e-02
      -1.7063442347680205e-01 4.6126241538409973e-01
      6.6132879843509740e-01 -2.6564867605566402e-02
      -2.4283885021855470e-02 -2.5705703381586431e-01
      1.0284835541280233e+00 -1.0976794648000943e+00
      -4.2216486372122880e-01 2.0871399301514340e-01
      1.3548594253523927e-01 2.3500002545666243e-01
      3.3028661773005230e-01 -2.0849535505794928e-01
      -3.6202653765054299e-01 1.1278129317320960e+00
      -6.0691763416506317e-01 -3.5090852400030742e-01
      7.2219788176925523e-02 3.5567250443289317e-01
      -7.7184184291253632e-01 -5.0853746490042995e-01
      -4.5887653802831196e-01 -3.3537764380879836e-01
      -9.6729421389128808e-02 4.4872585614511040e-01
      9.3163856279901786e-02 9.2847353149951484e-01
      4.7106111816723117e-01 1.9726812484659079e-01
      2.1004047967372549e-01 3.0993805371595649e-02
      2.7788856773367338e-01 -6.3891784558328168e-01
      -6.1566574825058916e-02 -3.5065215934497829e-01
      -3.6571695212001931e-01 4.3910151574160228e-01
      -5.8343010582708710e-01 -9.0718112126382602e-02
      -8.3239287687659064e-02 4.0991626151944904e-01
      1.0164509740006936e-01 2.7164524421388694e-02
      -1.3446594156263345e-01 -5.4276489902010561e-01
      7.7712989388393705e-01 5.8539466615356217e-01
      2.5537898277244542e-01 -1.2392531220429093e-01
      1.1610614048519623e-01 -4.5108541664871327e-01
      -2.2708709491539625e-01 -2.4637251239413846e-01
      -7.7862616501078019e-01 3.0407241396529655e-01
      5.8513932699943172e-01 3.6908690827541063e-01
      9.2548959132939612e-01 4.6262472916877956e-01
      1.6972697946701629e-01 -6.0574066834401052e-01
      -3.1023448775286455e-01 -3.2391388733109450e-01
      4.9343651311663861e-01 -2.1210166568590141e-01
      3.1381142190452160e-01 -5.1053876580063114e-02
      -3.5216874197742692e-01 -7.0059341237628958e-01
      -1.9393750997848547e-01 3.9022094176147083e-02
      2.5075852392744935e-01 3.5151760161575990e-01
      2.2555093774937116e-01 -8.5437119995025790e-01
      -4.3323278618738326e-01 -2.7791134410815937e-01
      6.3695170332983539e-02 -3.2770965979054817e-01
      -4.0417839110824372e-01 4.0133604236683640e-01
      3.7958378071120888e-02 6.2937080309211724e-01
      -6.4082614107945723e-01 3.2768451324174730e-01
      -7.4180644496845416e-01 -4.8848304022776851e-01
      1.3437333394914801e-02 9.4961501588931507e-01
      1.2555027674956492e+00 1.6619850366236685e-01
      -5.2547808714051125e-02 5.7773066634139592e-01
      3.5692213141777995e-01 1.3732789841588289e+00
      -2.7254286459290400e-01 -5.9370125041967237e-01
      -4.0907757044143483e-01 -2.0630564720525243e-01
      7.1938751563650638e-01 4.8894508078648327e-02
      -6.8206032952929274e-01 4.4619742557793107e-01
      -5.4160408567092744e-01 5.4740754388600898e-01
      3.0839789172482246e-01 6.2844293173037424e-01
      4.9935924825410505e-01 -7.1150604834571807e-01
      1.9135876424480572e-01 -3.2048695344287420e-02
      1.0223086606974117e+00 -1.2017881967909831e-01
      7.0411976620092920e-01 -1.5707920916434440e-01
      9.1170765196196102e-02 -2.6395796356436402e-01
      4.4875433085854738e-01 1.2427742495087776e-01
      -5.8069754420311558e-02 5.0155162188313888e-02
      5.8210476107774578e-01 -1.2782870724502834e-01
      3.2479425421226604e-01 -4.8349472243697117e-01
      -2.9615483704591200e-01 9.1856301311262933e-02
      2.4765485113715549e-01 1.1947331016621801e+00
      3.7259460705622371e-01 4.8994898201113951e-01
      5.2458515450244836e-01 3.2270916699786038e-02
      -1.2946220902445156e+00 5.5244032990931424e-01
      5.2632116821110653e-01 -7.5903673825578999e-01
      -4.5340400164567629e-01 -4.7909211957917214e-01
      7.9224388879392895e-04 -1.1448501270943399e+00
      6.0745799305174786e-01 -7.8686911074006904e-01
      3.1604418105437165e-01 -2.4183731035943185e-01
      -1.6312409976377479e-01 -4.4021617030447691e-01
      -6.5757513714628368e-01 -6.8264666986114955e-02
      5.2564040380743138e-01 -2.3701838264773847e-01
      -5.4671616481885062e-03 -6.3074885112204648e-01
      8.7287277245193459e-02 -4.2987698636220378e-01
      5.5105045053546620e-01 6.3262401398792079e-02
      3.5655283131589233e-01 -6.9590716636393601e-01
      1.8900001503042327e-01 -4.2502198719275813e-01
      -7.9197808932220715e-01 3.7475923718276688e-01
      6.4042521413335529e-01 -2.7381511406685105e-01
      -4.8680788580121964e-01 2.4869052813228612e-01
      3.5495649783933331e-01 -3.7394557323027594e-01
      5.8300839413239525e-01 5.0293391034857859e-01
      -3.6409941638809007e-01 -5.9951099379395401e-01
      -2.2195151342276431e-01 -5.0202860101299596e-01
      -2.2636098832408769e-01 4.9203026559521923e-01
      -1.8534593377966044e-01 5.9300465830413385e-01
      1.0213262115533188e+00 7.0281776479754499e-01
      -2.7088145955478371e-01 -1.1850345498081463e-01
      2.8091889266904374e-01 -5.4225231028887588e-01
      2.7087616766702405e-01 -8.2096819577831895e-02
      -2.6260512138393777e-01 2.7866490015989703e-01
      -7.7538504308818235e-01 -3.1012549332035810e-01
      7.2197092275396280e-01 -5.1529111150976629e-02
      -1.2601676672939077e+00 2.3305552705669738e-01
      -6.0368383696084306e-02 2.5001192638177455e-01
      6.5360571393588585e-02 -4.1755802962805211e-01
      -2.2466005270492037e-01 8.0549792400850029e-02
      -8.7790506262751700e-01 5.6420515788608749e-01
      6.7579607154436705e-01 -6.4257492573456199e-01
      1.3000361128498783e+00 -1.7053596212152338e-02
      -4.1898362480871643e-01 -5.0131005695314779e-01
      2.5666706260370742e-01 -7.2650108256386448e-01
      -4.9112350085430872e-03 -7.4800419356394654e-01
      4.8675809584901519e-01 -7.5497868646701771e-01
      6.4589710906601494e-01 -6.4707493733445406e-02
      -3.4044438341130417e-01 -8.5064688131984423e-01
      -5.6475147829101680e-01 6.4783728757652231e-02
      -3.4273836862180707e-01 1.0233944183815835e+00
      -3.2544765760710193e-01 -2.0990471384475318e-01
      -2.3994680453878028e-01 4.3620483238673119e-01
      2.8576793789434751e-01 5.9284996455240757e-01
      7.5778980767157311e-01 -5.3779656668174713e-01
      1.5549725249144819e-01 -2.9493195644215003e-01
      -2.8480968088363739e-01 -7.5939503740309680e-02
      2.8138083110979456e-01 -1.0285130742402372e-01
      4.2017539353087918e-01 2.7801321114969874e-01
      -1.6611000213713978e+00 -8.1725664573932821e-02
      1.2381727123586048e+00 1.3025801052442960e-02
      -4.5874048876407991e-01 -1.2659069799725572e-01
      -1.6411382597709315e-01 9.6059643395308014e-01
      5.8396225701732396e-01 9.2708051694306251e-02
      -8.9196519937294738e-01 3.2931117228992050e-02
      2.0369459489378772e-01 5.5670230790304487e-01
      6.6244986324332872e-02 -2.9424389307199555e-01
      4.1821874532677145e-01 -1.7334229034885755e+00
      3.9225426611219533e-01 6.2743693870823208e-02
      1.3477319451251919e+00 -9.0321455174441112e-01
      2.3190764572743056e-01 1.0056335275657940e-01
      -3.4020310349358408e-02 3.5274676661511406e-01
      5.1234198889436056e-01 -7.7991391739158755e-02
      1.7914761220295661e+00 1.5638931231944455e+00
      2.0323538098548402e-01 1.3101618342954282e+00
      -1.0937284522827095e+00 7.9377742300051024e-01
      5.6197434546976144e-01 5.6547785117949730e-02
      -6.5582795758616486e-01 8.4455711873219430e-02
      -1.2088667053990407e+00 2.3720483417950536e-01
      7.7547243699091273e-01 2.8953182937418009e-01
      -5.6164257165776188e-01 -8.4554062206167202e-01
      -9.0374695860952137e-01 -5.0208608017947198e-01
      -9.4991359468247238e-01 4.8230754366138767e-01
      4.3721126161782098e-01 -5.5911720128564313e-01
      -7.5073602158999186e-01 1.6362780979668093e-01
      -6.5336810641005383e-01 1.0544030899456212e+00
      6.3183067349469924e-01 -4.3032221412499577e-01
      8.4790941065836040e-02 -1.4744716142336714e-01
      -8.0396485081834412e-01 -5.8849520374723285e-01
      -1.1040851541159933e+00 9.2725606789158799e-01
      -5.1678723036771880e-03 2.0065270383497358e-01
      8.9884619087508877e-01 6.5537662220471660e-01
      -3.6233931025509902e-01 1.2275383694434486e-01
      -7.0782406383964092e-01 -4.5997868876846093e-02
      2.4142036910469392e-01 3.8373750177764160e-01
      2.9557950546549083e-01 -1.3565334866050116e-01
      -1.1408626161114892e+00 -2.0257956650779071e-01
      8.9677748544490710e-01 1.7617340112109095e-01
      1.3018277347005033e-01 2.9513664100216436e-01
      -1.2006614279605449e-01 -5.2792724684541081e-01
      -5.0174939193408874e-01 8.3031511650779377e-01
      3.1383616397662650e-01 -7.9892076453074812e-01
      -3.4896260269196372e-01 1.4574391054133389e+00
      3.8026268373646899e-01 -3.5291047614988391e-01
      8.6190061433213994e-01 -8.5373986922928191e-02
      2.8340513721381283e-01 5.2643187186738549e-01
      -9.0478970759025756e-01 1.0048059468679384e-01
      3.7542651269820974e-02 1.8039385087086685e-01
      1.9890252709910511e-01 -2.1618521206515870e-01
      -1.4149436817193220e-01 3.0176748609194554e-01
      3.6705807233309196e-01 9.7095047132296874e-01
      9.1370519650504678e-01 -5.9769965734117914e-01
      6.6928984480368681e-01 -9.2203111040082297e-01
      8.9024385881379187e-01 3.1911257370446111e-01
      2.3108398247228523e-01 6.7585175958879617e-01
      -7.1808937869958644e-01 -6.4331743487190718e-01
      1.8855458716725146e-01 -8.3497826564331856e-01
      5.5811058659308088e-01 -1.8809464742894860e-01
      4.2189885725637105e-01 3.7537057810548818e-01
      -6.8379676081878660e-01 2.9106735445184562e-01
      2.7939257104950810e-01 -2.8760691355597906e-01
      1.9653795241643177e-01 2.8493118464235501e-01
      -1.5489599475385178e+00 -5.5954931254608609e-01
      3.7590490246026903e-01 -4.8208095567330878e-01
      -2.3726877449598704e-01 3.9239148533585999e-01
      3.8671559416240769e-01 -1.6306736177415043e-01
      5.9273686643531376e-01 1.1181135135605102e-02
      4.2816359821117853e-02 -7.6319994723541007e-02
      -1.1619410884427754e+00 3.3957076986960344e-01
      4.3387419934958660e-01 2.3962396160224819e-01
      -8.1756556177864925e-01 -1.7852450494826186e-01
      1.1480847392967677e+00 6.2118942101790220e-01
      -5.4538242740302245e-01 7.4268390554876162e-01
      8.3125844915754421e-01 1.3726190246786937e-01
      1.8492705026366149e-01 -1.6835224193476891e-01
      6.5006214112860428e-01 -2.7173667131114302e-02
      7.0950354021123513e-02 -3.9182397032348443e-01
      1.5162277516899295e-01 -6.9119393566625886e-01
      1.2136451073294812e+00 -2.0796615323056669e-01
      4.7972437913279253e-01 4.4766158704797698e-01
      -4.3512356524059093e-01 5.1754299733055142e-01
      -1.2577516355794394e+00 -4.0362392093062760e-01
      -3.2380330183871925e-01 -4.3561986178046802e-01
      9.4621631696238739e-01 5.9898314602815528e-01
      5.5179087364069968e-01 -5.9953846053143134e-01
      5.5538577595360028e-01 -3.1383214540286247e-01
      -5.7306518551542041e-01 1.6108804184787123e-01
      -3.0920086515004760e-02 -6.6522802327247754e-01
      -8.9081891089807663e-01 4.9979938126005852e-01
      6.8147546436541240e-01 3.5546049659902984e-01
      -3.5461364891819802e-01 5.2249628525220970e-02
      -2.0030832469994095e-01 -4.8456562676973941e-01
      1.1660341245610299e-01 -3.4767408127031371e-02
      5.6787695552619777e-01 -1.5128414787087958e+00
      7.2265520099213582e-02 -9.0616790319175033e-01
      -3.8943056740436516e-01 1.0225992906053097e-01
      -4.8726811838425510e-01 7.9258683605450786e-01
      -9.7137916706006622e-01 3.8699178256387906e-01
      -7.2137706433484161e-01 -1.8255671726450806e-01
      4.5424411762419364e-01 -6.5575666648142947e-02
      1.5112604161356746e-02 4.6191474443832026e-01
      -1.0493964105801765e+00 2.0422939340049906e-01
      8.4194452844727527e-02 6.2402610269382797e-01
      7.9944359824310685e-01 -2.3589260854316485e-01
      -6.0287615080205847e-01 5.7016360228302698e-01
      8.1522051725207156e-01 -8.1223190639379328e-01
      -2.3499599841955127e-01 -6.5503383429370765e-01
      -5.2428936493058353e-01 -4.0930379423008101e-01
      -2.9862282842475885e-01 6.8323522103869960e-01
      8.0150444535025867e-01 -2.6632895274406970e-01
      9.2253419229696210e-01 1.7782038101140710e-01
      -2.1192430755296789e-02 5.8880101263666745e-02
      -4.3859880444252292e-01 -3.7087897787726265e-01
      -6.5468729028282913e-01 -9.0931383027471235e-01
      1.3952693352114709e+00 -6.3977875784304594e-01
      2.4517671449489156e-01 1.3727155173352221e-01
      -2.4459269790340030e-01 -6.0908695322688200e-01
      -4.9658775604577632e-01 -1.1914332226934519e-02
      -3.4659244318222981e-01 -4.7462176603586698e-01
      -4.5968175596527366e-01 3.9614855223897638e-01
      -1.7996167372146565e-01 -2.6011362096075086e-01
      -6.3229532179036582e-02 -4.1627648124453587e-01
      -1.4471556083250589e-01 4.8527568587704206e-01
      -5.4470490823968043e-01 -4.7842926744970732e-01
      -6.0259197596955172e-01 2.2312014539241593e-01
      -1.5258949505010738e-01 4.8541611500948589e-01
      1.0691125047867429e+00 5.1551753243065702e-04
      -8.8177906065137612e-01 -6.2566397746973634e-01
      -7.0515220742176166e-01 -3.9598495202494643e-01
      5.7660463368097248e-01 -8.1363149247645483e-02
      1.9438487067997978e-01 9.3085031125280504e-01
      -1.7210381705770991e-02 -2.4275179325010465e-01
      -1.3457135879098608e-01 -5.9439616814544760e-01
      8.7984982381367938e-01 -2.0062533817716793e-01
      3.5710310262767242e-01 1.3205998511945424e-01
      -8.9932733500059570e-01 -5.6510539679602367e-01
      -7.3701156459678074e-01 -6.7419778728134361e-01
      -3.2065726339603629e-01 7.2717226507563870e-01
      1.5200150451448310e-01 4.6326995202620153e-01
      -7.7242569907587300e-01 -1.9097905938483914e-01
      3.7193575096990589e-01 6.4345511175833467e-02
      -1.2408573339182885e-01 -8.7285158876064128e-01
      1.7960860544660720e-01 7.0806645452900441e-01
      -2.5867798845097850e-01 -4.6293165234103778e-01
      5.6787020490765283e-01 2.2523336178816200e-01
      -5.0986788523078530e-01 -3.9664856527052306e-01
      6.1465666697548316e-01 7.0974885158744797e-02
      2.4129263600668605e-01 -1.4494862822510066e-02
      3.5678878287294415e-02 5.8493645068879807e-01
      -6.7011155835292746e-01 -2.5116147193969218e-01
      -2.2411152642714677e-01 1.0260752428442711e-01
      3.0934596013569521e-01 4.3987580550521066e-01
      2.5547140651063655e-01 2.6280722916749283e-01
      -3.3668069197014087e-02 8.4598972199531122e-02
      7.5863631925077968e-01 7.3128280786750169e-02
      -5.1358314591818621e-01 2.7174320541396968e-01
      -1.9545568925303514e-01 4.0295467254878931e-01
      6.3344403287683565e-02 -5.7038971647690961e-01
      5.9940857074630993e-01 8.9811788843163154e-02
      -3.9948293999647660e-01 -3.6536644734804433e-02
      1.9709801496911519e-01 -5.4604438927059051e-01
      1.0016569420363797e+00 -7.0348479192386093e-01
      -6.0740964910608619e-01 -1.4406585872460015e-01
      4.9864547374466212e-01 1.5279047338165772e-01
      1.5669676046728806e-01 2.1319070185491903e-01
      -5.0959495947107036e-01 -2.1810007349589773e-02
      9.8480582429496466e-01 3.9621756723859913e-01
      -3.5882062280806126e-01 4.1184815747140757e-01
      7.1845405239563187e-01 2.9903739107682947e-01
      1.0510518151271259e-01 3.6200042416136575e-03
      -6.7460433819822596e-01 -8.1809358657777020e-01
      -3.5211587299211605e-01 5.5322792650266028e-01
      -3.8240362362910735e-01 -1.2690372148226545e-01
      -1.3987056751334365e-01 -8.9452139699332367e-01
      -6.2704136345324890e-01 2.8705864215252286e-01
      2.8604772261420447e-01 8.1096074129570081e-02
      -6.4485550985964965e-02 -7.7368558054921466e-01
      8.0352931195874022e-01 4.1590626627377442e-01
      -6.7860651629637322e-02 5.9401408344740070e-01
      4.4503269069457041e-01 7.4680623071787278e-01
      5.5971187815127017e-03 -9.2946261349402926e-01
      2.5294722789749724e-01 -3.9404673886561925e-01
      6.6382531782408272e-01 -4.6996200992200227e-01
      -2.5121795307397710e-01 7.0569993433879075e-01
      5.3882680714570608e-01 7.9332978052709702e-01
      -4.8189887301067896e-01 6.9606736314179374e-01
      -3.4651212881932780e-01 -1.5811452887442101e+00
      -1.4278869692770860e-01 1.4206064519243047e-01
      -3.9164566028292108e-01 5.9863565399760754e-01
      6.7718837401867538e-01 -1.2290744589527098e+00
      -5.2055351682924611e-01 -1.3048969932571783e-01
      -4.2265205134199513e-01 -2.5824060385525810e-01
      3.1228971918170723e-01 1.1550897618345515e+00
      6.9146049843471569e-01 2.6825515292435143e-01
      -2.4403562659418301e-01 -3.3635009046501940e-01
      -5.4460059405662398e-01 2.1601819987688534e-03
      -1.2848098940931943e-01 -7.6088764059140912e-01
      -1.1778940687414519e-01 -8.4529826212281300e-01
      -6.1311546195899325e-01 -5.2786762212157249e-03
      -7.0395186167253898e-01 3.0589648208230302e-01
      2.8055435511513110e-01 -7.6270774091065319e-01
      -7.6199305829567340e-02 3.4174929959025557e-01
      -9.7667370753564198e-01 -2.0113198772201474e-01
      -7.0667954943382641e-02 -7.7189911057339577e-01
      6.5423928849026050e-02 2.1172423210626118e-01
      -1.9654280813497172e-02 1.6355771501074251e-01
      4.0859945772562428e-01 7.9728671256432432e-02
      4.4858213697237331e-01 -9.3378910292090544e-01
      -1.0167978759383150e-02 2.3954273531651284e-02
      2.4383047091286412e+00 -7.1823527314693314e-01
      8.6796574559666106e-01 -4.3390396230223144e-02
      -4.1090465255634007e-01 -1.9215105338274772e-02
      -8.0474331288018308e-01 -1.1898750931028099e+00
      2.7572021674169313e-02 1.2397097606510219e+00
      9.0873104084604495e-01 2.1831572936669866e-01
      -3.6198655128148804e-01 -3.0153083650076656e-02
      -5.2201741526180012e-02 5.5844068910479538e-01
      -7.5483416570604656e-01 -1.3079342163508900e+00
      1.4852216658548148e-01 5.4525766135922671e-01
      -2.8507123656061223e-01 7.5246461787686914e-01
      5.6867657847863051e-01 -1.8982984429528227e-02
      1.3823040855885547e+00 1.2623080550264636e+00
      4.3609834068024225e-02 4.7492891402629572e-01
      -8.5984465288328460e-01 -3.4318925572076858e-02
      4.9653887556301335e-01 -4.8001275363310553e-01
      1.7898525644684579e-01 1.5771461385465750e+00
      1.2545463406803596e+00 -3.2532046936500519e-01
      -3.1266245936066983e-01 -5.2410172495416574e-01
      -9.1617261164957220e-01 -5.6564258896420394e-01
      4.9728617314853785e-01 -9.9603186280849931e-01
      1.4779512189033107e-02 -3.2834902430393442e-01
      4.8648460024614865e-01 8.6985123947379028e-01
      -5.7579139599099927e-01 -1.1025754906772571e-01
      -1.5175083928970188e+00 6.2026684093085871e-01
      4.7419058575165751e-01 1.4405534804236952e+00
      1.2809275533568765e-01 9.4565595919121659e-01
      6.1735039078981502e-01 4.9256192459585704e-03
      2.4948782803598116e-01 6.6470381539452972e-01
      -2.2630152422627939e-01 1.1887460139568591e+00
      -4.7629423298431317e-01 -4.4360420294574832e-01
      7.2310655011612668e-01 2.9657163739173736e-01
      2.8070729524146959e-01 1.0019977592792493e+00
      4.9659804913942601e-01 -1.2163793369009213e-01
      -1.4125923207448305e-02 -4.3805851404734925e-01
      -6.9188924766142235e-01 -2.3298381978672689e-01
      1.5423720750356013e-01 -1.6441438397774316e-01
      -5.5777042642182084e-01 4.7829291016525266e-01
      -9.5268498081198943e-02 -1.0429353798594397e-01
      3.2804458661986075e-01 9.8424942178336097e-02
      3.4601261324638294e-01 -8.5259518901134512e-01
      1.4732376200464931e-01 9.2111286396777958e-01
      -1.2029629861485736e-01 -2.1997382265922757e-01
      -4.2158046432635798e-01 -3.4197967589046641e-01
      1.6846393602830506e-01 5.5688488351083476e-01
      2.6539912918369307e-01 -6.0575922406429961e-01
      -6.3585036802425166e-01 -3.1395639738440134e-01
      4.2896358295746017e-03 -1.0522458587165837e-01
      -9.8234291935238349e-01 -5.5601037360376131e-02
      -2.3833445647339978e-02 1.3895496316783068e-01
      3.0523688063807872e-02 -3.9715971108131881e-01
      -3.5227774410565121e-01 -2.5767701713472835e-01
      6.0464326087507514e-01 -4.0693246480977474e-01
      7.6597805220706372e-01 -6.2487967726074700e-01
      -1.3411508725347021e-01 2.5489170023826162e-02
      -1.6125199511868308e-02 -4.1831742407689743e-01
      2.3266163155830588e-01 -2.2480833720469784e-01
      4.0472379100636952e-01 3.0210355048022880e-01
      4.8028021481399918e-01 8.6754786602132994e-01
      6.6376555385547298e-01 -2.2954459590166483e-03
      5.4535609172505894e-01 -3.4240005390014877e-01
      -4.8761938781623226e-01 -8.0607203488786382e-03
      9.7281763392513343e-01 -8.1079277073281775e-01
      2.0187820034800796e-01 4.2823048983408087e-02
      -1.0673656344191804e+00 -3.8704536998597128e-01
      6.3106431472325267e-02 1.9642204152288234e-01
      2.8476968722954837e-02 -1.2572990982942883e-01
      2.3748001431896640e-01 4.4807092398430259e-01
      -2.4870771574392037e-01 7.9237827983415643e-01
      1.5633756562848936e-01 -5.0974516792661385e-02
      -4.2673621635026338e-01 -2.9258440984318340e-01
      -4.5406769201113256e-01 1.6914790789860976e-01
      -7.7465439516013253e-03 6.3636157853196773e-01
      1.8186651968816359e-01 1.9163182076662269e-01
      -2.8857935809282992e-01 -2.6974531860221340e-01
      -2.4070521879870718e-01 -6.7207765885263698e-02
      3.3223768870168496e-01 -2.7530492746086371e-01
      1.0049224555851171e+00 -2.3375567847973155e-01
      7.1885569213538580e-01 -1.6835564943487671e-01
      -7.9871292231288871e-01 -3.6246913596249664e-01
      -9.7058675905556935e-01 -2.5849831095091175e-01
      -2.5552354899769270e-01 -1.2721912182076650e-01
      5.9322659745281836e-01 -1.1397325561406053e+00
      5.9844534467334010e-02 3.7745332881462153e-02
      -1.2238045716001461e-01 5.7928597475056443e-01
      5.3417243770949852e-01 2.6049126086280699e-01
      -2.7027584974555080e-01 -3.8500854309640270e-01
      -4.5709908035829372e-01 -1.7639333734632179e-01
      1.0207470997786594e+00 -3.1958440318837777e-01
      -1.1333688402302906e-01 1.0143625851940710e+00
      7.4366784602353242e-01 4.8603409690154953e-01
      1.1383797872171530e+00 8.2265565485659564e-01
      3.9936660914726740e-01 4.4321495483926172e-02
      -2.9781980545690218e-01 -1.1724118669758890e-01
      8.0359301513207804e-01 5.1107283483514586e-02
      2.3992637111932727e-01 2.3074463125292355e-01
      3.4395939836331008e-01 1.3342632491545356e-01
      -2.7600745422411466e-01 -2.6691059574899301e-01
      -3.5189560278020456e-02 2.3479405970683870e-01
      5.2063447774715532e-01 -6.2977506701435138e-01
      -5.6046942975907343e-01 -6.7277016926395206e-01
      -1.7914319724183372e-01 -9.5758825314216492e-02
      1.2501871120108785e-01 3.2797432856240753e-02
      -1.4908310160767743e-01 -5.0077542566975786e-01
      3.1221487933296010e-01 2.7071030071154728e-01
      3.2820134017633479e-01 7.9093341175348253e-01
      -2.7134534561668280e-02 4.5456320115345078e-01
      -6.7167790239612191e-01 -2.5986193286209935e-01
      1.2335301977074130e-01 6.6142918401613893e-01
      5.1832196600925717e-01 4.3682246426330847e-02
      -2.8994271824004014e-01 5.4674173874899656e-01
      -1.2122540559009223e+00 3.1418305936946128e-01
      -2.2292970053174044e-01 -8.3914432085475166e-02
      1.8268738382285507e-01 -2.4732452269699184e-01
      -1.2422551905031326e-02 4.7704600437618350e-01
      -6.1424151228430902e-02 -2.8102594043773849e-01
      6.6002514981100469e-01 7.7049737252654449e-01
      -1.4424114412780867e-01 2.1933803019735432e-01
      1.0152528634197961e+00 -1.3728028672373568e-02
      -6.4292141787963275e-01 1.5729404098800223e-01
      -9.5106212062350337e-01 -7.5825272789782086e-02
      3.4315829434503958e-01 4.7649808917417580e-01
      -3.2601265987779182e-01 6.3475556248093590e-02
      1.4023571089968967e-01 -2.3743408961942628e-01
      -6.1908400376491379e-01 -2.3595239645191476e-01
      -4.7431692806642378e-01 3.5083688673144303e-01
      5.8432313212202180e-01 1.6574466897975068e-01
      -1.7433622818002217e-01 -1.7515472600926529e-01
      7.1505155188569924e-01 2.6818223708631245e-01
      2.2481512961697050e-01 -1.0036723796081004e-01
      -4.8103054823706043e-01 -2.1634213493100082e-01
      2.0333233944014234e-01 7.7533434007156649e-02
      5.8105368093979246e-02 -8.4858260713672540e-01
      -2.3295230424863353e-01 3.7609903219973584e-01
      -5.6467580912017323e-01 1.0043547527661474e+00
      1.5079498679448575e-01 -4.0288636004822137e-01
      1.8200358788257830e-02 -1.2569766815533029e-01
      3.8139350057744970e-01 -5.8104325286735714e-01
      4.4919302540036538e-01 -9.6478064827169918e-02
      2.8745102106653142e-01 4.6937780950975272e-01
      1.0552218285274351e-01 -3.8406631757714381e-02
      2.1162833682685897e-01 1.6836892955953742e-01
      1.0533722356563227e-01 -1.8011383681967244e-01
      8.9669656793978947e-01 5.4346839918914536e-02
      3.7937742264610441e-01 -4.9758977094897204e-02
      4.8940745495071214e-01 -3.0765610696802775e-01
      -6.6696345043773608e-01 7.1608229689040778e-02
      2.9888742033030957e-01 -1.7392041894744550e-01
      5.2554278339596798e-02 1.4934754467905703e-01
      -8.0777989158447208e-02 -2.2017791015455346e-01
      -2.9200301992822486e-01 8.3371197448143197e-02
      1.0603340417227479e-01 -3.0335479080023015e-01
      -2.8821382422020975e-01 4.3921765256800749e-01
      4.2121310519271749e-01 -5.4368731892395716e-01
      2.5734928583023098e-01 3.2410753654893898e-01
      -2.0887853857256625e-01 2.9684995962248778e-01
      -1.0185628449810269e-01 -1.1855173973866390e-01
      3.8409243250789044e-01 -9.9176549216882667e-02
      8.5325471997178404e-01 -1.2857333796282266e-01
      -5.0286686758656191e-02 2.2234065684500667e-01
      1.4972271182648822e-01 6.8869281616382527e-01
      -4.4787465354447956e-02 -2.1493378066677882e-01
      -2.0817287442603073e-02 -1.1472460671463004e-02
      2.0893241717081135e-01 4.2779526381642653e-02
      6.1850232771980240e-01 -2.0665659218425236e-01
      -2.0671381611202810e-01 -5.8571125961337878e-01
      -3.0402620313571727e-01 5.8968729266742537e-01
      -4.9511272634143894e-01 1.0271806612884939e+00
      -3.9769116762042650e-01 1.0198062549962976e+00
      6.2701142210188754e-01 -5.6904280008759500e-01
      8.5188638655845761e-01 -9.5491975334421109e-01
      -1.2245228331558631e+00 -5.4948525734303677e-01
      -5.0108159705400213e-01 -1.5682612133642604e-01
      -8.6487379275625575e-01 6.2266149779451496e-01
      -9.8477847681465835e-01 -8.8028770293474246e-01
      1.5290212538701678e-01 -7.7601166888423423e-01
      -3.5110457678882129e-01 6.4723842490569922e-02
      -4.7085115390475740e-01 7.0049452042677862e-01
      1.0931454643086151e+00 -4.1347966960304822e-02
      -1.4212742264638938e+00 -2.5752033267598873e-01
      -5.5312778874711266e-01 1.5525890326664052e-01
      3.5444609343213446e-02 -1.6827324809231350e-01
      -5.4272041948095395e-01 -6.2349087926037239e-01
      7.0830059537092149e-01 2.5356843446496002e-01
      6.6081099711275171e-01 1.2279353091914373e-01
      7.3671796949989987e-02 1.9113135340769244e-01
      2.1350450872360185e-01 3.5875575534041415e-01
      2.9309293636399603e-01 2.6029489123038485e-01
      4.4349273184736532e-01 1.2615143400119593e+00
      -1.7723202985548511e-01 7.8555703044678316e-01
      -5.3313862670888890e-01 4.1039294686979488e-01
      1.0064671433699095e-01 -1.7022840843741149e-01
      6.6414240397673810e-02 1.0133543667606149e-01
      -5.4203308675528972e-01 6.5903379798365946e-01
      -1.7817621262933123e-01 1.0147574112385589e+00
      -4.4292725366871477e-01 -2.5102689870435996e-01
      3.0557161777187042e-01 -5.2367422304928624e-01
      -4.3914468415713775e-01 2.8500220336656173e-01
      6.0004028669133369e-01 -9.1787038647039909e-01
      3.8005576172491706e-01 2.9830201488334201e-01
      -3.7752849921999337e-01 -1.0908464541452333e-01
      -5.6331955053663885e-01 4.5246313137128863e-01
      1.2444111443447384e-01 5.2727468995746674e-01
      -8.4878099820806174e-01 2.6065211073553335e-01
      4.0420117989896387e-01 3.7706327348014995e-01
      -7.7734158107795570e-01 3.8234218458302449e-01
      -3.9909676172089470e-01 -3.8821528538089256e-01
      -3.4973877518302598e-01 3.3311750138029179e-02
      -2.7154038465409175e-01 5.7788848548803418e-01
      2.4866974714333434e-01 7.7469029069595274e-01
      1.2760724573218549e-01 -2.8691144908902494e-01
      -2.2136735257081605e-01 4.4469742062456247e-01
      -6.9264428207067852e-01 -6.4590691182884552e-01
      3.7781820860662940e-01 -2.4390577792965648e-01
      -1.1034312997844624e-01 4.2105267012705128e-01
      -9.3326814984832362e-01 -4.5578772198711170e-01
      7.2928535320724275e-01 -8.0233890106688810e-01
      7.2425712011246446e-01 1.1609908442710173e+00
      -6.6036690879093851e-01 1.2165489913738237e-01
      1.7527528771685322e-01 -2.3281603612810153e-01
      -6.9085423425565573e-01 -7.4787847836416621e-02
      -5.5531012948125169e-01 -2.2108235787516681e-01
      -4.3458310259314709e-01 1.1207720481397601e+00
      1.4108354275482676e-01 2.2100366626593856e-01
      2.2958343095265357e-01 1.7789885393377328e-01
      2.6844763250778542e-01 1.3166674951083610e-01
      4.3852493828925537e-01 -9.8993436738627827e-01
      9.3621403959193772e-01 -7.7990301064273038e-01
      -4.9456379532097350e-01 -4.9251148835491854e-01
      -1.7626018176581970e-01 9.2623170119153983e-02
      3.6339951873600129e-01 -2.8812389553130296e-01
      -1.4918570234435496e-01 -5.9818997895468295e-01
      2.5433586921207085e-01 2.2453662789585754e-01
      -4.0482197491696947e-01 1.1186018437317373e+00
      -2.7092765570553201e-01 3.9161751987750393e-01
      -1.2291788686506562e-01 1.4036300925850953e-01
      -3.8487883910898454e-02 6.4852496269564386e-01
      -6.8546713883459162e-02 -1.9521944104540372e-02
      -5.9630413067656395e-02 2.1287960110741949e-01
      -2.8437501525689990e-01 7.3895798465357029e-02
      2.4008370307010959e-02 2.8038419352724864e-01
      -5.1875848603070274e-01 -6.9053622101417883e-02
      7.9954055755723619e-02 -2.2771101565380839e-01
      3.0538617287024833e-01 -2.4763532878154665e-01
      7.4383342357372884e-01 2.6657080654737231e-01
      5.4920444928462409e-01 -1.7947759279284536e-01
      8.2706501545977096e-01 -4.8032034401523933e-02
      -2.6763577355813967e-01 8.5974324427505383e-02
      -3.8765195022753590e-01 -5.6871644504496843e-01
      -1.4008802991928490e-01 4.7872363512383879e-02
      -9.2817943541259371e-02 9.3005201453418854e-02
      2.9075622134145374e-01 -9.5119577242658859e-01
      -9.6496919418263327e-02 -4.5786276702443801e-01
      -7.3423912669074176e-01 2.2870794718509119e-01
      1.3177623058968618e-01 3.5344183278713448e-01
      2.2786492278872122e-02 -1.7948228766690885e-01
      6.6969232171412996e-01 -4.5403664283807593e-01
      -2.6196931950516478e-01 -1.1507281485036837e-01
      -3.5894978255088705e-01 -5.5274042797397460e-01
      3.8141079580701542e-01 3.4246511369314625e-01
      -2.6805562091535430e-02 -2.9907939193934024e-01
      -1.0975571887298892e-02 2.7993454187341715e-01
      -2.2363736497897319e-01 7.5445968602247948e-01
      -3.3572938320364176e-01 -3.0916578007227447e-01
      1.1082972401506133e-01 -2.3821050343961603e-01
      1.0328754514229831e-01 -3.9480950549509114e-01
      5.1516456060587013e-01 9.0248787323257959e-02
      -1.6435119662315159e-01 5.6006265014992485e-01
      3.4731606320017766e-01 -8.9884672591963970e-03
      5.9113648528872920e-01 -7.6287089999308957e-02
      -3.7971325295613634e-01 -7.8050986793716093e-01
      -2.8569088705336704e-01 -4.6557228406745060e-02
      3.8284822111241297e-02 6.1128673736038598e-03
      -1.6948475340251110e-01 -1.3267328200249007e-01
      -9.8842077607026724e-01 -9.0975980196461567e-02
      7.7170768479642293e-01 3.3465658016378769e-01
      -1.1314929337618971e+00 1.5408165732042872e-01
      -2.4957343957417255e-01 2.4834822093855211e-01
      9.6958288771367779e-02 -3.3369979913629538e-01
      1.0198750117712035e-01 1.4698657136700993e-01
      -9.7300886851188650e-02 1.7279779522717653e-01
      2.6318516625683724e-01 -4.2279136128450395e-01
      4.9550489413828469e-01 2.3685557503958016e-01
      7.7574306272938820e-02 -6.5311085694798265e-02
      1.2727932646426585e-01 -3.2674310670110435e-01
      -6.3372373207406407e-01 -1.3127464873656194e-01
      1.1673388375927609e+00 2.1728273818142230e-01
      2.8715789727323499e-01 6.2658049922848669e-01
      1.9052003238171658e-01 4.2650290783619110e-01
      -1.6860457250950828e-01 1.3462284974814806e-01
      -3.1127800593585780e-01 -7.8982224816409430e-01
      5.1946480197743272e-01 2.2300951636949068e-01
      -4.4449230890881375e-01 1.4341514036233985e-01
      3.1948858890638282e-01 -1.1726253968737955e-02
      3.5605592992324231e-01 -2.7918283079735440e-01
      2.9530816685829425e-01 -9.8517224446453833e-02
      -2.1098438598480498e-02 2.9839801045143760e-01
      -1.2172107733117854e+00 -1.8768039367213127e-01
      -3.5406069988520483e-01 3.7726357865700583e-01
      1.0846052241554540e+00 9.1035121974546429e-01
      1.6281433611771209e-01 4.3624676365289494e-01
      4.7058620423885456e-01 -4.2014208591670482e-01
      9.7344451957142630e-01 -3.0547980904369909e-01
      3.2101442741339137e-01 -5.5026561854997069e-01
      3.3843774785773501e-01 -2.5991837724252292e-01
      3.0400911708927542e-01 8.7755050563959033e-02
      2.8792464368101411e-01 -1.0191449837468742e+00
      7.6904582559965917e-01 -1.5416175509311253e-01
      6.9938761597097232e-01 6.6468894222142227e-01
      2.7993084669075791e-01 1.4767078020704419e-01
      -1.4388700930720102e+00 1.2061074794925082e+00
      2.3222418590865233e-02 -2.8013027078194765e-03
      5.9301631024216053e-02 -1.2090723189931230e-01
      -1.1323512413261394e+00 7.0022888874726341e-01
      5.4641507162087051e-02 -4.4299298333877679e-01
      -8.0957922044703723e-01 1.3488950818987702e-01
      -5.3300104072835930e-01 -1.5756446091746161e+00
      -2.6512336198834274e-01 -1.0487029781743771e+00
      1.1290056541623974e+00 -3.7561429293011472e-01
      -3.2198195817909125e-01 -1.4230954276622960e+00
      3.3637257394954989e-01 8.3363217808187409e-02
      9.4525303148650741e-01 -1.2933754099778150e-02
      1.6625986966459186e-01 -3.3445993282455821e-01
      -3.1525827480272106e-01 -3.4138499579642384e-01
      -6.1899273809245070e-01 1.0212068869429967e+00
      1.0975136107012647e-01 -5.6549401303050129e-01
      -2.9959403933215606e-01 8.9975499849404367e-02
      3.9785852094972407e-01 5.0837034908548506e-01
      1.0250802126541629e+00 -4.0502550403858772e-01
      -1.5431629676553385e-01 -2.4952387307267004e-01
      5.0975891523926986e-01 -3.3113626138766110e-02
      8.7293406833839504e-01 1.1058293051916450e+00
      2.7328374311795595e-01 3.0156530055215020e-01
      -5.5757332128037951e-01 -1.6018478672229172e-01
      3.5196407596490998e-03 -1.5801155337317205e-01
      2.0363168227526335e-01 -2.7975599217618941e-01
      9.6735131388225393e-01 -3.5859997133142246e-01
      1.2195236085752628e+00 -4.7671347657123592e-01
      -6.3957980451944785e-01 -3.4087942217119208e-02
      8.2915311416329207e-01 -2.8173633459758068e-01
      5.5815020890612133e-01 1.8077628453474939e-01
      -6.4438602127856195e-02 -4.7893278024089364e-01
      2.5750099496932355e-01 9.6493764134103999e-01
      1.3941798462702729e-02 -1.2777996377354836e-01
      -3.8798720260629238e-01 6.2108438847025471e-01
      8.3611206540461258e-01 -5.9850624055887280e-01
      1.5742525171372410e-01 -1.0092772128830521e-01
      -6.5536289541473514e-01 3.5610373525855105e-01
      -5.4654606698044905e-01 -8.0141439130041536e-01
      -4.7869488298182555e-01 -4.1259318078499635e-01
      -4.0447479925555507e-01 2.5283102927347569e-02
      -9.2588270557952534e-01 -7.9065554422840834e-01
      1.3404670372808730e-01 4.2446951340756128e-02
      -2.2567011174156448e-01 3.2179348575035893e-01
      2.4612218314080359e-01 -7.3642843605002924e-03
      2.3383042437552048e-01 -9.5483709172730524e-01
      -6.7674637566467943e-01 2.1619611009517742e-01
      -2.6824450693431001e-01 1.1716177761806885e+00
      -4.0305801908143157e-01 2.1223133973481353e-01
      -3.0656758087876135e-01 -3.0422899684749316e-02
      -1.0791948704208922e-01 -8.4070283400990348e-02
      7.1786316365395730e-01 -1.2395773126393940e-01
      -7.8187048926625902e-01 -7.0970090698551680e-01
      -3.9665423223010109e-02 9.9775175121682283e-02
      1.3105257269504129e+00 -3.5141140469544163e-01
      6.6664490127343701e-01 5.3453728327536698e-01
      -2.3232104870770445e-01 -2.4094135151529153e-01
      1.3049716209023645e+00 -3.5537544559317580e-01
      -3.9824447303393284e-01 -6.7355993470532630e-02
      1.6480673045337502e-01 5.7923733427698243e-01
      3.4787890362053348e-01 7.6007677562365450e-01
      -1.5433746818266914e+00 -1.2870590722193874e-02
      1.1289088177788267e+00 5.0916822817962748e-01
      2.1404682804851707e-01 1.9987602527643583e-01
      5.9803841188372897e-01 -5.3872218752996311e-02
      6.3525796212362817e-01 5.9346228538295687e-01
      1.7932677616756856e+00 -9.7298823582799443e-01
      2.7235064376954210e-01 -1.7836309593897604e-01
      2.3267698209027268e-01 -4.2320762714406872e-02
      5.0140670428092526e-01 -4.4243655650048186e-01
      1.2113996110653786e+00 7.6741558252890518e-01
      -1.1073578067021933e-01 5.2934300479925589e-01
      -1.0292980075630331e+00 5.4525789741039088e-01
      1.1542648207451456e-01 2.0575177160475200e-01
      -1.1253022822304888e+00 -6.2100886191181048e-01
      -1.2206799459469080e+00 -3.0325336045525414e-01
      1.0574227680436203e+00 1.6695502756234015e-01
      8.4294431892970478e-02 -1.2958940740950458e+00
      -5.8874846645312062e-01 1.4400054397123171e-01
      -4.2681665734132229e-01 6.4322113559365857e-01
      4.2481433755203674e-01 -2.4818061991492765e-01
      -7.1579022197482123e-01 5.1631622935061483e-01
      -8.2045440337849862e-01 6.4894083705514027e-01
      5.6174570977661042e-01 2.7236832597003041e-01
      1.8039483604362405e-01 -6.3914298425466060e-02
      -9.3552454982028785e-02 -9.6380890476677306e-01
      -4.8719762869443989e-01 6.5744134074476335e-01
      4.6822508811286234e-01 3.2332272772615944e-01
      6.1642095790155360e-01 -1.0127818866065660e-01
      -2.9729213293394546e-01 4.3193527561300632e-01
      -3.0667585210330073e-01 2.9290451848721910e-01
      5.7621778815660401e-03 9.4766294930326722e-01
      3.0964640675887128e-01 -4.1192924712619483e-01
      9.0289203058667444e-02 3.5197785899363881e-01
      3.5961415470066543e-01 5.9996540154025135e-01
      -1.2799680564912985e-01 7.5919172795329293e-01
      3.9636847073478931e-01 -8.8387058704528854e-01
      -8.1911455023351643e-01 9.1727990555494321e-01
      9.7171029825135879e-01 -1.1886705735495395e+00
      -1.2828241621343270e-01 1.2816275802443839e+00
      6.5452650987636185e-01 6.1874383157322987e-01
      3.8476275788906972e-01 8.3559154838411653e-03
      3.4070091158948046e-01 2.0266549281063861e-01
      -4.8822453605039517e-01 9.3257809426260696e-01
      6.7626754352585305e-01 -8.7379402180897281e-01
      -1.9315163188329529e-01 2.4111085431879767e-01
      -2.4213545730799224e-01 4.5977857227328101e-01
      -1.9476337144402314e-01 1.0369315836721384e+00
      -3.9215556785852992e-02 -2.7301562926335993e-01
      -3.5137098229663843e-01 -1.9154331938355118e-01
      4.0608133521167666e-01 3.6942530869293673e-02
      2.3095008591946592e-01 -6.4856047740831452e-02
      3.0105818685456326e-01 8.8422627076801352e-01
      3.4697448856030177e-01 -4.6440209141867017e-01
      -3.4845539052139351e-03 -4.5537595961698379e-01
      -3.2323317947646951e-01 -3.2896513833251362e-01
      -1.1279076666258900e+00 2.1352655097521372e-01
      5.1717628316451214e-01 1.5895154033348460e-01
      -9.9882521592859375e-02 6.8752845917796357e-01
      -2.6023821738352665e-01 -1.1172929172164223e+00
      1.9812870397778856e-01 -6.8626976485966640e-01
      -4.1329516847329639e-01 -4.3519854206555020e-01
      1.1818772707853703e-01 1.6464898497012886e-01
      4.5502791915113533e-01 1.9734786770296528e-01
      3.6100072615756285e-01 -6.5892573746159888e-01
      -1.8512128600491917e-01 -5.7492551948627324e-01
      3.6757660277223270e-01 1.2714894880076327e-01
      -2.0090762930473993e-01 -2.3851501342146225e-01
      -1.0766132469675598e+00 9.3830656852490424e-01
      -9.0961657772880497e-02 3.7585554495290850e-02
      -1.4828950709432948e-01 4.0068108886427356e-01
      -1.0061877742027723e+00 5.5450906179003556e-01
      -4.2885774150941003e-01 -6.2829382440670356e-01
      -6.8336796793548593e-01 -1.9789314475358483e-01
      -7.2830533139772924e-01 -7.1986424540871952e-01
      -5.2043261071927116e-01 -2.7061402355412928e-01
      6.3195307049788141e-01 -5.5595975329455616e-01
      -6.5284537461637915e-01 2.3380242407254104e-01
      2.6447201229304729e-01 -8.7321153457250589e-01
      1.1551843279872706e-01 2.7751041363201034e-01
      -6.0468168632779229e-01 1.0519490477351168e+00
      3.8472171180546511e-01 3.6481491860178977e-01
      -5.9172460640100655e-01 5.5506389697731551e-01
      -3.3392451638969761e-01 -1.9591441164232493e-01
      4.2213674725848677e-01 7.7433602509019861e-01
      8.6567524590843881e-01 -1.2414163912146630e+00
      8.1499935088534614e-01 -8.9796179999929038e-01
      3.3719887190393555e-01 4.8661984986848394e-01
      7.1093356968545551e-01 -1.5070854985075020e-02
      9.3356079450557050e-01 2.6107175965693097e-01
      -5.4600252318576792e-01 -6.9238760914350517e-01
      -6.5051711064044193e-01 -4.7261716363800749e-02
      -8.5267684885164174e-01 3.8541856445550332e-01
      3.3722087725724256e-02 -2.2244752118635794e-01
      7.7075223107854829e-01 -4.5099863517673811e-01
      -2.3500474391706197e-01 2.8545992075213283e-01
      -6.9507979947574117e-01 -3.1343354870651585e-01
      6.4850532726894006e-01 -2.5831484115299497e-01
      -8.3246065657425750e-01 8.4124777590919686e-01
      -4.5584215712033138e-03 3.5185260922238609e-01
      5.4515637784065407e-01 1.3654720825532024e-01
      -4.5197733601856338e-01 8.3214498345004428e-01
      -1.0922824123533680e-03 8.1507542370065067e-01
      7.2880503401201446e-01 -7.4218707056316691e-01
      5.8944714646329020e-02 -6.2665023016609270e-02
      1.4854634318012441e-01 7.0035320993459504e-01
      -5.4599712361966923e-01 -7.9116909246059841e-01
      -4.2704963215736313e-01 4.0908798274891002e-02
      -3.2571774330740194e-01 9.6190696995069480e-01
      -3.3375673982416987e-01 -6.9216860677113157e-01
      2.3326885782689463e-01 -4.8628068008481973e-01
      7.3155201767111999e-01 -3.3325964240209244e-01
      -5.8600690174264350e-02 1.9968540375888860e-01
      2.0276175876004876e-01 -6.9238353173857692e-01
      -2.3310847502481202e-01 -2.4877613206994001e-01
      -4.3070501237868936e-01 3.5412081239536897e-01
      -7.6417741327233324e-01 -6.5274039718262022e-01
      3.5961837819067416e-01 8.8469023634605204e-01
      -4.4544025049425617e-01 5.6111670158999960e-01
      1.6036980116293803e-01 -1.0320654150960130e-01
      -3.0429391760009972e-01 -4.0480632094169061e-01
      -4.4600177334393049e-01 6.0743532901806696e-01
      -1.0272735728705411e+00 -6.0762900294578970e-01
      -1.9879271358735545e-01 8.3715558103293164e-01
      -5.5168116429725855e-01 -1.7740315771633655e-01
      8.4123605084272954e-02 7.7993858769829283e-01
      1.1991537746687669e-01 6.0001680073215113e-01
      2.3394831800647306e-01 9.7008209955322455e-01
      3.1893480130313673e-01 -2.8831712723064975e-02
      -7.8480827818017074e-02 -2.6964862407734075e-01
      1.9319171432885521e-01 5.4177272152085010e-01
      2.6933628678917110e-01 -1.3666103099064375e-01
      3.6766131401448432e-01 -1.2547154104313296e+00
      6.0066027170770420e-01 2.0139405220993647e-01
      1.2610197049762815e+00 6.8208663824194504e-01
      3.6852202534065548e-01 1.3217889063379951e-01
      8.3945424673674529e-01 3.5592931644123205e-01
      1.4941147756947817e-01 -5.3399750558015147e-01
      2.2629873191589334e-01 1.0359181634948738e+00
      -4.0076628865229180e-01 7.8499655766126719e-01
      -1.3133879684317448e-03 4.2721212321363150e-01
      7.0334960346289943e-02 -9.1703751140950596e-01
      -1.5766745467636295e-01 7.8157501555468734e-01
      -5.6549138501480412e-02 1.9797093484433004e-01
      1.6339086826978722e-01 -8.1671575927283280e-01
      -2.9806846566632489e-01 -1.1939174396876600e+00
      -4.9434598379999785e-02 -6.1961367737131956e-01
      -1.1177860036912750e-01 -7.4245942295182121e-01
      -2.0761419155463856e-01 -1.1747706126565118e+00
      9.2094929212034340e-02 6.4697781423578682e-01
      -8.5843147567376932e-01 3.2625674607673560e-01
      -6.8434235238159946e-01 -3.9183867847518461e-01
      -9.5844035637914149e-01 -2.8881685557847331e-01
      -9.5017780733175061e-01 5.2244168922981771e-01
      4.1203615510673380e-01 5.2147085674104032e-01
      -5.9436700105365736e-01 -1.2374841921946711e+00
      2.4861441324401895e-01 -6.0405307739777994e-02
      2.1522980620055343e-01 -2.7473816117303035e-01
      9.2211007023239297e-02 3.6299706077191790e-01
      1.2379956218436965e+00 -5.0735630170643242e-01
      8.6222891588290285e-01 1.1046765526999769e-01
      -9.9879136995546736e-01 5.1595886706837213e-01
      -5.2034718049374297e-02 -7.1475880875789122e-01
      1.1941139549264985e+00 7.6194209262032811e-02
      -6.8216426237757177e-01 -3.7633932168005813e-01
      8.9332368486254210e-01 -2.1202101207991159e-01
      4.1234957813138179e-01 -9.4626734416016323e-01
      5.3244216769743913e-01 6.5470053106092174e-01
      -2.7776548546544128e-01 2.3572541618339046e-01
      9.6184286749237291e-01 1.7028171841392672e-01
      8.5791753711725371e-01 1.0612743663788456e-01
      -4.7555613772008848e-01 3.5441030138470808e-01
      -5.5446949841370574e-01 -8.2232122851594225e-01
      5.3704214758116686e-01 1.0137174982054202e-01
      2.0952276841743853e-01 -1.2192606579020879e-01
      9.1143708087668829e-01 1.5423116746942625e-01
      1.6850996651261738e+00 -6.5388019730775349e-01
      3.7046080217790872e-01 -2.8332297256510608e-01
      -4.9801481755183186e-01 6.6834054893939288e-01
      -6.2259003923331790e-01 1.1942981271710646e+00
      1.7633667640619918e-01 7.0387900409779158e-01
      -1.0201620745870853e-01 1.3449044636327148e-01
      -7.7552602747275845e-01 2.3803693943552906e-01
      7.1074357193695303e-01 7.9371384675756829e-01
      -4.0499369431245824e-02 3.5914547261887425e-01
      -9.3762236163470880e-01 -3.8748699373673251e-01
      -4.9940138810633372e-01 -1.1532861149654812e+00
      1.6244035163108947e-01 3.1777095180133880e-01
      -8.9894362261872229e-01 2.1980457031251599e-01
      -1.5795487166906357e+00 2.9083438794507055e-01
      -3.6189712910482646e-01 -1.5329240611470804e-01
      -1.1191599632815862e-03 5.5598647976551807e-01
      -5.0280479433255421e-01 1.2983171424748539e+00
      2.9441847231016055e-01 3.7243265811983402e-02
      1.4669358073821184e+00 5.3433933620414586e-01
      -1.2040510552597329e-01 -2.3281210148559113e-02
      8.4102893823684732e-01 -9.9513963273617889e-01
      4.7087222399026701e-01 1.1715244115698298e-02
      -1.1602936229056631e+00 -7.3924567110718753e-01
      6.0000831940321564e-01 -1.1492293424558693e+00
      3.6214836873070300e-01 3.0812176779505618e-01
      3.5261815142868336e-01 -3.2173568824776971e-01
      -3.7269098007674323e-01 1.1847820813346175e+00
      -5.6375110401064632e-01 9.7192613401983363e-01
      -4.4060018446404653e-01 3.7319116305215805e-01
      -3.0125246299727587e-01 9.9000785560219529e-01
      -1.5802138446820740e-01 2.4603092044279631e-01
      -8.0353698273185795e-02 -4.9162707643285258e-02
      -2.7274352490920561e-01 1.0690991567807773e+00
      -5.4924721237297012e-04 -9.1432418471210486e-01
      6.2350265858059051e-01 -1.2267981664944143e+00
      -7.6001645583897470e-01 -1.5451635861118385e-01
      9.5282647737867754e-01 1.1243847811620647e-01
      1.6079696734066902e+00 -1.0337916541431065e+00
      -1.0327518947094629e+00 -3.6361193212916598e-01
      4.1059965039887858e-01 -5.9327676534942309e-01
      -9.8342351675366757e-01 -3.6647970973923055e-01
      5.1011923621305806e-02 -1.0914168441317667e+00
      -9.4501120234143066e-01 -1.3856092627690747e-01
      9.4546795709735831e-01 3.1112165183901197e-01
      -8.7186397471050725e-01 1.7361071348844750e-01
      1.7538002828476465e-01 3.1069665677523856e-01
      -6.7167784754680038e-01 -5.0671966830010995e-01
      -5.7268158760915633e-01 4.5721295441954779e-01
      -1.1486353244739154e-01 3.7222490484786452e-01
      -2.8604421149362813e-01 -3.3987957741216468e-01
      -8.6056528075531857e-01 -5.1021023524523834e-01
      5.9663311214853032e-01 -9.0070633187187343e-01
      1.3599023401814320e-01 4.0969924287221393e-01
      -2.3473303195782491e-01 6.3910208496330601e-01
      -1.2449645110104901e-01 9.4262593492786362e-01
      5.1231652292638463e-01 5.3173875556059935e-01
      5.3887191957559188e-01 2.6401726277276633e-01
      3.6844668335117448e-01 -9.9052603636100822e-01
      -8.3248550818455530e-02 1.0925723254789348e+00
      2.9062343213098180e-01 3.4263711138873887e-01
      1.1416707416881582e+00 4.8319749935085582e-01
      5.6101893129282676e-01 6.4260807650073559e-01
      -3.7640543622746886e-01 8.7478262066440782e-01
      -4.6420862310280635e-02 6.1551446730126069e-01
      -5.8676729629145641e-01 -3.2934181373029592e-01
      1.0657635709922113e+00 1.3735198146993837e+00
      -8.7933085600115102e-01 -4.4920208620675278e-01
      2.2730389318165084e-01 -5.6664336219058775e-01
      -1.9435443751876708e-01 -8.1716888103315566e-01
      -5.4176060778814394e-01 -6.2542673539905347e-01
      2.6943028427999238e-01 -6.7144303322515564e-01
      -1.4771358772569891e+00 5.8171785465068526e-01
      -1.3489377276742096e-01 5.6237638786796051e-01
      -4.7658379289320524e-01 5.1299580045181603e-01
      5.9920808781732558e-03 5.0937324574272025e-01
      2.3000101947758994e-01 -2.5559544583971427e-01
      -1.1519342389565833e-01 -1.0819449473951266e+00
      6.3417973059599897e-02 -1.1710519817625451e+00
      -1.2844502431298951e-01 7.1060520525687537e-02
      9.2432663762765399e-01 -1.3298728423625644e-01
      3.5890052868375621e-01 -4.9968332241030200e-01
      4.7669402361834384e-01 4.9237124392328901e-01
      -5.0335572142347085e-01 6.5302383109475748e-03
      -7.3526499138643231e-01 6.4110164215448806e-01
      -1.7547221591072637e+00 -5.3360281221888413e-02
      -1.4744723312723723e-02 -5.6289932337201913e-02
      -2.6544290998694731e-01 9.0250706562036309e-01
      -1.8441670510892334e+00 6.3236928579596907e-01
      -5.8402134154829199e-01 -7.1735193863429214e-01
      -4.6999020775091965e-01 4.3933789085677577e-01
      -2.1492748263847983e-01 -1.7024842905873572e+00
      9.1966762078607789e-01 2.6732239182763123e-01
      1.2869594165669269e+00 4.2114951707689852e-01
      1.2317734397320361e-02 -2.7615635687617979e-01
      3.5721108787479977e-01 -2.7720367393539186e-01
      6.9870441908230629e-01 -3.5576196691972062e-01
      7.4140689042003294e-01 -8.0721559109683449e-01
      1.3098708538901399e-01 1.4820484503896147e+00
      1.0131668907801967e+00 -5.9646225117098217e-02
      3.3702103574618497e-01 -4.6174890286807886e-02
      -1.2811256972894799e-01 -4.4827204462121611e-01
      -1.7292898443353735e-01 1.2707966502305759e+00
      9.9114667058208683e-01 -4.6418223798299141e-01
      -3.2151316822542853e-01 6.5451126907224141e-02
      6.1063606240444386e-02 2.2849020046007920e-01
      8.4108773283609561e-01 5.2127604277640160e-01
      -2.7780008227346165e-01 1.5469406347758169e-01
      5.3218908869228303e-02 -5.1235677284507319e-01
      2.5975066706589828e-01 5.2048951469290206e-01
      -2.8200154400669192e-01 1.3539082068897731e-01
      9.2670231748127718e-01 -1.4311427973294896e-01
      2.1313784597888441e-01 -1.1382690114780314e+00
      2.0542497042690061e-01 5.9444914308811103e-01
      1.6974962079961331e+00 -4.4336274937334924e-01
      -6.5571286728099798e-01 5.9554030024011795e-01
      -1.1157508625599970e-01 5.7775032705918265e-02
      3.4146723084063146e-01 7.8144128997486761e-01
      1.0049606113230840e+00 -2.9917845798926984e-01
      -5.5829938657820366e-01 6.3106104337623203e-01
      1.7422514190615540e-01 -1.1905668002838443e+00
      -6.7392615912674148e-01 -1.0042491863275602e-01
      -1.2711332187345108e+00 7.9527219228511870e-01
      5.7227501595503105e-01 -8.1487713627420522e-01
      1.1262281230665801e-01 -4.2207787950104420e-01
      -2.0133973581563452e-01 2.9531550730814682e-01
      -4.7702442775656134e-01 -2.1312696792829242e-01
      -1.5646560095707909e-01 -3.1827458667290925e-01
      1.3610038665609028e-01 -8.9350760463009016e-01
      5.9926594925222343e-01 -5.2456502589990368e-03
      -9.1442116069398915e-01 -5.4278906222622055e-02
      2.9443146447718166e-01 3.4071515563031470e-03
      -3.8959708921868558e-01 1.6727686512851747e-01
      1.4743406933945302e-01 -1.1462076135560051e+00
      -9.3506273938353790e-01 -1.1708230244710091e-01
      4.9467202643058478e-01 -3.6421354942143302e-01
      1.5288346222662424e-01 1.8922962602334464e-01
      1.3456060098531319e-01 -6.0937596501983360e-01
      -2.4478298731878376e-01 1.6249434952164868e-01
      3.2621727139672990e-01 4.0484501062618722e-01
      3.3221081433278910e-01 -1.8710891123239995e-02
      2.0842576955931219e-01 3.7542444164231786e-01
      4.4001518188864963e-01 1.4441658504587371e-01
      -1.7247559263699538e-01 2.2186554178214632e-01
      4.5733391439196175e-01 -1.3403734627795083e-01
      5.6629154470411958e-01 -7.5936176437002134e-01
      3.5833658977660249e-01 -2.1662993031399677e-01
      -7.8422361918773886e-02 -4.5811637911267200e-01
      2.6176625918325095e-02 -3.9080156554905887e-01
      2.7737998337177588e-01 1.6520487510095355e-01
      -2.2862364907958435e-01 3.1325605391808281e-01
      -1.9381958144057099e-01 1.5687016645990493e-01
      5.4275502443087775e-01 1.2531626078119384e-01
      2.6337375022380904e-01 8.4784736454055487e-01
      6.2830336523232333e-01 6.9303032475016069e-02
      1.1432515652195706e-01 3.4588138555579295e-01
      8.6917698678061839e-01 4.2145731191809938e-01
      6.2053898107529226e-01 2.6371027525855034e-01
      -5.3833998044069235e-02 -5.9763019646766835e-01
      2.0169351422977624e-01 -9.9940626970278293e-02
      -6.3671037541453604e-02 -1.2591716044426488e-01
      -1.1022279896358055e-01 -1.1063948068930494e+00
      5.9500484037830104e-01 -6.4965670700400524e-01
      -1.0708116367302238e+00 2.9175524372296019e-01
      -4.7544904220595152e-01 3.6282566994581250e-01
      -5.3647191582345366e-01 5.2221041675427224e-02
      -1.4275579146998516e+00 -2.4629923761796493e-01
      2.9223972300766338e-01 -2.2708629085567100e-02
      8.9668241472463317e-01 -2.3056906466466554e-01
      4.0132604889537282e-01 -2.7611710101650871e-01
      -3.1385818906336777e-01 1.6402729031024182e-01
      -3.8317796055381652e-02 8.4360734428998621e-02
      7.5405189749952837e-03 1.5426085208814261e-01
      -2.8260571706219251e-01 7.1101758482324445e-02
      -3.2553847480739895e-01 -3.6861666165466422e-01
      -3.4664022987426718e-01 3.9058130673256891e-01
      -5.0745124292218324e-01 5.9351078566613792e-02
      2.9666198396655219e-01 -1.3179099965925628e-01
      -2.4731701033330863e-01 6.2722461598001961e-02
      1.0894798652531577e+00 -2.7207938395110254e-01
      -1.5711896710843448e-01 -6.0202731216881156e-01
      -4.5335943028226366e-01 -2.8633804352919645e-01
      -1.1357856608682234e-02 -8.5466375538422540e-02
      9.1068712700126897e-01 4.7502093463357720e-01
      9.1703530563843297e-02 -1.9037379115595141e-01
      1.8427632706138508e-01 -4.2024154008017101e-01
      -1.6139461387659543e-01 -5.6181696334396104e-02
      -1.0038915202746915e-01 -3.6420014553618332e-02
      -1.0230467258001220e-01 -3.4623815757907517e-02
      8.5062090169583038e-01 -2.4437693926171722e-01
      4.3498293780157316e-01 2.0006905340981826e-01
      -2.0616204102412863e-01 3.0283035915041945e-01
      -2.7634408478064865e-01 -6.8891601272932229e-02
      6.5074624006423631e-01 -7.4469735389567873e-02
      -7.9477345521117126e-02 3.7688507982305788e-02
      -9.4172564224643351e-01 -2.8811883508259875e-02
      -3.0908650249151975e-01 2.0665633296878809e+00
      4.4113945053943260e-01 -1.0695508496384086e-02
      1.2498671317874335e+00 8.0861979773699716e-02
      8.0523539393983867e-01 4.5754461066043339e-01
      -4.0093366730724606e-01 -5.7152803834119817e-02
      4.3958570705144873e-01 -8.2283761705138458e-01
      -6.2020724950252515e-01 -1.4543574036658186e-01
      -4.3178759882093748e-01 1.3467032752310240e-01
      2.6868972494706964e-02 1.5839363298822201e-01
      -8.2684507250554395e-01 -1.1554632127632360e-01
      -3.6476486168638494e-02 7.4228261592297029e-01
      -5.5622162780178654e-02 9.9097914857060737e-03
      -6.7083954542375424e-01 -9.8650446674453898e-02
      4.7103774199983223e-01 2.6508502651830862e-01
      -7.8397286335988370e-01 -1.5104988195839963e-01
      -9.4303962530955521e-01 -2.8947468980285246e-01
      9.4403311043634683e-02 -2.6468021185359764e-01
      4.0996644043506902e-01 -8.6959918320574842e-02
      8.3505781401683976e-01 7.7376675769245629e-01
      1.4406284316381444e+00 -1.2969545662616335e+00
      6.9272974664891263e-01 -6.9977086319770843e-01
      -5.8844151063112804e-01 6.5423944907941323e-01
      7.7440620521313863e-01 4.9391390711714153e-02
      6.5880626686356691e-02 9.1005569743837733e-01
      -8.9907817000861062e-02 1.7747226593040901e+00
      -8.2605491437500700e-01 2.3292659222797449e-01
      4.0296949506782628e-02 -5.3062553896527941e-02
      -8.5597648440071228e-01 3.7560658168465960e-01
      -1.3566789587645005e+00 1.3322826065842816e-01
      -4.9358912380763187e-01 1.0289892336931658e-01
      -3.6835263410853897e-01 6.2536276632431442e-02
      -3.7403198285145300e-01 -8.4159568041984031e-02
      -7.1351021810536652e-02 3.1527610364556113e-01
      3.0747154222778533e-01 -1.4342031662210581e+00
      1.6289025261958529e-01 1.1369856827452509e+00
      -1.3705504243847546e+00 2.4362169351009505e-01
      -5.5291013188231208e-01 -5.0688148761070273e-01
      -4.5654925577237077e-01 3.2931720325987769e-02
      -8.5136072235653659e-01 -1.7380941364017302e-01
      6.2812039103428408e-01 -3.6417721319737062e-01
      -8.0856510148030844e-02 9.3579302564952782e-02
      -6.7130384787362440e-01 -8.3715097672085037e-01
      -9.3400130473230369e-01 -4.4003365726900268e-01
      -8.5923985021118776e-01 4.5625605391760132e-01
      -5.4729137062605002e-02 4.9769339368819976e-01
      -9.1501980551899487e-01 1.1618558066097455e-01
      -1.1000851426116010e+00 7.8549613533305618e-01
      6.4606619754658690e-01 -3.3488502553296751e-01
      5.9136828196685594e-02 6.6874748697486541e-01
      1.0404021237027428e-01 -1.4015989951880561e-01
      7.9528112244339172e-02 -3.4648258680496080e-01
      8.4480344194567147e-01 -8.2093919527634196e-01
      4.0537104431598603e-01 4.9836683139279531e-01
      4.1421383542918883e-01 -1.8181446263922617e-02
      3.2042844365998990e-01 -2.5670944522536480e-03
      -8.3757460519532623e-01 1.7354138363065284e-02
      4.5015563095891631e-01 -1.4729118947194614e-01
      -5.3250850040711795e-01 2.9184901517557676e-01
      3.4652261217276620e-01 2.9035540830254863e-01
      1.1541153090210741e+00 -1.0391935253449616e-01
      1.0680844373485558e-01 1.8776220055908011e-01
      9.1435180616188350e-01 -4.6622624450612427e-01
      -1.1107813196237165e-01 1.9348025133430025e-01
      1.7557181870298677e-01 -2.1503604991490349e-01
      6.0050998856626003e-01 -5.2799070466355480e-01
      6.9846379973733708e-01 3.8774335093859891e-01
      -2.6710567251572398e-01 -8.0773486812605683e-02
      -1.4344837872034508e+00 7.8090868613492759e-01
      -5.0434539909118070e-01 5.7010034747264390e-02
      3.3824394943538860e-01 7.4010888755588355e-01
      -5.6204272938075939e-01 -5.3412575709277621e-01
      8.1536991207077275e-02 -2.6539290818527062e-01
      3.1701912972402718e-01 -3.5625636009857325e-01
      5.1828104251481918e-02 1.9881196951968194e-01
      -4.6427253106953714e-01 7.6897525655003213e-02
      4.8169235278383804e-01 2.8765544400936149e-02
      5.6000494826557251e-02 5.3160147896857024e-01
      4.7389977109793507e-01 4.8028385309469102e-01
      3.8985379830464750e-01 8.8503606054529504e-02
      -2.2476823005304125e-01 -1.0687476897588857e+00
      1.3707194450357763e-01 -3.1417000565591019e-01
      5.6998547570035885e-01 1.2923847550780804e-01
      -5.9297473337186928e-02 -6.4295320973461523e-01
      -2.4775993547508010e-01 1.1722637846629530e-01
      7.0906521160279068e-01 -8.2755744895063099e-02
      3.3597756560249314e-01 1.9706657020051752e-01
      -1.2919902687843404e-01 -1.0382042964503252e-01
      -7.4523922436106604e-01 6.7092991695988835e-01
      -6.8697637962471136e-02 3.0063725205538555e-01
      3.8726562386268726e-01 -7.4097056359351776e-01
      1.9314409422011619e-01 -1.2173713614892043e-01
      1.8361561132938320e-01 -4.3966098146716565e-01
      -2.4399970810761107e-01 6.9929278309318954e-01
      -1.2064139102329439e+00 -4.7948235019060814e-01
      3.3610357449468609e-01 2.2975544114897264e-01
      -1.9663639137449933e-03 3.5254488383163773e-01
      3.7199180085650951e-01 -2.9024188710442156e-01
      3.9232339438663902e-02 2.4055754630944093e-01
      1.0054851671927351e-01 -1.4496964972982662e+00
      -5.1673802915621880e-01 -4.1082380627972620e-01
      8.5232814115088440e-01 1.0132459847522705e-01
      -4.1250033480747555e-01 -3.0539228254993767e-01
      -3.8539464676843393e-01 8.3694451339925785e-02
      6.1168411887725749e-01 -4.2515605449611249e-01
      2.8942868291842495e-02 7.1368593867829844e-02
      -1.0654871396766019e+00 -3.2368392154231196e-01
      3.9287626276721950e-02 -6.3131285554278560e-01
      1.0629798701365838e-01 2.0510248994091068e-01
      -3.0785800828308357e-01 9.7271918505913268e-01
      -5.4617033269296990e-02 2.0966162599698257e-01
      -2.1952977053973297e-01 4.8991004374954950e-01
      -4.5198338019268686e-01 -4.5521346039085735e-03
      5.6157640380499618e-01 -2.1933732524073138e-01
      4.0102195063753426e-01 -5.1733569517082123e-01
      -5.7650911056114817e-01 -4.7986682618274357e-01
      -4.2241562727738335e-01 2.1753130262569333e-02
      -3.5767072606903441e-02 -7.4473041857020084e-01
      7.9676869631805869e-02 7.4608227575167141e-01
      -9.4712888704148984e-02 -4.1279520714638629e-01
      6.9220976054281319e-02 4.9436009687675719e-01
      3.8484107551091151e-01 4.6424622898160162e-01
      -7.9133434223014276e-01 -6.4320786326897428e-01
      4.2566582641542156e-01 2.3823727730210723e-01
      8.5599260657410825e-01 5.4254388695577893e-01
      -2.0031249667475526e-01 -2.2193229448515697e-01
      -1.6875502379435586e-01 -4.5601045067735291e-01
      1.2456011287865605e+00 6.2446790746905878e-01
      6.3404011302530028e-01 -2.4905453477308562e-01
      -3.9486200487980856e-02 -1.8569283844719955e-01
      2.1212262645601529e-01 -9.5585715041381847e-01
      3.7959835281105375e-01 3.1280166139720489e-01
      8.1654382232132938e-01 3.5186760846750147e-02
      7.9489954106344940e-01 4.5513497868277714e-01
      1.4665635752446154e-01 -9.7581225949557748e-01
      8.2540721370949338e-02 6.4122333823451805e-03
      -7.7039383798356481e-02 -5.9955366494316549e-02
      -2.6682871246289391e-01 -1.1378533071754500e+00
      4.0150100558334534e-01 -2.3135724640860694e-01
      4.8876805406930229e-01 1.5982852125678293e-01
      1.3886174113256977e-01 3.8441931366435250e-01
      1.3756990568195263e-01 3.3752727216128642e-01
      1.2879605081068229e-01 -8.8056058923905889e-01
      2.7160473498427862e-01 -1.2903762574957753e-01
      2.9390347381821308e-01 -2.5810025212363447e-01
      1.4647265465246229e-01 -3.5802357988179478e-01
      1.0801068367887452e+00 -3.3946053278758970e-01
      -4.2664127301663030e-01 1.3269798564878554e-01
      -4.5110857645538888e-01 3.1194271494458192e-01
      2.2288103882367827e-01 -4.7685489126087784e-02
      -2.5669299386513883e-01 1.4954559992017518e-02
      1.3708869020036044e-01 -3.1170536532392384e-01
      1.2796007112493432e-01 3.7395367250469930e-01
      5.5577856284500793e-01 -4.6842655108676035e-01
      1.0824754630700083e-01 -1.3584409020898378e-01
      3.9370372506744528e-01 2.1587384848050242e-01
      8.8702192378556075e-02 1.5743750135814971e-01
      -5.0612304283133436e-01 6.9180323823418613e-02
      9.2532830399409016e-01 -4.7937392952074676e-01
      -1.1963281366219748e-02 -3.4804558706961120e-01
      3.1694843778761465e-02 5.0441524894508316e-01
      -3.4749461126243453e-01 -1.4822455032841581e-01
      2.4128971368346053e-01 5.1428166956307197e-01
      -9.5735216000357670e-01 -2.7998574148439115e-01
      3.8948959615925322e-01 1.0567741562030704e-01
      1.1940221411743546e+00 5.7045715625407434e-01
      4.5306504066137893e-01 3.0795876530465371e-01
      -4.7850276951208198e-01 2.5798060794212918e-01
      -1.2948718593925244e-02 -4.0418654378135366e-01
      2.3762847694107064e-01 7.3105151015912551e-01
      7.0961615242005102e-02 6.2291589501902648e-04
      2.9905531548414055e-01 1.8333408934956993e-01
      -2.8952268013159660e-01 5.1900450312670776e-01
      -7.7679427067892881e-02 3.1674288539785733e-01
      1.2166264560856976e-01 -9.2794713997245357e-02
      3.6927344261854039e-01 -3.3361391524060158e-01
      -1.0060680903528139e-01 -2.6305147835076659e-01
      -3.6776693561465440e-01 4.7957170087025885e-01
      -3.0611037321061629e-01 -3.8693819050522765e-01
      2.0081565467111423e-01 2.4965655264004830e-01
      1.0975532765926813e-01 7.0940035844353955e-01
      4.8696440392487333e-01 1.3410214898343939e-01
      -4.1605660433628133e-01 4.1574997170273792e-01
      2.4678875924508842e-01 1.7240821082673446e-01
      -4.2828918187058435e-01 3.7476523017569574e-01
      2.1843164393162651e-01 -2.0556570593353743e-01
      5.1477812872608497e-01 6.6646146692538466e-01
      -4.9045249179056401e-02 1.5054778648817485e-01
      -2.8439100091025724e-02 -3.5131499555534207e-01
      2.6703353113909456e-01 5.5849635564985323e-01
      1.4120181975595361e-01 -3.5817990232493496e-01
      -1.3620487658122216e-01 -2.8407485123468440e-02
      8.8555718277623030e-01 -2.3690091500067071e-02
      8.2736575789942768e-01 1.3890734322734225e-02
      -2.8390138100163093e-01 1.3573142673420842e+00
      -3.2622629022651267e-01 7.7629408992484816e-01
      -1.6360620248044728e+00 3.2962569726193364e-01
      1.9984182508964805e+00 2.1044081237605566e-01
      2.5790607904892199e-01 -1.4515585779146416e+00
      -4.0267423038257105e-01 -2.8712025219386672e-01
      -1.5217298181770483e-01 -1.2189287121744539e+00
      6.1179089086551319e-01 7.9842892130566545e-01
      -7.4918625765406199e-01 1.1487978517202073e+00
      -1.4060296056895061e+00 8.6944309518593743e-01
      4.0949146043710527e-02 -1.9531710764449095e-01
      -3.0388430111532527e-01 -3.1745685330536089e-01
      -5.3559757297949206e-01 1.0968978437428234e+00
      -1.2036435892196262e-01 6.2019997227241952e-01
      4.6197895771511716e-01 9.6099415601439087e-01
      -5.0079243065235413e-01 5.2763446977648354e-01
      7.5905428243805717e-01 -2.6099557892908898e-01
      -3.7551437592200732e-01 -5.7627065233568209e-01
      3.5409058264238374e-01 4.4557816405921935e-01
      3.7586855288432214e-01 -1.3277661602102944e-01
      4.4297397989460380e-01 5.9996251960926963e-02
      7.5276783180866491e-01 -7.8696132593987903e-02
      -4.5595421837715494e-01 8.3694879119884202e-01
      -9.7743346913841467e-01 1.2461687799133776e+00
      -3.4105063469654390e-01 7.5272992541007788e-01
      2.6973124236831858e-01 1.3984362629824709e+00
      -8.1365550256168300e-03 3.2299846143836436e-01
      5.6495904556728227e-01 2.1868699526309315e-01
      -3.3123234945864449e-01 4.7283767873957072e-01
      -1.0420855895265346e+00 -8.1401941304810821e-01
      1.5978908801103062e+00 -1.2921180359404481e+00
      3.4468735828685731e-01 1.9448211336198176e-01
      5.4103371025594073e-02 5.2609789288297726e-01
      1.7604227347835508e+00 -7.5961920351994883e-01
      -1.5786138186081151e+00 5.0341913161574114e-01
      -1.2971620559932178e+00 -9.5489986123963366e-01
      -1.3202795347543501e+00 5.1861040508657275e-01
      -1.2711106045840868e+00 -2.6046121266799638e-01
      5.4660546654906728e-01 -4.6650726129484360e-01
      6.3431214478990894e-01 1.6437666412122318e-01
      -1.2806341197932152e+00 -1.3816038964002650e-01
      3.6655594824826068e-02 8.4689607717486237e-02
      -5.6344238773470912e-01 4.6141771180816987e-01
      2.0971257782983124e-01 -1.0221351198778170e+00
      -5.8011696178732564e-01 5.7453147837662677e-01
      -9.7140882693634953e-02 1.5063206924139828e-02
      -7.5659845820704796e-01 -5.7483288828173484e-01
      4.4320918245909996e-01 -1.2051096408363684e+00
      5.9788439132955573e-01 -6.2549982207016686e-02
      -4.9234867022727745e-02 1.4812613751222645e-01
      2.6047177675536670e-01 -5.7027118948183775e-01
      7.1890197283155832e-01 1.0764031308851361e+00
      8.5848653174124268e-01 -6.6761100733373574e-02
      4.8723045789560104e-01 -1.3163326791229688e+00
      2.5356923249705626e-01 1.4757142511114452e+00
      -4.6530674056997218e-01 -3.0357536869625096e-01
      1.1721300469876311e-01 6.3721654300338970e-01
      9.3021382735563884e-01 1.4679584568071951e+00
      -1.9657274135550526e-01 -2.3211637805705920e-01
      -3.2274344228209312e-01 2.2151146719770029e-01
      5.4893016512987636e-01 -4.0610953349420126e-01
      1.2921097777333406e+00 -7.5920695383726727e-02
      5.7539454084313901e-01 -3.4500843936554515e-01
      1.5136294865321936e-01 -6.3881890563027766e-01
      2.6643558781602639e-01 1.7541247106027910e-01
      -1.9430628374012909e-01 -2.4439520256356054e-01
      3.2705062790838241e-01 -3.1940541394345145e-01
      -4.4995308405472695e-01 2.9908451153435084e-01
      3.4593624260058120e-01 4.0402643247016068e-01
      2.1696492970182793e-01 -1.4679998715245854e-01
      3.1480126805435193e-01 1.0110754266975001e-01
      5.3257079820867981e-01 -3.3614933175863165e-01
      8.6610803105556977e-01 8.5832149758987092e-02
      3.3598869188952496e-01 3.2854200098903175e-01
      4.0046054467441250e-01 -2.3912128082913844e-01
      7.8735810287705021e-01 6.1038104599388607e-03
      -1.6340333322759798e-01 -3.0653101447029774e-01
      7.0900497270472373e-01 4.0859167711123778e-01
      -3.6243559919818158e-01 7.9296872113021410e-01
      5.3316942183878517e-03 5.3091095988391714e-02
      1.3153237124736905e-01 6.9249454599334381e-01
      -4.9936324437066976e-01 -5.9546903908310123e-01
      -8.0316789968771696e-01 -2.8884309861600212e-02
      -5.2004746120809975e-01 2.2821272922388725e-03
      -5.1795295168642108e-01 -5.6501209376080841e-01
      -1.1993900919185729e-01 7.6736047859364840e-03
      1.4074139528230664e-01 -7.5883051755832676e-01
      -7.5550002208252046e-02 -1.1557906083191380e+00
      4.3605338431752166e-01 1.0302624718153925e+00
      4.6428339491714254e-01 3.1783504451869066e-01
      -4.4973067468728689e-01 -8.1521045609263557e-02
      -3.5487109051565296e-01 -1.1357329154789755e-01
      -4.8663142531995807e-01 -6.2089306909445377e-02
      1.2447866610803578e-01 5.3672662009850514e-01
      1.0348985281387053e+00 -3.3855514807519599e-01
      7.7784952515353212e-01 3.4586846294054718e-01
      -3.6908315234391875e-01 3.6575885110514911e-01
      -8.4867994806883351e-01 1.5301204765660676e-02
      1.5709541335839333e-01 -2.7206003372215981e-01
      6.6899704622745770e-01 8.2464102825561025e-01
      -1.9430192592573173e-01 8.0338621293869250e-01
      6.1439805749471665e-01 2.3724017328897162e-01
      1.7563241705874016e-01 5.4644921797122303e-01
      -3.0616408127221963e-02 1.1650566639444266e+00
      6.7211111420885872e-01 2.5711675896436238e-02
      -1.9964150852922705e-01 6.7391956636974126e-01
      4.1612405237423995e-02 -6.9818157482740395e-01
      -4.7323243430801815e-01 -2.1080019065364849e-01
      8.2676674737910905e-01 1.1168629230759151e-01
      1.1016010027146306e+00 -5.3914114129716584e-01
      -4.2543358085427574e-01 -8.7125580387295593e-02
      3.9950606357046061e-03 1.8733788238363655e-01
      9.3778155122972634e-02 4.7994567395391451e-02
      3.0209952479517066e-01 -2.2763569228670763e-01
      2.7681623277163009e-01 3.8336753962835646e-01
      -3.2321200902866504e-01 -1.1781101317019916e-02
      -7.3921140012608522e-01 -3.8301924911456092e-01
      2.3143508118256179e-01 3.7034135323227843e-02
      -1.5677964774973216e-01 -1.6198154292557454e-01
      8.5559825760429586e-02 -6.3325275494966393e-01
      -5.5382732615752182e-02 2.2821337370752748e-01
      -4.7201547019504131e-01 -5.5139420929638328e-01
      -1.0615060058869975e-01 9.3847423023867588e-02
      -1.6705991216769700e-01 -6.3854296443485548e-01
      -3.3900120294290892e-01 8.0024889317917602e-01
      1.2025617825458459e-01 -1.8377094977116863e-02
      9.2455322050980615e-01 4.8455417154134185e-02
      -1.3384394496159771e-01 -1.0866351681596960e+00
      -1.8302338135739332e-01 4.4913564909624192e-02
      -2.8731969009610880e-01 8.0691283149327964e-01
      -7.3953658673415773e-02 -3.1607660653048336e-01
      2.3101860089705170e-01 -5.8479724771898345e-01
      -1.6847845353604965e-01 -3.3397207514131266e-01
      -2.0442991502546221e-01 6.0942687657886518e-01
      -6.1812683518776512e-01 -1.0000638110337208e+00
      -3.7901811012448650e-01 2.2628830474632641e-02
      1.0353027052866979e+00 1.1633582437550148e-01
      -1.0733019616998309e+00 1.3151448103514116e+00
      -3.3426662935552527e-02 8.8712062869294139e-01
      1.9562702712004670e-01 7.6294318403217612e-02
      2.4571327527193601e-01 -3.8396500840651487e-01
      6.9191262476828808e-01 -8.8185677174052968e-01
      -8.3477164029733575e-01 1.6914078083139744e-02
      4.9420674249686047e-01 1.5811579656939589e-01
      1.9152003978828565e+00 -1.2382217745686235e+00
      1.1720284271739481e+00 -2.8437163474470600e-01
      -1.4389822375408536e+00 7.9110180988583545e-01
      1.2014296723470128e+00 2.2464801165993997e-01
      1.0873703613387589e+00 -5.0203012053599261e-01
      6.7142044678525437e-01 -1.0073725719340922e+00
      5.3324876792282261e-01 1.8587001095089868e+00
      1.1796960078128980e-01 5.8237309226270673e-01
      -2.9602172323139925e-01 -6.7478142806626462e-01
      -4.4779060848134761e-01 4.7256429505959721e-02
      2.1849823733032572e-01 1.7344760793400621e-01
      7.3269187329998015e-02 6.8815804788795218e-02
      -6.9609171609015708e-01 -5.7059421300318769e-01
      -1.2203856243759259e+00 6.1384212082248457e-01
      -1.1634280421756270e-01 1.3879646908341909e+00
      8.8911039718981211e-01 -8.5573049342322827e-01
      2.5183319640529830e-02 -1.7187658243571489e+00
      -3.1810853845035625e-01 -1.3409141244544523e-01
      -4.1670886838132609e-01 -1.4966826108244566e-01
      -1.2720667694312211e+00 6.6168313362182651e-01
      -5.8256950346444625e-01 -1.6602026769524139e-01
      -9.9913625491154334e-01 3.0180961968730419e-01
      -2.9422739637085293e-01 -2.9450401393589842e-01
      2.8018243660386677e-01 -6.7328132152136133e-01
      -1.1582709723874645e+00 -1.3643061793102802e+00
      3.2381444730243514e-01 -3.2091005889492258e-01
      -6.6803448382204600e-01 1.2451849109201547e+00
      8.2119301583773807e-01 -2.4855532389930265e-02
      1.1782327160384359e-01 3.4818589785275189e-01
      -7.8594461912647284e-01 6.4166224997557486e-01
      4.0580828329028311e-03 -3.1556516984145598e-02
      -1.5011919387339476e-01 -6.3585882557638096e-01
      -3.9045411262797319e-01 -2.9465913640247565e-01
      1.6931470419324159e+00 7.8436563995425659e-02
      6.5422537004675030e-01 2.2778757713161982e-01
      7.2039678064855195e-01 3.9921522823678984e-01
      -4.8719985770003960e-01 6.9564442855694775e-01
      1.4229400114045097e+00 7.3379025451118030e-01
      -1.1680729616084380e-01 -3.3891893005189605e-02
      -3.5285717026031109e-02 7.2015321099311320e-03
      -4.3036341636597375e-01 -2.0443751050920098e+00
      1.7585183809387381e+00 7.0284687455105621e-01
      3.2076956131691736e-01 -2.9488798804456495e-01
      2.9031822056381473e-01 -3.3658043592845677e-01
      1.4678542816618168e+00 -7.8439790953135757e-01
      -3.8735435324521228e-01 1.2060288956973783e-01
      -1.7468514568250668e-01 1.5830878590259329e-01
      -6.0618764839461636e-01 8.9580830588104365e-01
      1.7779437099619544e-01 -2.1096534618179671e-01
      2.9197450884695980e-01 -6.6320107140450923e-01
      -1.3514186565168695e-01 -3.7235818014865818e-01
      -9.0692454755946494e-01 1.9269829994358236e+00
      -7.3578356942708423e-01 5.7191289564558334e-01
      -1.0628981286121268e+00 5.9360383656305415e-01
      -2.0368614257726625e-01 5.2479973497437293e-01
      3.9977228222528011e-01 1.0822185120428474e-01
      -1.0725541964234881e+00 -4.9819250370717971e-01
      -6.0288434130560405e-02 -9.0369410327910726e-01
      3.3187857932426679e-02 -4.4458879848682664e-01
      1.9232442914841830e-01 1.3607361580815736e+00
      -2.8446634046791330e-01 3.2134800963742383e-01
      -4.9826590922756397e-01 2.3949557781865108e-01
      1.1599000783295099e+00 1.0962795151320541e+00
      -1.2840895435861549e-01 3.3820021171450676e-01
      -9.8280301302113005e-01 -2.8935832246763460e-01
      5.0311229005289548e-01 3.9674860303113840e-01
      -2.0579173543407268e+00 -7.0954248361310934e-01
      1.2253045220381721e-01 -4.4905421015296160e-01
      -1.1556831617003551e+00 2.4853364494823907e-01
      -2.4256471492432247e-01 -1.9460258325705868e-01
      1.1657566222524103e-01 -1.4709269869051356e-01
      -5.8220819378777533e-01 1.1727280377401628e+00
      -5.2873780224090061e-01 1.3270058675518570e+00
      -6.1619630778988987e-01 2.6247235343803956e-03
      -4.1945246230019784e-01 -2.5241671218396872e-01
      3.1361283876928658e-01 -1.1175309896906242e-01
      5.1516230929771523e-01 -7.2574555328093360e-01
      3.7659474062885273e-01 -7.1255111110011393e-01
      2.6730810169034364e-01 -9.8561559390425080e-01
      5.0055393032696793e-01 -3.8583259098575540e-01
      5.1203680313198097e-01 3.1145192928045040e-01
      -5.6220057475372054e-01 5.6954502843621535e-01
      -1.0436382758850924e+00 -4.4218076217891300e-01
      9.2230667614125045e-02 -5.0506050131922042e-01
      -1.3464199341832890e-02 4.8679707904048120e-01
      6.5978378009256933e-01 -7.4070785443093001e-01
      -8.1796893895558498e-01 3.7939206888239124e-02
      7.1832835648132165e-01 -1.3015352107589118e-01
      -6.0903103558784777e-01 9.3734549281913426e-01
      -7.9478532542063962e-01 3.8534505998439378e-01
      -2.3117939509424382e-01 -1.6778346416246231e-02
      -7.5062443438362070e-01 3.0949548725210113e-01
      4.8168509592447384e-01 3.4484180705295409e-01
      1.3188762644757268e+00 -2.6344884863237544e-01
      -1.0523647652570631e+00 6.3485003114140362e-02
      3.5071552945618906e-01 4.0045098518352457e-01
      -2.6442614005547449e-01 -2.4629729815036119e-01
      7.7861181703286997e-01 8.3791105934237720e-01
      -6.4085775375575293e-01 4.0676748430139870e-01
      -5.9613892873940333e-01 -1.8774229606213777e-01
      2.5718214884320895e-01 8.9934523548114043e-01
      9.7489477634465929e-02 -5.0055453630101610e-01
      1.9756942100070507e-01 -1.8306340446492916e-02
      6.3627176561733834e-01 5.9601267453127715e-01
      6.0658228648227563e-01 1.0957664850395219e+00
      2.9927868359021725e-01 5.6020561731995466e-01
      5.2634549824152255e-01 9.6389710360956704e-01
      -5.8874051440802933e-02 1.2208472711961085e-01
      -1.0590470888611681e+00 5.4671497474068986e-01
      3.7306726477451468e-01 9.1572568293333734e-01
      1.0193177340004785e-01 3.8046064448669681e-01
      -3.3314435257538660e-01 -8.0656636003310067e-01
      -6.6800326317243286e-01 -1.3058811016185187e-01
      5.0808893058767157e-01 -4.9686973625689562e-01
      -7.9189186402230516e-01 1.0788529596647220e-01
      -6.6767494311855469e-01 1.9323329911316384e-01
      -5.1257931088237718e-01 -2.4547219451138488e-01
      -5.7906383422912910e-01 -2.0061276120224400e-01
      7.0764779888680462e-02 5.7141647450208621e-01
      5.5516574651226436e-01 -2.3981616035981007e-01
      -6.5748095980056542e-01 -1.9408104560006789e-01
      -3.3294360939967704e-01 -1.0906030276433167e+00
      -7.3939550120240660e-01 8.6966812555156495e-02
      9.0483726860288594e-01 7.4407556483828430e-01
      4.5945620747876414e-01 -7.2942867205926576e-01
      8.3574913274676213e-02 5.5496266659989557e-01
      5.7820232292669704e-01 3.3626144216113030e-01
      7.3132173205593398e-01 5.9900473839958301e-01
      -5.4001652168221803e-01 -1.8769887218179210e-01
      -3.8003653128488846e-01 4.9572038876158747e-01
      4.0394195744439990e-02 2.1009372208743024e-01
      -2.8914840236561751e-01 3.4397443083756302e-01
      -2.5922717522513689e-01 -1.4670052163806901e-01
      8.8515363386369589e-02 2.3927261178627460e-01
      -3.8417243510529470e-01 -3.8419606023270197e-01
      1.7311302065517294e-02 7.9938661581748316e-01
      9.6345941802231161e-01 1.6156116393415373e-01
      -3.5440583352868971e-01 -1.6273989414566564e-01
      3.0234883559208131e-01 -3.8891854203473492e-01
      3.6087256130253986e-01 -2.4290416995807274e-01
      -3.1647675950289000e-01 2.7092609419139135e-01
      -1.3679565780102801e-01 -1.0891938185346355e+00
      -2.4954505720213849e-01 -7.6761783768335201e-01
      2.0141746126556108e-02 -2.0809017769630841e-02
      -9.4270849167874884e-02 5.2632911076065736e-01
      4.8476467017986885e-01 -1.4341017001490272e-01
      5.0828560399462952e-01 5.1629237364033076e-01
      -1.8484871925939803e-01 5.6206575505360268e-01
      -7.3370628493394319e-01 1.8940792097124209e-01
      -3.5158648637585177e-01 3.5990614421417416e-01
      1.0215125200934803e+00 4.6290996911821253e-01
      4.2690787022257509e-02 -1.2343636350157412e+00
      6.5925133461222238e-02 -8.9058105709195673e-02
      4.6884369559101602e-01 1.3420961945209717e-01
      5.0567723150239030e-01 -3.1335609236723361e-01
      7.8666072701923817e-01 -4.9098437970406666e-01
